booster[0]:
0:[f3<3.9749999] yes=1,no=2,missing=1
	1:leaf=0.0996131524
	2:[f5<3.9749999] yes=3,no=4,missing=3
		3:[f1<13.25] yes=5,no=6,missing=5
			5:[f0<13.25] yes=9,no=10,missing=9
				9:[f2<2.6500001] yes=15,no=16,missing=15
					15:[f4<11.9249992] yes=25,no=26,missing=25
						25:leaf=-0.088888891
						26:[f3<11.9249992] yes=35,no=36,missing=35
							35:leaf=-0.075000003
							36:leaf=0.0818181857
					16:leaf=-0.0976190493
				10:[f1<2.6500001] yes=17,no=18,missing=17
					17:leaf=0.0909090936
					18:[f2<2.6500001] yes=27,no=28,missing=27
						27:[f4<11.9249992] yes=37,no=38,missing=37
							37:leaf=-0.075000003
							38:leaf=-0
						28:leaf=-0.0939393938
			6:[f0<2.6500001] yes=11,no=12,missing=11
				11:leaf=0.0923076943
				12:[f0<13.25] yes=19,no=20,missing=19
					19:leaf=-0.0911111161
					20:leaf=0.0920000002
		4:[f5<11.9249992] yes=7,no=8,missing=7
			7:leaf=0.0994186029
			8:[f4<11.9249992] yes=13,no=14,missing=13
				13:[f0<13.25] yes=21,no=22,missing=21
					21:[f1<13.25] yes=29,no=30,missing=29
						29:[f2<2.6500001] yes=39,no=40,missing=39
							39:[f4<3.9749999] yes=47,no=48,missing=47
								47:leaf=-0.0833333358
								48:[f0<2.6500001] yes=55,no=56,missing=55
									55:leaf=0.075000003
									56:[f1<2.6500001] yes=65,no=66,missing=65
										65:leaf=-0
										66:leaf=-0.0777777806
							40:leaf=-0.0887323916
						30:[f0<2.6500001] yes=41,no=42,missing=41
							41:leaf=0.0857142881
							42:[f4<3.9749999] yes=49,no=50,missing=49
								49:leaf=-0.0874999985
								50:[f2<7.95000029] yes=57,no=58,missing=57
									57:leaf=0.0333333351
									58:leaf=-0.0777777806
					22:[f1<13.25] yes=31,no=32,missing=31
						31:[f1<2.6500001] yes=43,no=44,missing=43
							43:leaf=0.086666666
							44:[f2<7.95000029] yes=51,no=52,missing=51
								51:[f4<3.9749999] yes=59,no=60,missing=59
									59:leaf=-0.0777777806
									60:leaf=0.0555555597
								52:leaf=-0.0874999985
						32:leaf=0.088888891
				14:[f0<13.25] yes=23,no=24,missing=23
					23:[f0<2.6500001] yes=33,no=34,missing=33
						33:leaf=0.09375
						34:[f1<13.25] yes=45,no=46,missing=45
							45:[f1<2.6500001] yes=53,no=54,missing=53
								53:[f0<7.95000029] yes=61,no=62,missing=61
									61:leaf=-0.0555555597
									62:leaf=0.0777777806
								54:[f2<2.6500001] yes=63,no=64,missing=63
									63:[f3<11.9249992] yes=67,no=68,missing=67
										67:leaf=-0.0666666701
										68:leaf=0.0666666701
									64:leaf=-0.0913043544
							46:leaf=0.088888891
					24:leaf=0.0941176489
booster[1]:
0:[f3<3.9749999] yes=1,no=2,missing=1
	1:leaf=0.0948899612
	2:[f5<3.9749999] yes=3,no=4,missing=3
		3:[f1<13.25] yes=5,no=6,missing=5
			5:[f0<13.25] yes=9,no=10,missing=9
				9:[f2<2.6500001] yes=15,no=16,missing=15
					15:[f4<11.9249992] yes=25,no=26,missing=25
						25:leaf=-0.0850900784
						26:[f3<11.9249992] yes=35,no=36,missing=35
							35:leaf=-0.0722649619
							36:leaf=0.0785804167
					16:leaf=-0.0930742025
				10:[f1<2.6500001] yes=17,no=18,missing=17
					17:leaf=0.0869427845
					18:[f2<2.6500001] yes=27,no=28,missing=27
						27:[f4<11.9249992] yes=37,no=38,missing=37
							37:leaf=-0.0722649619
							38:leaf=-0
						28:leaf=-0.0897160023
			6:[f0<2.6500001] yes=11,no=12,missing=11
				11:leaf=0.0882235914
				12:[f0<13.25] yes=19,no=20,missing=19
					19:leaf=-0.0869331881
					20:leaf=0.0879419446
		4:[f5<11.9249992] yes=7,no=8,missing=7
			7:leaf=0.0947129354
			8:[f4<11.9249992] yes=13,no=14,missing=13
				13:[f0<13.25] yes=21,no=22,missing=21
					21:[f1<13.25] yes=29,no=30,missing=29
						29:[f2<2.6500001] yes=39,no=40,missing=39
							39:[f4<3.9749999] yes=47,no=48,missing=47
								47:leaf=-0.079978697
								48:[f0<2.6500001] yes=55,no=56,missing=55
									55:leaf=0.0722649619
									56:[f1<2.6500001] yes=65,no=66,missing=65
										65:leaf=-0
										66:leaf=-0.0748425499
							40:leaf=-0.08458516
						30:[f0<2.6500001] yes=41,no=42,missing=41
							41:leaf=0.0821722746
							42:[f4<3.9749999] yes=49,no=50,missing=49
								49:leaf=-0.0838145241
								50:[f2<7.95000029] yes=57,no=58,missing=57
									57:leaf=0.0320440717
									58:leaf=-0.0748425499
					22:[f1<13.25] yes=31,no=32,missing=31
						31:[f1<2.6500001] yes=43,no=44,missing=43
							43:leaf=0.083048448
							44:[f4<3.9749999] yes=51,no=52,missing=51
								51:leaf=-0.084012419
								52:[f2<7.95000029] yes=59,no=60,missing=59
									59:leaf=0.0534276664
									60:leaf=-0.0744879246
						32:leaf=0.0850900784
				14:[f1<13.25] yes=23,no=24,missing=23
					23:[f0<13.25] yes=33,no=34,missing=33
						33:[f0<2.6500001] yes=45,no=46,missing=45
							45:leaf=0.0875490084
							46:[f1<2.6500001] yes=53,no=54,missing=53
								53:[f0<7.95000029] yes=61,no=62,missing=61
									61:leaf=-0.0534276664
									62:leaf=0.0748425573
								54:[f2<2.6500001] yes=63,no=64,missing=63
									63:leaf=4.77261075e-09
									64:leaf=-0.0873048902
						34:leaf=0.088146925
					24:leaf=0.0899957642
booster[2]:
0:[f3<3.9749999] yes=1,no=2,missing=1
	1:leaf=0.0908061936
	2:[f5<3.9749999] yes=3,no=4,missing=3
		3:[f1<13.25] yes=5,no=6,missing=5
			5:[f0<13.25] yes=9,no=10,missing=9
				9:[f2<2.6500001] yes=15,no=16,missing=15
					15:[f4<11.9249992] yes=25,no=26,missing=25
						25:leaf=-0.0817228705
						26:[f3<11.9249992] yes=35,no=36,missing=35
							35:leaf=-0.0697702095
							36:leaf=0.0756669566
					16:leaf=-0.0891256928
				10:[f1<2.6500001] yes=17,no=18,missing=17
					17:leaf=0.0834428743
					18:[f2<2.6500001] yes=27,no=28,missing=27
						27:[f4<11.9249992] yes=37,no=38,missing=37
							37:leaf=-0.0697702095
							38:leaf=-0
						28:leaf=-0.0860148594
			6:[f0<2.6500001] yes=11,no=12,missing=11
				11:leaf=0.0846311077
				12:[f0<13.25] yes=19,no=20,missing=19
					19:leaf=-0.0832540989
					20:leaf=0.0843698829
		4:[f5<11.9249992] yes=7,no=8,missing=7
			7:leaf=0.0906423926
			8:[f4<11.9249992] yes=13,no=14,missing=13
				13:[f0<13.25] yes=21,no=22,missing=21
					21:[f1<13.25] yes=29,no=30,missing=29
						29:[f2<2.6500001] yes=39,no=40,missing=39
							39:[f4<3.9749999] yes=47,no=48,missing=47
								47:leaf=-0.0769695267
								48:[f0<2.6500001] yes=55,no=56,missing=55
									55:leaf=0.0697702095
									56:[f1<2.6500001] yes=65,no=66,missing=65
										65:leaf=-0
										66:leaf=-0.0721796975
							40:leaf=-0.0809192657
						30:[f0<2.6500001] yes=41,no=42,missing=41
							41:leaf=0.0790109858
							42:[f4<3.9749999] yes=49,no=50,missing=49
								49:leaf=-0.0805378109
								50:[f2<7.95000029] yes=57,no=58,missing=57
									57:leaf=0.0308173802
									58:leaf=-0.0721796975
					22:[f1<13.25] yes=31,no=32,missing=31
						31:[f1<2.6500001] yes=43,no=44,missing=43
							43:leaf=0.0798257366
							44:[f4<3.9749999] yes=51,no=52,missing=51
								51:leaf=-0.0807143822
								52:[f2<7.95000029] yes=59,no=60,missing=59
									59:leaf=0.0514400713
									60:leaf=-0.0718570203
						32:leaf=0.0817228779
				14:[f1<13.25] yes=23,no=24,missing=23
					23:[f0<13.25] yes=33,no=34,missing=33
						33:[f0<2.6500001] yes=45,no=46,missing=45
							45:leaf=0.0840091705
							46:[f1<2.6500001] yes=53,no=54,missing=53
								53:[f0<7.95000029] yes=61,no=62,missing=61
									61:leaf=-0.0514400676
									62:leaf=0.0721796975
								54:[f2<2.6500001] yes=63,no=64,missing=63
									63:leaf=4.77261075e-09
									64:leaf=-0.083778888
						34:leaf=0.0845634043
					24:leaf=0.0862686634
booster[3]:
0:[f3<3.9749999] yes=1,no=2,missing=1
	1:leaf=0.0872433335
	2:[f5<3.9749999] yes=3,no=4,missing=3
		3:[f1<13.25] yes=5,no=6,missing=5
			5:[f0<13.25] yes=9,no=10,missing=9
				9:[f2<2.6500001] yes=15,no=16,missing=15
					15:[f4<11.9249992] yes=25,no=26,missing=25
						25:leaf=-0.0787172616
						26:[f3<11.9249992] yes=35,no=36,missing=35
							35:leaf=-0.0674843565
							36:leaf=0.0730303377
					16:leaf=-0.085665457
				10:[f1<2.6500001] yes=17,no=18,missing=17
					17:leaf=0.080331631
					18:[f2<2.6500001] yes=27,no=28,missing=27
						27:[f4<11.9249992] yes=37,no=38,missing=37
							37:leaf=-0.0674843565
							38:leaf=-0
						28:leaf=-0.0827454999
			6:[f0<2.6500001] yes=11,no=12,missing=11
				11:leaf=0.0814468265
				12:[f0<13.25] yes=19,no=20,missing=19
					19:leaf=-0.0799873471
					20:leaf=0.0812016502
		4:[f5<11.9249992] yes=7,no=8,missing=7
			7:leaf=0.0870895311
			8:[f4<11.9249992] yes=13,no=14,missing=13
				13:[f0<13.25] yes=21,no=22,missing=21
					21:[f1<13.25] yes=29,no=30,missing=29
						29:[f2<2.6500001] yes=39,no=40,missing=39
							39:[f4<3.9749999] yes=47,no=48,missing=47
								47:leaf=-0.0742541105
								48:[f0<2.6500001] yes=55,no=56,missing=55
									55:leaf=0.0674843565
									56:[f1<2.6500001] yes=65,no=66,missing=65
										65:leaf=-0
										66:leaf=-0.0697518513
							40:leaf=-0.077651158
						30:[f0<2.6500001] yes=41,no=42,missing=41
							41:leaf=0.0761713609
							42:[f4<3.9749999] yes=49,no=50,missing=49
								49:leaf=-0.0776048452
								50:[f2<7.95000029] yes=57,no=58,missing=57
									57:leaf=0.0296485759
									58:leaf=-0.0697518513
					22:[f1<13.25] yes=31,no=32,missing=31
						31:[f1<2.6500001] yes=43,no=44,missing=43
							43:leaf=0.0769363493
							44:[f2<7.95000029] yes=51,no=52,missing=51
								51:[f4<3.9749999] yes=59,no=60,missing=59
									59:leaf=-0.0691763386
									60:leaf=0.0495772474
								52:leaf=-0.0779177174
						32:leaf=0.0787172616
				14:[f1<13.25] yes=23,no=24,missing=23
					23:[f0<13.25] yes=33,no=34,missing=33
						33:[f0<2.6500001] yes=45,no=46,missing=45
							45:leaf=0.0808668286
							46:[f1<2.6500001] yes=53,no=54,missing=53
								53:[f0<7.95000029] yes=61,no=62,missing=61
									61:leaf=-0.0495772399
									62:leaf=0.0697518513
								54:[f2<2.6500001] yes=63,no=64,missing=63
									63:leaf=-0
									64:leaf=-0.0806469917
						34:leaf=0.0813865885
					24:leaf=0.082978338
booster[4]:
0:[f3<3.9749999] yes=1,no=2,missing=1
	1:leaf=0.084110558
	2:[f5<3.9749999] yes=3,no=4,missing=3
		3:[f1<13.25] yes=5,no=6,missing=5
			5:[f0<13.25] yes=9,no=10,missing=9
				9:[f2<2.6500001] yes=15,no=16,missing=15
					15:[f4<11.9249992] yes=25,no=26,missing=25
						25:leaf=-0.0760173574
						26:[f3<11.9249992] yes=35,no=36,missing=35
							35:leaf=-0.0653810576
							36:leaf=0.0706316978
					16:leaf=-0.0826101005
				10:[f1<2.6500001] yes=17,no=18,missing=17
					17:leaf=0.0775474757
					18:[f2<2.6500001] yes=27,no=28,missing=27
						27:[f4<11.9249992] yes=37,no=38,missing=37
							37:leaf=-0.0653810576
							38:leaf=-0
						28:leaf=-0.0798370242
			6:[f0<2.6500001] yes=11,no=12,missing=11
				11:leaf=0.0786049515
				12:[f0<13.25] yes=19,no=20,missing=19
					19:leaf=-0.0770650581
					20:leaf=0.0783724189
		4:[f5<11.9249992] yes=7,no=8,missing=7
			7:leaf=0.0839642286
			8:[f4<11.9249992] yes=13,no=14,missing=13
				13:[f0<13.25] yes=21,no=22,missing=21
					21:[f1<13.25] yes=29,no=30,missing=29
						29:[f2<2.6500001] yes=39,no=40,missing=39
							39:[f4<3.9749999] yes=47,no=48,missing=47
								47:leaf=-0.071790278
								48:[f0<2.6500001] yes=55,no=56,missing=55
									55:leaf=0.0653810576
									56:[f1<2.6500001] yes=65,no=66,missing=65
										65:leaf=-0
										66:leaf=-0.0675280318
							40:leaf=-0.0747152343
						30:[f0<2.6500001] yes=41,no=42,missing=41
							41:leaf=0.0736056864
							42:[f4<3.9749999] yes=49,no=50,missing=49
								49:leaf=-0.0749634132
								50:[f2<7.95000029] yes=57,no=58,missing=57
									57:leaf=0.0285335034
									58:leaf=-0.0675280318
					22:[f1<13.25] yes=31,no=32,missing=31
						31:[f1<2.6500001] yes=43,no=44,missing=43
							43:leaf=0.0743301958
							44:[f4<3.9749999] yes=51,no=52,missing=51
								51:leaf=-0.0752473772
								52:[f2<7.95000029] yes=59,no=60,missing=59
									59:leaf=0.0478258692
									60:leaf=-0.0669968873
						32:leaf=0.0760173723
				14:[f0<13.25] yes=23,no=24,missing=23
					23:[f0<2.6500001] yes=33,no=34,missing=33
						33:leaf=0.0798212439
						34:[f1<13.25] yes=45,no=46,missing=45
							45:[f1<2.6500001] yes=53,no=54,missing=53
								53:[f0<7.95000029] yes=61,no=62,missing=61
									61:leaf=-0.047825858
									62:leaf=0.0675280243
								54:[f2<2.6500001] yes=63,no=64,missing=63
									63:leaf=-0
									64:leaf=-0.07784646
							46:leaf=0.0755655169
					24:leaf=0.0800919309
booster[5]:
0:[f3<3.9749999] yes=1,no=2,missing=1
	1:leaf=0.0813370571
	2:[f5<3.9749999] yes=3,no=4,missing=3
		3:[f1<13.25] yes=5,no=6,missing=5
			5:[f0<13.25] yes=9,no=10,missing=9
				9:[f2<2.6500001] yes=15,no=16,missing=15
					15:[f4<11.9249992] yes=25,no=26,missing=25
						25:leaf=-0.0735779777
						26:[f3<11.9249992] yes=35,no=36,missing=35
							35:leaf=-0.0634380355
							36:leaf=0.0684388801
					16:leaf=-0.079894118
				10:[f1<2.6500001] yes=17,no=18,missing=17
					17:leaf=0.0750409216
					18:[f2<2.6500001] yes=27,no=28,missing=27
						27:[f4<11.9249992] yes=37,no=38,missing=37
							37:leaf=-0.0634380355
							38:leaf=-0
						28:leaf=-0.0772330984
			6:[f0<2.6500001] yes=11,no=12,missing=11
				11:leaf=0.0760529265
				12:[f0<13.25] yes=19,no=20,missing=19
					19:leaf=-0.0744332075
					20:leaf=0.0758303329
		4:[f5<11.9249992] yes=7,no=8,missing=7
			7:leaf=0.0811962262
			8:[f4<11.9249992] yes=13,no=14,missing=13
				13:[f0<13.25] yes=21,no=22,missing=21
					21:[f1<13.25] yes=29,no=30,missing=29
						29:[f2<2.6500001] yes=39,no=40,missing=39
							39:[f4<3.9749999] yes=47,no=48,missing=47
								47:leaf=-0.0695433319
								48:[f0<2.6500001] yes=57,no=58,missing=57
									57:leaf=0.063438043
									58:[f1<2.6500001] yes=69,no=70,missing=69
										69:leaf=-0
										70:leaf=-0.0654822066
							40:[f2<7.95000029] yes=49,no=50,missing=49
								49:[f4<3.9749999] yes=59,no=60,missing=59
									59:leaf=-0.0709712133
									60:[f3<11.9249992] yes=71,no=72,missing=71
										71:leaf=-0.00408782763
										72:leaf=-0.0587928258
								50:leaf=-0.07952898
						30:[f0<2.6500001] yes=41,no=42,missing=41
							41:leaf=0.0712750107
							42:[f2<2.6500001] yes=51,no=52,missing=51
								51:leaf=-0.00490889745
								52:[f2<7.95000029] yes=61,no=62,missing=61
									61:leaf=-0.035755571
									62:leaf=-0.0725707933
					22:[f1<13.25] yes=31,no=32,missing=31
						31:[f1<2.6500001] yes=43,no=44,missing=43
							43:leaf=0.0719665363
							44:[f2<7.95000029] yes=53,no=54,missing=53
								53:[f4<3.9749999] yes=63,no=64,missing=63
									63:leaf=-0.0647545382
									64:leaf=0.0461744331
								54:leaf=-0.072958082
						32:leaf=0.0735779777
				14:[f1<13.25] yes=23,no=24,missing=23
					23:[f0<13.25] yes=33,no=34,missing=33
						33:[f0<2.6500001] yes=45,no=46,missing=45
							45:leaf=0.0754782483
							46:[f1<2.6500001] yes=55,no=56,missing=55
								55:[f0<7.95000029] yes=65,no=66,missing=65
									65:leaf=-0.0461744294
									66:leaf=0.0654822066
								56:[f2<2.6500001] yes=67,no=68,missing=67
									67:leaf=-0
									68:leaf=-0.0753269717
						34:leaf=0.0759561583
					24:leaf=0.0775076151
booster[6]:
0:[f3<3.9749999] yes=1,no=2,missing=1
	1:leaf=0.0788667575
	2:[f5<3.9749999] yes=3,no=4,missing=3
		3:[f1<13.25] yes=5,no=6,missing=5
			5:[f0<13.25] yes=9,no=10,missing=9
				9:[f2<2.6500001] yes=15,no=16,missing=15
					15:[f4<11.9249992] yes=25,no=26,missing=25
						25:leaf=-0.0713622198
						26:[f3<11.9249992] yes=35,no=36,missing=35
							35:leaf=-0.0616363548
							36:leaf=0.0664250851
					16:leaf=-0.0774653405
				10:[f1<2.6500001] yes=17,no=18,missing=17
					17:leaf=0.0727718249
					18:[f2<2.6500001] yes=27,no=28,missing=27
						27:[f4<11.9249992] yes=37,no=38,missing=37
							37:leaf=-0.0616363548
							38:leaf=-0
						28:leaf=-0.0748883411
			6:[f0<2.6500001] yes=11,no=12,missing=11
				11:leaf=0.0737482384
				12:[f0<13.25] yes=19,no=20,missing=19
					19:leaf=-0.0720481947
					20:leaf=0.0735333711
		4:[f5<11.9249992] yes=7,no=8,missing=7
			7:leaf=0.0787298456
			8:[f4<11.9249992] yes=13,no=14,missing=13
				13:[f0<13.25] yes=21,no=22,missing=21
					21:[f1<13.25] yes=29,no=30,missing=29
						29:[f2<2.6500001] yes=39,no=40,missing=39
							39:[f4<3.9749999] yes=47,no=48,missing=47
								47:leaf=-0.0674844831
								48:[f0<2.6500001] yes=57,no=58,missing=57
									57:leaf=0.0616363548
									58:[f1<2.6500001] yes=69,no=70,missing=69
										69:leaf=-0
										70:leaf=-0.0635924637
							40:[f2<7.95000029] yes=49,no=50,missing=49
								49:[f4<3.9749999] yes=59,no=60,missing=59
									59:leaf=-0.0688691065
									60:[f3<11.9249992] yes=71,no=72,missing=71
										71:leaf=-0.00392831303
										72:leaf=-0.0572371893
								50:leaf=-0.0770373419
						30:[f0<2.6500001] yes=41,no=42,missing=41
							41:leaf=0.0691472217
							42:[f4<3.9749999] yes=51,no=52,missing=51
								51:leaf=-0.0712878257
								52:[f2<7.95000029] yes=61,no=62,missing=61
									61:leaf=0.028310556
									62:leaf=-0.063393198
					22:[f1<13.25] yes=31,no=32,missing=31
						31:[f1<2.6500001] yes=43,no=44,missing=43
							43:leaf=0.0698118433
							44:[f4<3.9749999] yes=53,no=54,missing=53
								53:leaf=-0.070746921
								54:[f2<7.95000029] yes=63,no=64,missing=63
									63:leaf=0.0446130186
									64:leaf=-0.062917538
						32:leaf=0.0713622198
				14:[f1<13.25] yes=23,no=24,missing=23
					23:[f0<13.25] yes=33,no=34,missing=33
						33:[f0<2.6500001] yes=45,no=46,missing=45
							45:leaf=0.0732000917
							46:[f1<2.6500001] yes=55,no=56,missing=55
								55:[f0<7.95000029] yes=65,no=66,missing=65
									65:leaf=-0.0446130186
									66:leaf=0.0635924637
								56:[f2<2.6500001] yes=67,no=68,missing=67
									67:leaf=-0
									68:leaf=-0.073047705
						34:leaf=0.0736606047
					24:leaf=0.0751444027
booster[7]:
0:[f3<3.9749999] yes=1,no=2,missing=1
	1:leaf=0.0766547099
	2:[f5<3.9749999] yes=3,no=4,missing=3
		3:[f1<13.25] yes=5,no=6,missing=5
			5:[f0<13.25] yes=9,no=10,missing=9
				9:[f2<2.6500001] yes=15,no=16,missing=15
					15:[f4<11.9249992] yes=25,no=26,missing=25
						25:leaf=-0.0693396479
						26:[f3<11.9249992] yes=35,no=36,missing=35
							35:leaf=-0.0599598251
							36:leaf=0.0645678043
					16:leaf=-0.0752817169
				10:[f1<2.6500001] yes=17,no=18,missing=17
					17:leaf=0.0707072392
					18:[f2<2.6500001] yes=27,no=28,missing=27
						27:[f4<11.9249992] yes=37,no=38,missing=37
							37:leaf=-0.0599598251
							38:leaf=-0
						28:leaf=-0.0727658346
			6:[f0<2.6500001] yes=11,no=12,missing=11
				11:leaf=0.0716561228
				12:[f0<13.25] yes=19,no=20,missing=19
					19:leaf=-0.0698745176
					20:leaf=0.0714472011
		4:[f5<11.9249992] yes=7,no=8,missing=7
			7:leaf=0.0765204057
			8:[f4<11.9249992] yes=13,no=14,missing=13
				13:[f0<13.25] yes=21,no=22,missing=21
					21:[f1<13.25] yes=29,no=30,missing=29
						29:[f2<2.6500001] yes=39,no=40,missing=39
							39:[f4<3.9749999] yes=47,no=48,missing=47
								47:leaf=-0.0655896366
								48:[f0<2.6500001] yes=57,no=58,missing=57
									57:leaf=0.0599598177
									58:[f1<2.6500001] yes=69,no=70,missing=69
										69:leaf=-0
										70:leaf=-0.0618401952
							40:[f2<7.95000029] yes=49,no=50,missing=49
								49:[f4<3.9749999] yes=59,no=60,missing=59
									59:leaf=-0.0669398531
									60:[f3<11.9249992] yes=71,no=72,missing=71
										71:leaf=-0.0037749589
										72:leaf=-0.0557780825
								50:leaf=-0.0747935995
						30:[f0<2.6500001] yes=41,no=42,missing=41
							41:leaf=0.0671955869
							42:[f4<3.9749999] yes=51,no=52,missing=51
								51:leaf=-0.0692209527
								52:[f2<7.95000029] yes=61,no=62,missing=61
									61:leaf=0.0272553992
									62:leaf=-0.0616550408
					22:[f1<13.25] yes=31,no=32,missing=31
						31:[f1<2.6500001] yes=43,no=44,missing=43
							43:leaf=0.0678383335
							44:[f2<7.95000029] yes=53,no=54,missing=53
								53:[f4<3.9749999] yes=63,no=64,missing=63
									63:leaf=-0.0610067509
									64:leaf=0.0431329869
								54:leaf=-0.0688357279
						32:leaf=0.0693396404
				14:[f0<13.25] yes=23,no=24,missing=23
					23:[f0<2.6500001] yes=33,no=34,missing=33
						33:leaf=0.0727949366
						34:[f1<13.25] yes=45,no=46,missing=45
							45:[f1<2.6500001] yes=55,no=56,missing=55
								55:[f0<7.95000029] yes=65,no=66,missing=65
									65:leaf=-0.0431329906
									66:leaf=0.061840184
								56:[f2<2.6500001] yes=67,no=68,missing=67
									67:leaf=-0
									68:leaf=-0.0709752068
							46:leaf=0.0687675402
					24:leaf=0.073036544
booster[8]:
0:[f3<3.9749999] yes=1,no=2,missing=1
	1:leaf=0.0746643916
	2:[f5<3.9749999] yes=3,no=4,missing=3
		3:[f1<13.25] yes=5,no=6,missing=5
			5:[f0<13.25] yes=9,no=10,missing=9
				9:[f2<2.6500001] yes=15,no=16,missing=15
					15:[f4<11.9249992] yes=25,no=26,missing=25
						25:leaf=-0.0674849004
						26:[f3<11.9249992] yes=35,no=36,missing=35
							35:leaf=-0.0583945177
							36:leaf=0.0628479794
					16:leaf=-0.0733089373
				10:[f1<2.6500001] yes=17,no=18,missing=17
					17:leaf=0.0688198358
					18:[f2<2.6500001] yes=27,no=28,missing=27
						27:[f3<11.9249992] yes=37,no=38,missing=37
							37:leaf=-0.0620465651
							38:leaf=-0.00318164937
						28:leaf=-0.0708351955
			6:[f0<2.6500001] yes=11,no=12,missing=11
				11:leaf=0.0697478652
				12:[f0<13.25] yes=19,no=20,missing=19
					19:leaf=-0.0678828582
					20:leaf=0.0695434064
		4:[f5<11.9249992] yes=7,no=8,missing=7
			7:leaf=0.0745316371
			8:[f4<11.9249992] yes=13,no=14,missing=13
				13:[f0<13.25] yes=21,no=22,missing=21
					21:[f1<13.25] yes=29,no=30,missing=29
						29:[f2<2.6500001] yes=39,no=40,missing=39
							39:[f4<3.9749999] yes=47,no=48,missing=47
								47:leaf=-0.0638384745
								48:[f0<2.6500001] yes=57,no=58,missing=57
									57:leaf=0.0583945177
									58:[f0<7.95000029] yes=69,no=70,missing=69
										69:leaf=-0.0638380349
										70:leaf=-0.00281662517
							40:[f2<7.95000029] yes=49,no=50,missing=49
								49:[f4<3.9749999] yes=59,no=60,missing=59
									59:leaf=-0.0651615784
									60:[f3<11.9249992] yes=71,no=72,missing=71
										71:leaf=-0.00362755242
										72:leaf=-0.0544056594
								50:leaf=-0.0727628767
						30:[f0<2.6500001] yes=41,no=42,missing=41
							41:leaf=0.0653977245
							42:[f2<2.6500001] yes=51,no=52,missing=51
								51:leaf=-0.00269202213
								52:[f2<7.95000029] yes=61,no=62,missing=61
									61:leaf=-0.0333415829
									62:leaf=-0.0666693076
					22:[f1<13.25] yes=31,no=32,missing=31
						31:[f1<2.6500001] yes=43,no=44,missing=43
							43:leaf=0.0660227314
							44:[f4<3.9749999] yes=53,no=54,missing=53
								53:leaf=-0.0669711009
								54:[f2<7.95000029] yes=63,no=64,missing=63
									63:leaf=0.0417268239
									64:leaf=-0.0594309866
						32:leaf=0.0674848929
				14:[f1<13.25] yes=23,no=24,missing=23
					23:[f0<13.25] yes=33,no=34,missing=33
						33:[f0<2.6500001] yes=45,no=46,missing=45
							45:leaf=0.0691953152
							46:[f1<2.6500001] yes=55,no=56,missing=55
								55:[f0<7.95000029] yes=65,no=66,missing=65
									65:leaf=-0.0417268239
									66:leaf=0.0602094941
								56:[f2<2.6500001] yes=67,no=68,missing=67
									67:leaf=-0
									68:leaf=-0.0690817609
						34:leaf=0.0696373507
					24:leaf=0.0711192712
booster[9]:
0:[f3<3.9749999] yes=1,no=2,missing=1
	1:leaf=0.0728658661
	2:[f5<3.9749999] yes=3,no=4,missing=3
		3:[f1<13.25] yes=5,no=6,missing=5
			5:[f0<13.25] yes=9,no=10,missing=9
				9:[f2<2.6500001] yes=15,no=16,missing=15
					15:[f4<11.9249992] yes=25,no=26,missing=25
						25:leaf=-0.0657767281
						26:[f3<11.9249992] yes=35,no=36,missing=35
							35:leaf=-0.0569284335
							36:leaf=0.0612494126
					16:leaf=-0.0715187117
				10:[f1<2.6500001] yes=17,no=18,missing=17
					17:leaf=0.0670867935
					18:[f2<2.6500001] yes=27,no=28,missing=27
						27:[f3<11.9249992] yes=37,no=38,missing=37
							37:leaf=-0.0603060015
							38:leaf=-0.00307047484
						28:leaf=-0.0690711662
			6:[f0<2.6500001] yes=11,no=12,missing=11
				11:leaf=0.0679995418
				12:[f0<13.25] yes=19,no=20,missing=19
					19:leaf=-0.0660488829
					20:leaf=0.0677983016
		4:[f5<11.9249992] yes=7,no=8,missing=7
			7:leaf=0.0727337226
			8:[f4<11.9249992] yes=13,no=14,missing=13
				13:[f0<13.25] yes=21,no=22,missing=21
					21:[f1<13.25] yes=29,no=30,missing=29
						29:[f2<2.6500001] yes=39,no=40,missing=39
							39:[f4<3.9749999] yes=47,no=48,missing=47
								47:leaf=-0.0622137487
								48:[f0<2.6500001] yes=57,no=58,missing=57
									57:leaf=0.0569284372
									58:[f0<7.95000029] yes=69,no=70,missing=69
										69:leaf=-0.0620415024
										70:leaf=-0.00271819485
							40:[f2<7.95000029] yes=49,no=50,missing=49
								49:[f4<3.9749999] yes=59,no=60,missing=59
									59:leaf=-0.0635157898
									60:[f3<11.9249992] yes=71,no=72,missing=71
										71:leaf=-0.003485861
										72:leaf=-0.0531113334
								50:leaf=-0.0709164068
						30:[f0<2.6500001] yes=41,no=42,missing=41
							41:leaf=0.0637347177
							42:[f4<3.9749999] yes=51,no=52,missing=51
								51:leaf=-0.066343464
								52:[f2<7.95000029] yes=61,no=62,missing=61
									61:leaf=0.0269984882
									62:leaf=-0.0583619289
					22:[f1<13.25] yes=31,no=32,missing=31
						31:[f1<2.6500001] yes=43,no=44,missing=43
							43:leaf=0.0643454418
							44:[f2<7.95000029] yes=53,no=54,missing=53
								53:[f4<3.9749999] yes=63,no=64,missing=63
									63:leaf=-0.0577760115
									64:leaf=0.0403879434
								54:leaf=-0.0653479695
						32:leaf=0.0657767281
				14:[f0<13.25] yes=23,no=24,missing=23
					23:[f0<2.6500001] yes=33,no=34,missing=33
						33:leaf=0.0691063628
						34:[f1<13.25] yes=45,no=46,missing=45
							45:[f1<2.6500001] yes=55,no=56,missing=55
								55:[f0<7.95000029] yes=65,no=66,missing=65
									65:leaf=-0.0403879359
									66:leaf=0.0586867407
								56:[f2<2.6500001] yes=67,no=68,missing=67
									67:leaf=-0
									68:leaf=-0.0673442408
							46:leaf=0.0651901215
					24:leaf=0.0693395585
booster[10]:
0:[f3<3.9749999] yes=1,no=2,missing=1
	1:leaf=0.0712343156
	2:[f5<3.9749999] yes=3,no=4,missing=3
		3:[f1<13.25] yes=5,no=6,missing=5
			5:[f0<13.25] yes=9,no=10,missing=9
				9:[f2<2.6500001] yes=15,no=16,missing=15
					15:[f4<11.9249992] yes=25,no=26,missing=25
						25:leaf=-0.0641971603
						26:[f3<11.9249992] yes=37,no=38,missing=37
							37:leaf=-0.055551149
							38:leaf=0.0597582124
					16:leaf=-0.0698875263
				10:[f1<2.6500001] yes=17,no=18,missing=17
					17:leaf=0.0654889047
					18:[f2<2.6500001] yes=27,no=28,missing=27
						27:[f3<11.9249992] yes=39,no=40,missing=39
							39:leaf=-0.0586787164
							40:leaf=-0.00296316179
						28:leaf=-0.0674526021
			6:[f0<2.6500001] yes=11,no=12,missing=11
				11:leaf=0.0663910434
				12:[f0<13.25] yes=19,no=20,missing=19
					19:[f2<2.6500001] yes=29,no=30,missing=29
						29:leaf=-0.0343769044
						30:leaf=-0.0686507821
					20:leaf=0.0661919788
		4:[f5<11.9249992] yes=7,no=8,missing=7
			7:leaf=0.0711019859
			8:[f4<11.9249992] yes=13,no=14,missing=13
				13:[f0<13.25] yes=21,no=22,missing=21
					21:[f0<2.6500001] yes=31,no=32,missing=31
						31:[f1<13.25] yes=41,no=42,missing=41
							41:[f4<3.9749999] yes=49,no=50,missing=49
								49:leaf=-0.0665437356
								50:[f2<7.95000029] yes=57,no=58,missing=57
									57:[f3<11.9249992] yes=69,no=70,missing=69
										69:leaf=0.0676652119
										70:leaf=0.0110673979
									58:leaf=-0.0601822808
							42:leaf=0.0621904917
						32:[f4<3.9749999] yes=43,no=44,missing=43
							43:leaf=-0.0697030723
							44:[f2<2.6500001] yes=51,no=52,missing=51
								51:[f0<7.95000029] yes=59,no=60,missing=59
									59:leaf=-0.0292998161
									60:leaf=0.00911876094
								52:[f3<11.9249992] yes=61,no=62,missing=61
									61:[f2<7.95000029] yes=71,no=72,missing=71
										71:leaf=-0.00935825799
										72:leaf=-0.0589600466
									62:leaf=-0.0686494336
					22:[f1<13.25] yes=33,no=34,missing=33
						33:[f1<2.6500001] yes=45,no=46,missing=45
							45:leaf=0.0627898201
							46:[f4<3.9749999] yes=53,no=54,missing=53
								53:leaf=-0.0637501627
								54:[f2<7.95000029] yes=63,no=64,missing=63
									63:leaf=0.0391105525
									64:leaf=-0.0564032383
						34:leaf=0.0641971529
				14:[f1<13.25] yes=23,no=24,missing=23
					23:[f0<13.25] yes=35,no=36,missing=35
						35:[f0<2.6500001] yes=47,no=48,missing=47
							47:leaf=0.0658314154
							48:[f1<2.6500001] yes=55,no=56,missing=55
								55:[f0<7.95000029] yes=65,no=66,missing=65
									65:leaf=-0.0391105525
									66:leaf=0.057260152
								56:[f2<2.6500001] yes=67,no=68,missing=67
									67:leaf=-0
									68:leaf=-0.0657431707
						36:leaf=0.0662644655
					24:leaf=0.0677573159
booster[11]:
0:[f3<3.9749999] yes=1,no=2,missing=1
	1:leaf=0.0697490051
	2:[f5<3.9749999] yes=3,no=4,missing=3
		3:[f1<13.25] yes=5,no=6,missing=5
			5:[f0<13.25] yes=9,no=10,missing=9
				9:[f2<2.6500001] yes=15,no=16,missing=15
					15:[f4<11.9249992] yes=25,no=26,missing=25
						25:leaf=-0.0627308935
						26:[f3<11.9249992] yes=37,no=38,missing=37
							37:leaf=-0.0542535894
							38:leaf=0.058362443
					16:leaf=-0.068395637
				10:[f1<2.6500001] yes=17,no=18,missing=17
					17:leaf=0.0640098527
					18:[f2<2.6500001] yes=27,no=28,missing=27
						27:[f3<11.9249992] yes=39,no=40,missing=39
							39:leaf=-0.0571528561
							40:leaf=-0.00285960245
						28:leaf=-0.0659616515
			6:[f0<2.6500001] yes=11,no=12,missing=11
				11:leaf=0.0649053603
				12:[f0<13.25] yes=19,no=20,missing=19
					19:[f2<2.6500001] yes=29,no=30,missing=29
						29:leaf=-0.0333824567
						30:leaf=-0.0670977831
					20:leaf=0.0647075847
		4:[f5<11.9249992] yes=7,no=8,missing=7
			7:leaf=0.0696158037
			8:[f4<11.9249992] yes=13,no=14,missing=13
				13:[f0<13.25] yes=21,no=22,missing=21
					21:[f1<13.25] yes=31,no=32,missing=31
						31:[f4<3.9749999] yes=41,no=42,missing=41
							41:leaf=-0.0682908744
							42:[f2<7.95000029] yes=49,no=50,missing=49
								49:[f0<2.6500001] yes=57,no=58,missing=57
									57:[f3<11.9249992] yes=67,no=68,missing=67
										67:leaf=0.065654479
										68:leaf=0.0106897103
									58:[f1<2.6500001] yes=69,no=70,missing=69
										69:leaf=-0.00726262992
										70:leaf=-0.0662572309
								50:leaf=-0.0645287037
						32:[f0<2.6500001] yes=43,no=44,missing=43
							43:leaf=0.0607513003
							44:[f4<3.9749999] yes=51,no=52,missing=51
								51:leaf=-0.0630059391
								52:[f2<7.95000029] yes=59,no=60,missing=59
									59:leaf=0.0270956457
									60:leaf=-0.0554926284
					22:[f1<13.25] yes=33,no=34,missing=33
						33:[f1<2.6500001] yes=45,no=46,missing=45
							45:leaf=0.0613416694
							46:[f2<2.6500001] yes=53,no=54,missing=53
								53:leaf=0.00507772854
								54:[f2<7.95000029] yes=61,no=62,missing=61
									61:leaf=-0.0222739633
									62:leaf=-0.0623505488
						34:leaf=0.0627308935
				14:[f1<13.25] yes=23,no=24,missing=23
					23:[f0<13.25] yes=35,no=36,missing=35
						35:[f0<2.6500001] yes=47,no=48,missing=47
							47:leaf=0.0643592104
							48:[f1<2.6500001] yes=55,no=56,missing=55
								55:[f0<7.95000029] yes=63,no=64,missing=63
									63:leaf=-0.0378895812
									64:leaf=0.0559195355
								56:[f2<2.6500001] yes=65,no=66,missing=65
									65:leaf=-0
									66:leaf=-0.0642620474
						36:leaf=0.0647881925
					24:leaf=0.0662514046
booster[12]:
0:[f3<3.9749999] yes=1,no=2,missing=1
	1:leaf=0.0683924481
	2:[f5<3.9749999] yes=3,no=4,missing=3
		3:[f1<13.25] yes=5,no=6,missing=5
			5:[f0<13.25] yes=9,no=10,missing=9
				9:[f2<2.6500001] yes=15,no=16,missing=15
					15:[f4<11.9249992] yes=25,no=26,missing=25
						25:leaf=-0.0613648295
						26:[f3<11.9249992] yes=37,no=38,missing=37
							37:leaf=-0.0530278087
							38:leaf=0.0570517741
					16:leaf=-0.0670263618
				10:[f1<2.6500001] yes=17,no=18,missing=17
					17:leaf=0.0626356974
					18:[f2<2.6500001] yes=27,no=28,missing=27
						27:[f3<11.9249992] yes=39,no=40,missing=39
							39:leaf=-0.0557181239
							40:leaf=-0.00275963754
						28:leaf=-0.0645831525
			6:[f0<2.6500001] yes=11,no=12,missing=11
				11:leaf=0.0635279641
				12:[f0<13.25] yes=19,no=20,missing=19
					19:[f2<2.6500001] yes=29,no=30,missing=29
						29:leaf=-0.0324224606
						30:leaf=-0.0656661317
					20:leaf=0.0633307397
		4:[f5<11.9249992] yes=7,no=8,missing=7
			7:leaf=0.0682577416
			8:[f4<11.9249992] yes=13,no=14,missing=13
				13:[f0<13.25] yes=21,no=22,missing=21
					21:[f1<13.25] yes=31,no=32,missing=31
						31:[f2<2.6500001] yes=41,no=42,missing=41
							41:[f0<2.6500001] yes=49,no=50,missing=49
								49:[f4<3.9749999] yes=59,no=60,missing=59
									59:leaf=-0.0483345613
									60:leaf=0.0537909381
								50:[f0<7.95000029] yes=61,no=62,missing=61
									61:leaf=-0.0609453395
									62:leaf=-0.0204797406
							42:[f2<7.95000029] yes=51,no=52,missing=51
								51:[f4<3.9749999] yes=63,no=64,missing=63
									63:leaf=-0.0589293726
									64:[f3<11.9249992] yes=73,no=74,missing=73
										73:leaf=-0.00304524833
										74:leaf=-0.0508426614
								52:leaf=-0.0663712621
						32:[f0<2.6500001] yes=43,no=44,missing=43
							43:leaf=0.0594053157
							44:[f2<2.6500001] yes=53,no=54,missing=53
								53:leaf=0.000924267515
								54:[f2<7.95000029] yes=65,no=66,missing=65
									65:leaf=-0.0295195784
									66:leaf=-0.060551025
					22:[f1<13.25] yes=33,no=34,missing=33
						33:[f1<2.6500001] yes=45,no=46,missing=45
							45:leaf=0.0599887744
							46:[f4<3.9749999] yes=55,no=56,missing=55
								55:leaf=-0.0615216866
								56:[f2<7.95000029] yes=67,no=68,missing=67
									67:leaf=0.0380979143
									68:leaf=-0.0537363999
						34:leaf=0.0613648295
				14:[f0<13.25] yes=23,no=24,missing=23
					23:[f0<2.6500001] yes=35,no=36,missing=35
						35:leaf=0.0646319911
						36:[f1<13.25] yes=47,no=48,missing=47
							47:[f3<11.9249992] yes=57,no=58,missing=57
								57:[f1<2.6500001] yes=69,no=70,missing=69
									69:leaf=-0.0126129333
									70:leaf=-0.0677853301
								58:[f2<2.6500001] yes=71,no=72,missing=71
									71:leaf=0.0740231499
									72:[f1<2.6500001] yes=75,no=76,missing=75
										75:leaf=0.00647364883
										76:leaf=-0.0574502125
							48:leaf=0.0607224107
					24:leaf=0.0648613349
booster[13]:
0:[f3<3.9749999] yes=1,no=2,missing=1
	1:leaf=0.0671498403
	2:[f5<3.9749999] yes=3,no=4,missing=3
		3:[f1<13.25] yes=5,no=6,missing=5
			5:[f0<13.25] yes=9,no=10,missing=9
				9:[f2<2.6500001] yes=15,no=16,missing=15
					15:[f4<11.9249992] yes=25,no=26,missing=25
						25:leaf=-0.0600876883
						26:[f3<11.9249992] yes=37,no=38,missing=37
							37:leaf=-0.0518668778
							38:leaf=0.0558172278
					16:leaf=-0.0657654852
				10:[f1<2.6500001] yes=17,no=18,missing=17
					17:leaf=0.061354477
					18:[f2<2.6500001] yes=27,no=28,missing=27
						27:[f3<11.9249992] yes=39,no=40,missing=39
							39:leaf=-0.0543655269
							40:leaf=-0.00266316975
						28:leaf=-0.0633040816
			6:[f0<2.6500001] yes=11,no=12,missing=11
				11:leaf=0.0622464381
				12:[f0<13.25] yes=19,no=20,missing=19
					19:[f2<2.6500001] yes=29,no=30,missing=29
						29:leaf=-0.0314947627
						30:leaf=-0.06434156
					20:leaf=0.0620490871
		4:[f5<11.9249992] yes=7,no=8,missing=7
			7:leaf=0.0670130551
			8:[f4<11.9249992] yes=13,no=14,missing=13
				13:[f0<13.25] yes=21,no=22,missing=21
					21:[f1<13.25] yes=31,no=32,missing=31
						31:[f4<3.9749999] yes=41,no=42,missing=41
							41:leaf=-0.0656320229
							42:[f2<7.95000029] yes=49,no=50,missing=49
								49:[f0<2.6500001] yes=57,no=58,missing=57
									57:[f3<11.9249992] yes=67,no=68,missing=67
										67:leaf=0.0632901266
										68:leaf=0.0100397114
									58:[f1<2.6500001] yes=69,no=70,missing=69
										69:leaf=-0.00568450009
										70:leaf=-0.0638741478
								50:leaf=-0.0618024357
						32:[f0<2.6500001] yes=43,no=44,missing=43
							43:leaf=0.0581422932
							44:[f4<3.9749999] yes=51,no=52,missing=51
								51:leaf=-0.0608763695
								52:[f2<7.95000029] yes=59,no=60,missing=59
									59:leaf=0.0267120749
									60:leaf=-0.0529464744
					22:[f1<13.25] yes=33,no=34,missing=33
						33:[f1<2.6500001] yes=45,no=46,missing=45
							45:leaf=0.0587205961
							46:[f4<3.9749999] yes=53,no=54,missing=53
								53:leaf=-0.0601857901
								54:[f2<7.95000029] yes=61,no=62,missing=61
									61:leaf=0.0369201526
									62:leaf=-0.0525906794
						34:leaf=0.0600876883
				14:[f1<13.25] yes=23,no=24,missing=23
					23:[f0<13.25] yes=35,no=36,missing=35
						35:[f0<2.6500001] yes=47,no=48,missing=47
							47:leaf=0.0616868809
							48:[f3<11.9249992] yes=55,no=56,missing=55
								55:[f1<2.6500001] yes=63,no=64,missing=63
									63:leaf=-0.0121352654
									64:leaf=-0.0660843775
								56:[f2<2.6500001] yes=65,no=66,missing=65
									65:leaf=0.0714825392
									66:[f1<2.6500001] yes=71,no=72,missing=71
										71:leaf=0.00625356659
										72:leaf=-0.0562681742
						36:leaf=0.0621167235
					24:leaf=0.063611947
booster[14]:
0:[f3<3.9749999] yes=1,no=2,missing=1
	1:leaf=0.0660084933
	2:[f5<3.9749999] yes=3,no=4,missing=3
		3:[f1<13.25] yes=5,no=6,missing=5
			5:[f0<13.25] yes=9,no=10,missing=9
				9:[f2<2.6500001] yes=15,no=16,missing=15
					15:[f4<11.9249992] yes=25,no=26,missing=25
						25:leaf=-0.0588896871
						26:[f3<11.9249992] yes=37,no=38,missing=37
							37:leaf=-0.0507646501
							38:leaf=0.0546509735
					16:leaf=-0.0646008253
				10:[f1<2.6500001] yes=17,no=18,missing=17
					17:leaf=0.0601558499
					18:[f2<2.6500001] yes=27,no=28,missing=27
						27:[f3<11.9249992] yes=39,no=40,missing=39
							39:leaf=-0.0530871749
							40:leaf=-0.00257005799
						28:leaf=-0.0621132553
			6:[f0<2.6500001] yes=11,no=12,missing=11
				11:leaf=0.0610500276
				12:[f0<13.25] yes=19,no=20,missing=19
					19:[f2<2.6500001] yes=29,no=30,missing=29
						29:leaf=-0.030597439
						30:leaf=-0.0631118566
					20:leaf=0.0608519912
		4:[f5<11.9249992] yes=7,no=8,missing=7
			7:leaf=0.0658691153
			8:[f4<11.9249992] yes=13,no=14,missing=13
				13:[f0<13.25] yes=21,no=22,missing=21
					21:[f1<13.25] yes=31,no=32,missing=31
						31:[f4<3.9749999] yes=41,no=42,missing=41
							41:leaf=-0.0643651858
							42:[f2<7.95000029] yes=49,no=50,missing=49
								49:[f0<2.6500001] yes=57,no=58,missing=57
									57:[f3<11.9249992] yes=67,no=68,missing=67
										67:leaf=0.0615718327
										68:leaf=0.00969951879
									58:[f1<2.6500001] yes=69,no=70,missing=69
										69:leaf=-0.00546400482
										70:leaf=-0.0623267964
								50:leaf=-0.0606068745
						32:[f0<2.6500001] yes=43,no=44,missing=43
							43:leaf=0.056953378
							44:[f4<3.9749999] yes=51,no=52,missing=51
								51:leaf=-0.0595821925
								52:[f2<7.95000029] yes=59,no=60,missing=59
									59:leaf=0.0257265475
									60:leaf=-0.0518409796
					22:[f1<13.25] yes=33,no=34,missing=33
						33:[f1<2.6500001] yes=45,no=46,missing=45
							45:leaf=0.0575279891
							46:[f2<2.6500001] yes=53,no=54,missing=53
								53:leaf=0.00575361867
								54:[f2<7.95000029] yes=61,no=62,missing=61
									61:leaf=-0.0213441905
									62:leaf=-0.0585780442
						34:leaf=0.0588896871
				14:[f1<13.25] yes=23,no=24,missing=23
					23:[f0<13.25] yes=35,no=36,missing=35
						35:[f0<2.6500001] yes=47,no=48,missing=47
							47:leaf=0.0604986846
							48:[f3<11.9249992] yes=55,no=56,missing=55
								55:[f1<2.6500001] yes=63,no=64,missing=63
									63:leaf=-0.0116761504
									64:leaf=-0.0645008534
								56:[f2<2.6500001] yes=65,no=66,missing=65
									65:leaf=0.0691477358
									66:[f1<2.6500001] yes=71,no=72,missing=71
										71:leaf=0.00604097499
										72:leaf=-0.0551508926
						36:leaf=0.0609287098
					24:leaf=0.0624089651
booster[15]:
0:[f3<3.9749999] yes=1,no=2,missing=1
	1:leaf=0.0649575219
	2:[f5<3.9749999] yes=3,no=4,missing=3
		3:[f1<13.25] yes=5,no=6,missing=5
			5:[f0<13.25] yes=9,no=10,missing=9
				9:[f2<2.6500001] yes=15,no=16,missing=15
					15:[f4<11.9249992] yes=25,no=26,missing=25
						25:leaf=-0.057762336
						26:[f3<11.9249992] yes=37,no=38,missing=37
							37:leaf=-0.0497157387
							38:leaf=0.0535461493
					16:leaf=-0.0635218844
				10:[f1<2.6500001] yes=17,no=18,missing=17
					17:leaf=0.0590308383
					18:[f2<2.6500001] yes=27,no=28,missing=27
						27:[f3<11.9249992] yes=39,no=40,missing=39
							39:leaf=-0.051876124
							40:leaf=-0.00248019188
						28:leaf=-0.0610009618
			6:[f0<2.6500001] yes=11,no=12,missing=11
				11:leaf=0.0599294007
				12:[f0<13.25] yes=19,no=20,missing=19
					19:[f2<2.6500001] yes=29,no=30,missing=29
						29:leaf=-0.0297287703
						30:leaf=-0.0619664602
					20:leaf=0.059730202
		4:[f5<11.9249992] yes=7,no=8,missing=7
			7:leaf=0.0648150817
			8:[f4<11.9249992] yes=13,no=14,missing=13
				13:[f0<13.25] yes=21,no=22,missing=21
					21:[f0<2.6500001] yes=31,no=32,missing=31
						31:[f1<13.25] yes=41,no=42,missing=41
							41:[f4<3.9749999] yes=49,no=50,missing=49
								49:leaf=-0.0598016754
								50:[f2<7.95000029] yes=57,no=58,missing=57
									57:[f3<11.9249992] yes=67,no=68,missing=67
										67:leaf=0.0599544831
										68:leaf=0.00937098078
									58:leaf=-0.0537234731
							42:leaf=0.0558307879
						32:[f2<2.6500001] yes=43,no=44,missing=43
							43:[f4<3.9749999] yes=51,no=52,missing=51
								51:leaf=-0.0543289296
								52:[f0<7.95000029] yes=59,no=60,missing=59
									59:leaf=-0.0247145668
									60:leaf=0.0127794882
							44:leaf=-0.0570655875
					22:[f1<13.25] yes=33,no=34,missing=33
						33:[f1<2.6500001] yes=45,no=46,missing=45
							45:leaf=0.0564029776
							46:[f4<3.9749999] yes=53,no=54,missing=53
								53:leaf=-0.0583351515
								54:[f2<7.95000029] yes=61,no=62,missing=61
									61:leaf=0.0359751992
									62:leaf=-0.0503275506
						34:leaf=0.057762336
				14:[f0<13.25] yes=23,no=24,missing=23
					23:[f0<2.6500001] yes=35,no=36,missing=35
						35:leaf=0.0610554181
						36:[f1<13.25] yes=47,no=48,missing=47
							47:[f1<2.6500001] yes=55,no=56,missing=55
								55:[f0<7.95000029] yes=63,no=64,missing=63
									63:leaf=-0.0372646526
									64:leaf=0.0542313531
								56:[f2<2.6500001] yes=65,no=66,missing=65
									65:leaf=-0.0003244369
									66:leaf=-0.0593222566
							48:leaf=0.0570774376
					24:leaf=0.0612887628
booster[16]:
0:[f3<3.9749999] yes=1,no=2,missing=1
	1:leaf=0.0639875382
	2:[f5<3.9749999] yes=3,no=4,missing=3
		3:[f1<13.25] yes=5,no=6,missing=5
			5:[f0<13.25] yes=9,no=10,missing=9
				9:[f2<2.6500001] yes=15,no=16,missing=15
					15:[f4<11.9249992] yes=25,no=26,missing=25
						25:leaf=-0.0566981994
						26:[f3<11.9249992] yes=37,no=38,missing=37
							37:leaf=-0.0487153493
							38:leaf=0.0524967425
					16:leaf=-0.0625195354
				10:[f1<2.6500001] yes=17,no=18,missing=17
					17:leaf=0.0579715855
					18:[f4<11.9249992] yes=27,no=28,missing=27
						27:leaf=-0.0614752769
						28:[f3<11.9249992] yes=39,no=40,missing=39
							39:leaf=-0.0532331951
							40:leaf=0.00209810748
			6:[f0<2.6500001] yes=11,no=12,missing=11
				11:leaf=0.0588764809
				12:[f0<13.25] yes=19,no=20,missing=19
					19:[f2<2.6500001] yes=29,no=30,missing=29
						29:leaf=-0.0288871918
						30:leaf=-0.0608962141
					20:leaf=0.058675658
		4:[f5<11.9249992] yes=7,no=8,missing=7
			7:leaf=0.0638415515
			8:[f4<11.9249992] yes=13,no=14,missing=13
				13:[f0<13.25] yes=21,no=22,missing=21
					21:[f1<13.25] yes=31,no=32,missing=31
						31:[f4<3.9749999] yes=41,no=42,missing=41
							41:leaf=-0.0621809848
							42:[f2<7.95000029] yes=49,no=50,missing=49
								49:[f0<2.6500001] yes=57,no=58,missing=57
									57:[f3<11.9249992] yes=67,no=68,missing=67
										67:leaf=0.0584284179
										68:leaf=0.00905366894
									58:[f1<2.6500001] yes=69,no=70,missing=69
										69:leaf=-0.00409825612
										70:leaf=-0.0602180175
								50:leaf=-0.0585027039
						32:[f0<2.6500001] yes=43,no=44,missing=43
							43:leaf=0.0547677651
							44:[f4<3.9749999] yes=51,no=52,missing=51
								51:leaf=-0.0572650917
								52:[f2<7.95000029] yes=59,no=60,missing=59
									59:leaf=0.0261965189
									60:leaf=-0.0496653691
					22:[f1<13.25] yes=33,no=34,missing=33
						33:[f1<2.6500001] yes=45,no=46,missing=45
							45:leaf=0.0553385913
							46:[f4<3.9749999] yes=53,no=54,missing=53
								53:leaf=-0.0571923815
								54:[f2<7.95000029] yes=61,no=62,missing=61
									61:leaf=0.0348838195
									62:leaf=-0.0493462011
						34:leaf=0.0566982031
				14:[f1<13.25] yes=23,no=24,missing=23
					23:[f0<13.25] yes=35,no=36,missing=35
						35:[f0<2.6500001] yes=47,no=48,missing=47
							47:leaf=0.0583067834
							48:[f3<11.9249992] yes=55,no=56,missing=55
								55:[f1<2.6500001] yes=63,no=64,missing=63
									63:leaf=-0.0113870203
									64:leaf=-0.0624326244
								56:[f2<2.6500001] yes=65,no=66,missing=65
									65:leaf=0.0671906993
									66:[f1<2.6500001] yes=71,no=72,missing=71
										71:leaf=0.00536421407
										72:leaf=-0.0529894233
						36:leaf=0.0587441213
					24:leaf=0.0602720939
booster[17]:
0:[f3<3.9749999] yes=1,no=2,missing=1
	1:leaf=0.063090317
	2:[f5<3.9749999] yes=3,no=4,missing=3
		3:[f1<13.25] yes=5,no=6,missing=5
			5:[f0<13.25] yes=9,no=10,missing=9
				9:[f2<2.6500001] yes=15,no=16,missing=15
					15:[f4<11.9249992] yes=25,no=26,missing=25
						25:leaf=-0.0556907617
						26:[f3<11.9249992] yes=37,no=38,missing=37
							37:leaf=-0.0477592461
							38:leaf=0.0514974296
					16:leaf=-0.0615858249
				10:[f1<2.6500001] yes=17,no=18,missing=17
					17:leaf=0.0569712408
					18:[f2<2.6500001] yes=27,no=28,missing=27
						27:[f3<11.9249992] yes=39,no=40,missing=39
							39:leaf=-0.0494980849
							40:leaf=-0.00118370517
						28:leaf=-0.0591182373
			6:[f0<2.6500001] yes=11,no=12,missing=11
				11:leaf=0.0578841045
				12:[f0<13.25] yes=19,no=20,missing=19
					19:[f2<2.6500001] yes=29,no=30,missing=29
						29:leaf=-0.0280712992
						30:leaf=-0.0598931201
					20:leaf=0.0576813035
		4:[f5<11.9249992] yes=7,no=8,missing=7
			7:leaf=0.0629403591
			8:[f4<11.9249992] yes=13,no=14,missing=13
				13:[f0<13.25] yes=21,no=22,missing=21
					21:[f1<13.25] yes=31,no=32,missing=31
						31:[f2<2.6500001] yes=41,no=42,missing=41
							41:[f0<2.6500001] yes=49,no=50,missing=49
								49:leaf=0.00971462484
								50:[f0<7.95000029] yes=59,no=60,missing=59
									59:leaf=-0.0561596714
									60:leaf=-0.0147683192
							42:[f2<7.95000029] yes=51,no=52,missing=51
								51:[f3<11.9249992] yes=61,no=62,missing=61
									61:[f0<2.6500001] yes=71,no=72,missing=71
										71:leaf=0.0105747283
										72:leaf=-0.0364471637
									62:leaf=-0.0554606393
								52:leaf=-0.0607871972
						32:[f0<2.6500001] yes=43,no=44,missing=43
							43:leaf=0.0537583232
							44:[f2<2.6500001] yes=53,no=54,missing=53
								53:leaf=0.00449342048
								54:[f3<11.9249992] yes=63,no=64,missing=63
									63:[f4<3.9749999] yes=73,no=74,missing=73
										73:leaf=-0.0453249514
										74:leaf=-0.00311003043
									64:leaf=-0.0606993921
					22:[f1<13.25] yes=33,no=34,missing=33
						33:[f1<2.6500001] yes=45,no=46,missing=45
							45:leaf=0.0543286763
							46:[f2<2.6500001] yes=55,no=56,missing=55
								55:leaf=0.00634960691
								56:[f3<11.9249992] yes=65,no=66,missing=65
									65:leaf=-0.0260412488
									66:leaf=-0.0597657971
						34:leaf=0.0556907617
				14:[f1<13.25] yes=23,no=24,missing=23
					23:[f0<13.25] yes=35,no=36,missing=35
						35:[f0<2.6500001] yes=47,no=48,missing=47
							47:leaf=0.0573188066
							48:[f3<11.9249992] yes=57,no=58,missing=57
								57:[f1<2.6500001] yes=67,no=68,missing=67
									67:leaf=-0.0109586492
									68:leaf=-0.0610883795
								58:[f2<2.6500001] yes=69,no=70,missing=69
									69:leaf=0.0651892647
									70:[f1<2.6500001] yes=75,no=76,missing=75
										75:leaf=0.00518267369
										76:leaf=-0.0520345159
						36:leaf=0.0577591471
					24:leaf=0.0592828169
booster[18]:
0:[f3<3.9749999] yes=1,no=2,missing=1
	1:leaf=0.0622587465
	2:[f5<3.9749999] yes=3,no=4,missing=3
		3:[f1<13.25] yes=5,no=6,missing=5
			5:[f0<13.25] yes=9,no=10,missing=9
				9:[f2<2.6500001] yes=15,no=16,missing=15
					15:[f4<11.9249992] yes=25,no=26,missing=25
						25:leaf=-0.054734271
						26:[f3<11.9249992] yes=37,no=38,missing=37
							37:leaf=-0.0468436554
							38:leaf=0.0505435169
					16:leaf=-0.0607137978
				10:[f1<2.6500001] yes=17,no=18,missing=17
					17:leaf=0.0560237356
					18:[f4<11.9249992] yes=27,no=28,missing=27
						27:leaf=-0.0596158095
						28:[f3<11.9249992] yes=39,no=40,missing=39
							39:leaf=-0.0511024185
							40:leaf=0.00330081279
			6:[f0<2.6500001] yes=11,no=12,missing=11
				11:leaf=0.0569460355
				12:[f0<13.25] yes=19,no=20,missing=19
					19:[f2<2.6500001] yes=29,no=30,missing=29
						29:leaf=-0.0272798277
						30:leaf=-0.058950156
					20:leaf=0.0567409173
		4:[f5<11.9249992] yes=7,no=8,missing=7
			7:leaf=0.0621043853
			8:[f4<11.9249992] yes=13,no=14,missing=13
				13:[f0<13.25] yes=21,no=22,missing=21
					21:[f4<3.9749999] yes=31,no=32,missing=31
						31:[f1<13.25] yes=41,no=42,missing=41
							41:leaf=-0.0605174117
							42:[f0<7.95000029] yes=49,no=50,missing=49
								49:leaf=-0.0102879936
								50:leaf=-0.0478288867
						32:[f2<7.95000029] yes=43,no=44,missing=43
							43:[f0<2.6500001] yes=51,no=52,missing=51
								51:[f3<11.9249992] yes=59,no=60,missing=59
									59:leaf=0.0582940876
									60:leaf=0.0196140241
								52:[f1<13.25] yes=61,no=62,missing=61
									61:[f1<2.6500001] yes=69,no=70,missing=69
										69:leaf=-0.00238712877
										70:leaf=-0.0581384711
									62:leaf=0.025862813
							44:[f1<13.25] yes=53,no=54,missing=53
								53:leaf=-0.0565061383
								54:leaf=-0.0223373417
					22:[f1<13.25] yes=33,no=34,missing=33
						33:[f1<2.6500001] yes=45,no=46,missing=45
							45:leaf=0.0533678494
							46:[f4<3.9749999] yes=55,no=56,missing=55
								55:leaf=-0.0555876493
								56:[f2<7.95000029] yes=63,no=64,missing=63
									63:leaf=0.034223415
									64:leaf=-0.0476571284
						34:leaf=0.054734271
				14:[f0<13.25] yes=23,no=24,missing=23
					23:[f0<2.6500001] yes=35,no=36,missing=35
						35:leaf=0.0581122227
						36:[f1<13.25] yes=47,no=48,missing=47
							47:[f3<11.9249992] yes=57,no=58,missing=57
								57:[f1<2.6500001] yes=65,no=66,missing=65
									65:leaf=-0.0105466768
									66:leaf=-0.0598217659
								58:[f2<2.6500001] yes=67,no=68,missing=67
									67:leaf=0.0633286312
									68:[f1<2.6500001] yes=71,no=72,missing=71
										71:leaf=0.00500727864
										72:leaf=-0.0511220507
							48:leaf=0.0540097542
					24:leaf=0.0583548546
booster[19]:
0:[f3<3.9749999] yes=1,no=2,missing=1
	1:leaf=0.0614865385
	2:[f5<3.9749999] yes=3,no=4,missing=3
		3:[f1<13.25] yes=5,no=6,missing=5
			5:[f0<13.25] yes=9,no=10,missing=9
				9:[f2<2.6500001] yes=15,no=16,missing=15
					15:[f4<11.9249992] yes=25,no=26,missing=25
						25:leaf=-0.0538236499
						26:[f3<11.9249992] yes=37,no=38,missing=37
							37:leaf=-0.0459652096
							38:leaf=0.049630858
					16:leaf=-0.0598973036
				10:[f1<2.6500001] yes=17,no=18,missing=17
					17:leaf=0.055123724
					18:[f2<2.6500001] yes=27,no=28,missing=27
						27:[f3<11.9249992] yes=39,no=40,missing=39
							39:leaf=-0.0473385826
							40:leaf=6.58047293e-06
						28:leaf=-0.0574488118
			6:[f0<2.6500001] yes=11,no=12,missing=11
				11:leaf=0.0560567379
				12:[f0<13.25] yes=19,no=20,missing=19
					19:[f2<2.6500001] yes=29,no=30,missing=29
						29:leaf=-0.0265116226
						30:leaf=-0.0580611601
					20:leaf=0.055849012
		4:[f5<11.9249992] yes=7,no=8,missing=7
			7:leaf=0.0613273568
			8:[f4<11.9249992] yes=13,no=14,missing=13
				13:[f0<13.25] yes=21,no=22,missing=21
					21:[f4<3.9749999] yes=31,no=32,missing=31
						31:[f1<13.25] yes=41,no=42,missing=41
							41:leaf=-0.0595940612
							42:[f0<7.95000029] yes=49,no=50,missing=49
								49:leaf=-0.00987644307
								50:leaf=-0.0469527058
						32:[f2<7.95000029] yes=43,no=44,missing=43
							43:[f0<2.6500001] yes=51,no=52,missing=51
								51:[f3<11.9249992] yes=59,no=60,missing=59
									59:leaf=0.0569729172
									60:leaf=0.0189404693
								52:[f1<13.25] yes=61,no=62,missing=61
									61:[f1<2.6500001] yes=69,no=70,missing=69
										69:leaf=-0.0022940503
										70:leaf=-0.0569520593
									62:leaf=0.0249137133
							44:[f1<13.25] yes=53,no=54,missing=53
								53:leaf=-0.0556122661
								54:leaf=-0.0215370376
					22:[f1<13.25] yes=33,no=34,missing=33
						33:[f1<2.6500001] yes=45,no=46,missing=45
							45:leaf=0.0524513014
							46:[f4<3.9749999] yes=55,no=56,missing=55
								55:leaf=-0.0545911901
								56:[f2<7.95000029] yes=63,no=64,missing=63
									63:leaf=0.0331993178
									64:leaf=-0.0467878543
						34:leaf=0.0538236611
				14:[f1<13.25] yes=23,no=24,missing=23
					23:[f0<13.25] yes=35,no=36,missing=35
						35:[f0<2.6500001] yes=47,no=48,missing=47
							47:leaf=0.0554690436
							48:[f3<11.9249992] yes=57,no=58,missing=57
								57:[f1<2.6500001] yes=65,no=66,missing=65
									65:leaf=-0.0101504307
									66:leaf=-0.0586249419
								58:[f2<2.6500001] yes=67,no=68,missing=67
									67:leaf=0.0615931712
									68:[f1<2.6500001] yes=71,no=72,missing=71
										71:leaf=0.0048378082
										72:leaf=-0.0502480865
						36:leaf=0.0559210964
					24:leaf=0.0575049333
booster[20]:
0:[f3<3.9749999] yes=1,no=2,missing=1
	1:leaf=0.0607681647
	2:[f5<3.9749999] yes=3,no=4,missing=3
		3:[f1<13.25] yes=5,no=6,missing=5
			5:[f0<13.25] yes=9,no=10,missing=9
				9:[f2<2.6500001] yes=15,no=16,missing=15
					15:[f4<11.9249992] yes=25,no=26,missing=25
						25:leaf=-0.0529544167
						26:[f3<11.9249992] yes=37,no=38,missing=37
							37:leaf=-0.0451209098
							38:leaf=0.048755724
					16:leaf=-0.0591309182
				10:[f1<2.6500001] yes=17,no=18,missing=17
					17:leaf=0.0542664826
					18:[f4<11.9249992] yes=27,no=28,missing=27
						27:leaf=-0.057961762
						28:[f3<11.9249992] yes=39,no=40,missing=39
							39:leaf=-0.0491536073
							40:leaf=0.00440131687
			6:[f0<2.6500001] yes=11,no=12,missing=11
				11:leaf=0.0552113242
				12:[f0<13.25] yes=19,no=20,missing=19
					19:[f2<2.6500001] yes=29,no=30,missing=29
						29:leaf=-0.0257656407
						30:leaf=-0.0572206564
					20:leaf=0.0550007187
		4:[f5<11.9249992] yes=7,no=8,missing=7
			7:leaf=0.0606037453
			8:[f4<11.9249992] yes=13,no=14,missing=13
				13:[f0<13.25] yes=21,no=22,missing=21
					21:[f0<2.6500001] yes=31,no=32,missing=31
						31:[f1<13.25] yes=41,no=42,missing=41
							41:[f4<3.9749999] yes=49,no=50,missing=49
								49:leaf=-0.0552220009
								50:[f2<7.95000029] yes=59,no=60,missing=59
									59:[f3<11.9249992] yes=71,no=72,missing=71
										71:leaf=0.0540203936
										72:leaf=0.00808057468
									60:leaf=-0.0487703271
							42:leaf=0.0527240932
						32:[f2<2.6500001] yes=43,no=44,missing=43
							43:[f4<3.9749999] yes=51,no=52,missing=51
								51:leaf=-0.0502149761
								52:[f0<7.95000029] yes=61,no=62,missing=61
									61:leaf=-0.0211136863
									62:leaf=0.015667567
							44:[f3<11.9249992] yes=53,no=54,missing=53
								53:[f2<7.95000029] yes=63,no=64,missing=63
									63:[f0<7.95000029] yes=73,no=74,missing=73
										73:leaf=-0.0272603631
										74:leaf=-0.00370221585
									64:leaf=-0.0546120517
								54:leaf=-0.0617063306
					22:[f1<13.25] yes=33,no=34,missing=33
						33:[f1<2.6500001] yes=45,no=46,missing=45
							45:leaf=0.0515748262
							46:[f4<3.9749999] yes=55,no=56,missing=55
								55:leaf=-0.053642977
								56:[f2<7.95000029] yes=65,no=66,missing=65
									65:leaf=0.0322129428
									66:leaf=-0.0459519364
						34:leaf=0.0529544167
				14:[f1<13.25] yes=23,no=24,missing=23
					23:[f0<13.25] yes=35,no=36,missing=35
						35:[f0<2.6500001] yes=47,no=48,missing=47
							47:leaf=0.0546251535
							48:[f3<11.9249992] yes=57,no=58,missing=57
								57:[f1<2.6500001] yes=67,no=68,missing=67
									67:leaf=-0.0097692674
									68:leaf=-0.0574910045
								58:[f2<2.6500001] yes=69,no=70,missing=69
									69:leaf=0.0599694252
									70:[f1<2.6500001] yes=75,no=76,missing=75
										75:leaf=0.00467405887
										76:leaf=-0.0494090989
						36:leaf=0.055082161
					24:leaf=0.0566697307
booster[21]:
0:[f3<3.9749999] yes=1,no=2,missing=1
	1:leaf=0.0600987263
	2:[f5<3.9749999] yes=3,no=4,missing=3
		3:[f1<13.25] yes=5,no=6,missing=5
			5:[f0<13.25] yes=9,no=10,missing=9
				9:[f2<2.6500001] yes=15,no=16,missing=15
					15:[f4<11.9249992] yes=25,no=26,missing=25
						25:leaf=-0.0521225519
						26:[f3<11.9249992] yes=37,no=38,missing=37
							37:leaf=-0.0443080664
							38:leaf=0.0479148477
					16:leaf=-0.0584098101
				10:[f1<2.6500001] yes=17,no=18,missing=17
					17:leaf=0.0534477904
					18:[f2<2.6500001] yes=27,no=28,missing=27
						27:leaf=-0.0246001016
						28:leaf=-0.0559534691
			6:[f0<2.6500001] yes=11,no=12,missing=11
				11:leaf=0.0544054173
				12:[f0<13.25] yes=19,no=20,missing=19
					19:[f2<2.6500001] yes=29,no=30,missing=29
						29:leaf=-0.0250409301
						30:leaf=-0.0564238094
					20:leaf=0.0541917086
		4:[f5<11.9249992] yes=7,no=8,missing=7
			7:leaf=0.0599286556
			8:[f4<11.9249992] yes=13,no=14,missing=13
				13:[f0<13.25] yes=21,no=22,missing=21
					21:[f4<3.9749999] yes=31,no=32,missing=31
						31:[f1<13.25] yes=39,no=40,missing=39
							39:leaf=-0.0579902492
							40:[f0<7.95000029] yes=47,no=48,missing=47
								47:leaf=-0.00935615133
								48:leaf=-0.0452746861
						32:[f2<7.95000029] yes=41,no=42,missing=41
							41:[f0<2.6500001] yes=49,no=50,missing=49
								49:[f3<11.9249992] yes=57,no=58,missing=57
									57:leaf=0.054561507
									58:leaf=0.0176943652
								50:[f1<13.25] yes=59,no=60,missing=59
									59:[f1<2.6500001] yes=67,no=68,missing=67
										67:leaf=-0.00148897641
										68:leaf=-0.0556311198
									60:leaf=0.0249856431
							42:[f1<13.25] yes=51,no=52,missing=51
								51:leaf=-0.0539676063
								52:leaf=-0.0202819631
					22:[f1<13.25] yes=33,no=34,missing=33
						33:[f1<2.6500001] yes=43,no=44,missing=43
							43:leaf=0.0507346354
							44:[f2<2.6500001] yes=53,no=54,missing=53
								53:leaf=0.00724944938
								54:[f3<11.9249992] yes=61,no=62,missing=61
									61:leaf=-0.0229253676
									62:leaf=-0.057361789
						34:leaf=0.0521225445
				14:[f0<13.25] yes=23,no=24,missing=23
					23:[f0<2.6500001] yes=35,no=36,missing=35
						35:leaf=0.0556257777
						36:[f1<13.25] yes=45,no=46,missing=45
							45:[f3<11.9249992] yes=55,no=56,missing=55
								55:[f1<2.6500001] yes=63,no=64,missing=63
									63:leaf=-0.0094025936
									64:leaf=-0.0564138778
								56:[f2<2.6500001] yes=65,no=66,missing=65
									65:leaf=0.058445733
									66:[f1<2.6500001] yes=69,no=70,missing=69
										69:leaf=0.00451584347
										70:leaf=-0.0486019664
							46:leaf=0.0513553619
					24:leaf=0.0558814369
booster[22]:
0:[f3<3.9749999] yes=1,no=2,missing=1
	1:leaf=0.0594738722
	2:[f5<3.9749999] yes=3,no=4,missing=3
		3:[f1<13.25] yes=5,no=6,missing=5
			5:[f0<13.25] yes=9,no=10,missing=9
				9:[f2<2.6500001] yes=15,no=16,missing=15
					15:[f4<11.9249992] yes=25,no=26,missing=25
						25:leaf=-0.0513245054
						26:[f3<11.9249992] yes=37,no=38,missing=37
							37:leaf=-0.0435242765
							38:leaf=0.0471053086
					16:leaf=-0.0577296801
				10:[f1<2.6500001] yes=17,no=18,missing=17
					17:leaf=0.0526638813
					18:[f4<11.9249992] yes=27,no=28,missing=27
						27:leaf=-0.0564090908
						28:[f3<11.9249992] yes=39,no=40,missing=39
							39:leaf=-0.0475209877
							40:leaf=0.00579611212
			6:[f0<2.6500001] yes=11,no=12,missing=11
				11:leaf=0.053635139
				12:[f0<13.25] yes=19,no=20,missing=19
					19:[f2<2.6500001] yes=29,no=30,missing=29
						29:leaf=-0.0243366193
						30:leaf=-0.0556662753
					20:leaf=0.0534181371
		4:[f5<11.9249992] yes=7,no=8,missing=7
			7:leaf=0.0592977516
			8:[f4<11.9249992] yes=13,no=14,missing=13
				13:[f0<13.25] yes=21,no=22,missing=21
					21:[f0<2.6500001] yes=31,no=32,missing=31
						31:[f1<13.25] yes=41,no=42,missing=41
							41:[f4<3.9749999] yes=49,no=50,missing=49
								49:leaf=-0.0535421968
								50:[f2<7.95000029] yes=57,no=58,missing=57
									57:leaf=0.034386456
									58:leaf=-0.0471360013
							42:leaf=0.0517982319
						32:[f4<3.9749999] yes=43,no=44,missing=43
							43:leaf=-0.0576375313
							44:[f2<2.6500001] yes=51,no=52,missing=51
								51:[f0<7.95000029] yes=59,no=60,missing=59
									59:leaf=-0.0199788343
									60:leaf=0.0159726236
								52:[f3<11.9249992] yes=61,no=62,missing=61
									61:[f2<7.95000029] yes=69,no=70,missing=69
										69:leaf=0.00141991279
										70:leaf=-0.047084488
									62:leaf=-0.0594824739
					22:[f1<13.25] yes=33,no=34,missing=33
						33:[f1<2.6500001] yes=45,no=46,missing=45
							45:leaf=0.0499273576
							46:[f4<3.9749999] yes=53,no=54,missing=53
								53:leaf=-0.0523193181
								54:[f2<7.95000029] yes=63,no=64,missing=63
									63:leaf=0.0316028707
									64:leaf=-0.0445059091
						34:leaf=0.0513245054
				14:[f1<13.25] yes=23,no=24,missing=23
					23:[f0<13.25] yes=35,no=36,missing=35
						35:[f0<2.6500001] yes=47,no=48,missing=47
							47:leaf=0.0530231185
							48:[f1<2.6500001] yes=55,no=56,missing=55
								55:[f0<7.95000029] yes=65,no=66,missing=65
									65:leaf=-0.0374172255
									66:leaf=0.0527209006
								56:[f2<2.6500001] yes=67,no=68,missing=67
									67:leaf=-0.000694910588
									68:leaf=-0.053073734
						36:leaf=0.0534948781
					24:leaf=0.0551529415
booster[23]:
0:[f3<3.9749999] yes=1,no=2,missing=1
	1:leaf=0.0588897355
	2:[f5<3.9749999] yes=3,no=4,missing=3
		3:[f1<13.25] yes=5,no=6,missing=5
			5:[f0<13.25] yes=9,no=10,missing=9
				9:[f2<2.6500001] yes=15,no=16,missing=15
					15:[f4<11.9249992] yes=25,no=26,missing=25
						25:leaf=-0.0505570844
						26:[f3<11.9249992] yes=37,no=38,missing=37
							37:leaf=-0.042767372
							38:leaf=0.0463244468
					16:leaf=-0.0570866838
				10:[f1<2.6500001] yes=17,no=18,missing=17
					17:leaf=0.0519114137
					18:[f2<2.6500001] yes=27,no=28,missing=27
						27:leaf=-0.0225000288
						28:leaf=-0.0546020977
			6:[f0<2.6500001] yes=11,no=12,missing=11
				11:leaf=0.0528970025
				12:[f0<13.25] yes=19,no=20,missing=19
					19:[f2<2.6500001] yes=29,no=30,missing=29
						29:leaf=-0.0236519147
						30:leaf=-0.054944206
					20:leaf=0.0526765473
		4:[f5<11.9249992] yes=7,no=8,missing=7
			7:leaf=0.0587071367
			8:[f4<11.9249992] yes=13,no=14,missing=13
				13:[f0<13.25] yes=21,no=22,missing=21
					21:[f4<3.9749999] yes=31,no=32,missing=31
						31:[f1<13.25] yes=39,no=40,missing=39
							39:leaf=-0.0564913563
							40:[f0<7.95000029] yes=47,no=48,missing=47
								47:leaf=-0.00871177576
								48:leaf=-0.0435164236
						32:[f2<7.95000029] yes=41,no=42,missing=41
							41:[f0<2.6500001] yes=49,no=50,missing=49
								49:[f3<11.9249992] yes=57,no=58,missing=57
									57:leaf=0.0526612066
									58:leaf=0.0157864876
								50:[f1<13.25] yes=59,no=60,missing=59
									59:[f0<7.95000029] yes=67,no=68,missing=67
										67:leaf=-0.0572227351
										68:leaf=-0.00353996526
									60:leaf=0.0248478279
							42:[f1<13.25] yes=51,no=52,missing=51
								51:leaf=-0.0524839535
								52:leaf=-0.0191938393
					22:[f1<13.25] yes=33,no=34,missing=33
						33:[f1<2.6500001] yes=43,no=44,missing=43
							43:leaf=0.0491500311
							44:[f4<3.9749999] yes=53,no=54,missing=53
								53:leaf=-0.0514713041
								54:[f2<7.95000029] yes=61,no=62,missing=61
									61:leaf=0.0306731593
									62:leaf=-0.0437505022
						34:leaf=0.0505570881
				14:[f1<13.25] yes=23,no=24,missing=23
					23:[f0<13.25] yes=35,no=36,missing=35
						35:[f0<2.6500001] yes=45,no=46,missing=45
							45:leaf=0.0522843786
							46:[f3<11.9249992] yes=55,no=56,missing=55
								55:[f1<2.6500001] yes=63,no=64,missing=63
									63:leaf=-0.00918395072
									64:leaf=-0.0549992733
								56:[f2<2.6500001] yes=65,no=66,missing=65
									65:leaf=0.0572198741
									66:[f1<2.6500001] yes=69,no=70,missing=69
										69:leaf=0.00393621856
										70:leaf=-0.046990715
						36:leaf=0.0527623966
					24:leaf=0.0544303656
booster[24]:
0:[f3<3.9749999] yes=1,no=2,missing=1
	1:leaf=0.0583428331
	2:[f5<3.9749999] yes=3,no=4,missing=3
		3:[f1<13.25] yes=5,no=6,missing=5
			5:[f0<13.25] yes=9,no=10,missing=9
				9:[f2<2.6500001] yes=15,no=16,missing=15
					15:[f4<11.9249992] yes=25,no=26,missing=25
						25:leaf=-0.0498174541
						26:leaf=0.00820384268
					16:leaf=-0.0564773455
				10:[f1<2.6500001] yes=17,no=18,missing=17
					17:leaf=0.0511873774
					18:[f2<2.6500001] yes=27,no=28,missing=27
						27:leaf=-0.0217336845
						28:leaf=-0.0538945794
			6:[f0<2.6500001] yes=11,no=12,missing=11
				11:leaf=0.0521878973
				12:[f0<13.25] yes=19,no=20,missing=19
					19:[f2<2.6500001] yes=29,no=30,missing=29
						29:leaf=-0.0229860824
						30:leaf=-0.0542541221
					20:leaf=0.0519638322
		4:[f5<11.9249992] yes=7,no=8,missing=7
			7:leaf=0.0581533425
			8:[f4<11.9249992] yes=13,no=14,missing=13
				13:[f0<13.25] yes=21,no=22,missing=21
					21:[f0<2.6500001] yes=31,no=32,missing=31
						31:[f1<13.25] yes=37,no=38,missing=37
							37:[f2<2.6500001] yes=45,no=46,missing=45
								45:leaf=0.0115604587
								46:[f2<7.95000029] yes=53,no=54,missing=53
									53:leaf=-0.0190883819
									54:leaf=-0.0515526719
							38:leaf=0.0509250276
						32:[f4<3.9749999] yes=39,no=40,missing=39
							39:leaf=-0.0562739149
							40:[f2<2.6500001] yes=47,no=48,missing=47
								47:[f0<7.95000029] yes=55,no=56,missing=55
									55:leaf=-0.0182965137
									56:leaf=0.0153273437
								48:[f3<11.9249992] yes=57,no=58,missing=57
									57:[f2<7.95000029] yes=65,no=66,missing=65
										65:leaf=0.00194366963
										66:leaf=-0.0457406752
									58:leaf=-0.0582697503
					22:[f1<13.25] yes=33,no=34,missing=33
						33:[f1<2.6500001] yes=41,no=42,missing=41
							41:leaf=0.0483999662
							42:[f2<2.6500001] yes=49,no=50,missing=49
								49:leaf=0.00769099686
								50:[f3<11.9249992] yes=59,no=60,missing=59
									59:leaf=-0.0208111424
									60:leaf=-0.0557840876
						34:leaf=0.0498174429
				14:[f0<13.25] yes=23,no=24,missing=23
					23:[f0<2.6500001] yes=35,no=36,missing=35
						35:leaf=0.0534734987
						36:[f1<13.25] yes=43,no=44,missing=43
							43:[f3<11.9249992] yes=51,no=52,missing=51
								51:[f1<2.6500001] yes=61,no=62,missing=61
									61:leaf=-0.00884092133
									62:leaf=-0.0540378205
								52:[f2<2.6500001] yes=63,no=64,missing=63
									63:leaf=0.0558586121
									64:[f1<2.6500001] yes=67,no=68,missing=67
										67:leaf=0.00380356493
										68:leaf=-0.0462661199
							44:leaf=0.0490009077
					24:leaf=0.0537448302
booster[25]:
0:[f3<3.9749999] yes=1,no=2,missing=1
	1:leaf=0.0578300469
	2:[f5<3.9749999] yes=3,no=4,missing=3
		3:[f1<13.25] yes=5,no=6,missing=5
			5:[f0<13.25] yes=9,no=10,missing=9
				9:[f2<2.6500001] yes=15,no=16,missing=15
					15:[f4<11.9249992] yes=25,no=26,missing=25
						25:leaf=-0.0491030477
						26:leaf=0.007871137
					16:leaf=-0.0558985472
				10:[f1<2.6500001] yes=17,no=18,missing=17
					17:leaf=0.050489068
					18:[f4<11.9249992] yes=27,no=28,missing=27
						27:leaf=-0.0544390157
						28:[f3<11.9249992] yes=39,no=40,missing=39
							39:leaf=-0.0453489721
							40:leaf=0.0085558854
			6:[f0<2.6500001] yes=11,no=12,missing=11
				11:leaf=0.0515050255
				12:[f0<13.25] yes=19,no=20,missing=19
					19:[f2<2.6500001] yes=29,no=30,missing=29
						29:leaf=-0.0223384351
						30:leaf=-0.0535929091
					20:leaf=0.0512772314
		4:[f5<11.9249992] yes=7,no=8,missing=7
			7:leaf=0.0576332472
			8:[f4<3.9749999] yes=13,no=14,missing=13
				13:[f1<13.25] yes=21,no=22,missing=21
					21:[f0<13.25] yes=31,no=32,missing=31
						31:leaf=-0.055302348
						32:leaf=-0.0267509278
					22:[f0<13.25] yes=33,no=34,missing=33
						33:[f0<7.95000029] yes=41,no=42,missing=41
							41:leaf=-0.00811528973
							42:leaf=-0.0418712012
						34:leaf=0.0415140167
				14:[f0<13.25] yes=23,no=24,missing=23
					23:[f0<2.6500001] yes=35,no=36,missing=35
						35:[f4<11.9249992] yes=43,no=44,missing=43
							43:[f2<7.95000029] yes=49,no=50,missing=49
								49:[f3<11.9249992] yes=59,no=60,missing=59
									59:leaf=0.0516357496
									60:leaf=0.0149800526
								50:leaf=-0.0225806311
							44:leaf=0.052803155
						36:[f1<13.25] yes=45,no=46,missing=45
							45:[f0<7.95000029] yes=51,no=52,missing=51
								51:[f2<2.6500001] yes=61,no=62,missing=61
									61:[f3<11.9249992] yes=67,no=68,missing=67
										67:leaf=-0.0513940752
										68:leaf=0.0093074739
									62:leaf=-0.0587771237
								52:[f1<2.6500001] yes=63,no=64,missing=63
									63:[f2<7.95000029] yes=69,no=70,missing=69
										69:leaf=0.0546970181
										70:leaf=0.0146472845
									64:[f3<11.9249992] yes=71,no=72,missing=71
										71:leaf=-0.0536322407
										72:leaf=-0.0219593719
							46:[f4<11.9249992] yes=53,no=54,missing=53
								53:[f2<7.95000029] yes=65,no=66,missing=65
									65:leaf=0.0246915296
									66:leaf=-0.0438804217
								54:leaf=0.0483126193
					24:[f4<11.9249992] yes=37,no=38,missing=37
						37:[f2<7.95000029] yes=47,no=48,missing=47
							47:[f3<11.9249992] yes=55,no=56,missing=55
								55:leaf=0.0503379814
								56:leaf=0.0184798725
							48:[f3<11.9249992] yes=57,no=58,missing=57
								57:leaf=-0.00338485511
								58:leaf=0.00435208948
						38:leaf=0.0530808866
booster[26]:
0:[f3<3.9749999] yes=1,no=2,missing=1
	1:leaf=0.0573485792
	2:[f5<3.9749999] yes=3,no=4,missing=3
		3:[f1<13.25] yes=5,no=6,missing=5
			5:[f0<13.25] yes=9,no=10,missing=9
				9:[f2<2.6500001] yes=15,no=16,missing=15
					15:[f3<11.9249992] yes=25,no=26,missing=25
						25:leaf=-0.0495499521
						26:[f4<11.9249992] yes=37,no=38,missing=37
							37:leaf=-0.0407580361
							38:leaf=0.0453110524
					16:leaf=-0.0553474799
				10:[f1<2.6500001] yes=17,no=18,missing=17
					17:leaf=0.0498140827
					18:[f2<2.6500001] yes=27,no=28,missing=27
						27:leaf=-0.0198179837
						28:leaf=-0.0527139716
			6:[f0<2.6500001] yes=11,no=12,missing=11
				11:leaf=0.0508458577
				12:[f0<13.25] yes=19,no=20,missing=19
					19:[f2<2.6500001] yes=29,no=30,missing=29
						29:leaf=-0.0217083599
						30:leaf=-0.0529577546
					20:leaf=0.0506142266
		4:[f5<11.9249992] yes=7,no=8,missing=7
			7:leaf=0.0571440272
			8:[f4<11.9249992] yes=13,no=14,missing=13
				13:[f1<13.25] yes=21,no=22,missing=21
					21:[f4<3.9749999] yes=31,no=32,missing=31
						31:[f0<13.25] yes=39,no=40,missing=39
							39:leaf=-0.0546524823
							40:leaf=-0.0257908758
						32:[f2<2.6500001] yes=41,no=42,missing=41
							41:[f0<13.25] yes=47,no=48,missing=47
								47:[f0<2.6500001] yes=55,no=56,missing=55
									55:leaf=0.0452632271
									56:[f0<7.95000029] yes=67,no=68,missing=67
										67:leaf=-0.0485157184
										68:leaf=0.0051818057
								48:leaf=0.0467961207
							42:[f3<11.9249992] yes=49,no=50,missing=49
								49:[f2<7.95000029] yes=57,no=58,missing=57
									57:[f0<7.95000029] yes=69,no=70,missing=69
										69:leaf=0.00053110224
										70:leaf=0.0263760425
									58:leaf=-0.0369638763
								50:[f0<13.25] yes=59,no=60,missing=59
									59:leaf=-0.053064812
									60:leaf=-0.0214109272
					22:[f0<13.25] yes=33,no=34,missing=33
						33:[f0<2.6500001] yes=43,no=44,missing=43
							43:leaf=0.0501142927
							44:[f2<2.6500001] yes=51,no=52,missing=51
								51:leaf=0.0084796166
								52:[f3<11.9249992] yes=61,no=62,missing=61
									61:leaf=-0.0212058462
									62:leaf=-0.0559515469
						34:leaf=0.0486901142
				14:[f1<13.25] yes=23,no=24,missing=23
					23:[f0<13.25] yes=35,no=36,missing=35
						35:[f0<2.6500001] yes=45,no=46,missing=45
							45:leaf=0.0501772463
							46:[f3<11.9249992] yes=53,no=54,missing=53
								53:[f1<2.6500001] yes=63,no=64,missing=63
									63:leaf=-0.0078343749
									64:leaf=-0.0522218756
								54:[f2<2.6500001] yes=65,no=66,missing=65
									65:leaf=0.0545461588
									66:[f1<2.6500001] yes=71,no=72,missing=71
										71:leaf=0.00403918419
										72:leaf=-0.0449371636
						36:leaf=0.0506824255
					24:leaf=0.0524963848
booster[27]:
0:[f3<3.9749999] yes=1,no=2,missing=1
	1:leaf=0.0568958893
	2:[f5<3.9749999] yes=3,no=4,missing=3
		3:[f1<13.25] yes=5,no=6,missing=5
			5:[f0<13.25] yes=9,no=10,missing=9
				9:[f2<2.6500001] yes=15,no=16,missing=15
					15:[f3<11.9249992] yes=25,no=26,missing=25
						25:leaf=-0.0488047563
						26:[f4<11.9249992] yes=39,no=40,missing=39
							39:leaf=-0.0401373915
							40:leaf=0.044588875
					16:leaf=-0.0548215583
				10:[f1<2.6500001] yes=17,no=18,missing=17
					17:leaf=0.0491602086
					18:[f4<11.9249992] yes=27,no=28,missing=27
						27:leaf=-0.0531920865
						28:[f3<11.9249992] yes=41,no=42,missing=41
							41:leaf=-0.0439796709
							42:leaf=0.00966290198
			6:[f0<2.6500001] yes=11,no=12,missing=11
				11:leaf=0.0502081215
				12:[f0<13.25] yes=19,no=20,missing=19
					19:[f2<2.6500001] yes=29,no=30,missing=29
						29:leaf=-0.0210952722
						30:leaf=-0.0523461215
					20:leaf=0.0499725714
		4:[f5<11.9249992] yes=7,no=8,missing=7
			7:leaf=0.0566831417
			8:[f4<3.9749999] yes=13,no=14,missing=13
				13:[f1<13.25] yes=21,no=22,missing=21
					21:[f0<13.25] yes=31,no=32,missing=31
						31:leaf=-0.0540302396
						32:leaf=-0.0248600896
					22:[f0<13.25] yes=33,no=34,missing=33
						33:[f0<7.95000029] yes=43,no=44,missing=43
							43:leaf=-0.00826968253
							44:leaf=-0.0408773534
						34:leaf=0.0401321836
				14:[f0<13.25] yes=23,no=24,missing=23
					23:[f0<2.6500001] yes=35,no=36,missing=35
						35:[f4<11.9249992] yes=45,no=46,missing=45
							45:[f2<7.95000029] yes=51,no=52,missing=51
								51:[f3<11.9249992] yes=61,no=62,missing=61
									61:leaf=0.0502702482
									62:leaf=0.0141849238
								52:leaf=-0.0215208158
							46:leaf=0.0515516289
						36:[f1<13.25] yes=47,no=48,missing=47
							47:[f0<7.95000029] yes=53,no=54,missing=53
								53:[f2<2.6500001] yes=63,no=64,missing=63
									63:[f3<11.9249992] yes=69,no=70,missing=69
										69:leaf=-0.0494606905
										70:leaf=0.00879365951
									64:leaf=-0.0575342551
								54:[f1<2.6500001] yes=65,no=66,missing=65
									65:[f2<7.95000029] yes=71,no=72,missing=71
										71:leaf=0.0529153608
										72:leaf=0.0149218384
									66:[f3<11.9249992] yes=73,no=74,missing=73
										73:leaf=-0.052347213
										74:leaf=-0.0210448336
							48:[f4<11.9249992] yes=55,no=56,missing=55
								55:[f2<7.95000029] yes=67,no=68,missing=67
									67:leaf=0.0245252196
									68:leaf=-0.0425677188
								56:leaf=0.0469304584
					24:[f4<11.9249992] yes=37,no=38,missing=37
						37:[f2<7.95000029] yes=49,no=50,missing=49
							49:[f3<11.9249992] yes=57,no=58,missing=57
								57:leaf=0.0487050563
								58:leaf=0.0172146466
							50:[f1<7.95000029] yes=59,no=60,missing=59
								59:leaf=0.00461931853
								60:leaf=-0.00313643552
						38:leaf=0.0518415757
booster[28]:
0:[f3<3.9749999] yes=1,no=2,missing=1
	1:leaf=0.0564696677
	2:[f5<3.9749999] yes=3,no=4,missing=3
		3:[f1<13.25] yes=5,no=6,missing=5
			5:[f0<13.25] yes=9,no=10,missing=9
				9:[f2<2.6500001] yes=15,no=16,missing=15
					15:[f3<11.9249992] yes=25,no=26,missing=25
						25:leaf=-0.0480840616
						26:[f4<11.9249992] yes=37,no=38,missing=37
							37:leaf=-0.039531786
							38:leaf=0.0438884459
					16:leaf=-0.0543184653
				10:[f1<2.6500001] yes=17,no=18,missing=17
					17:leaf=0.0485254973
					18:[f2<2.6500001] yes=27,no=28,missing=27
						27:leaf=-0.0180161409
						28:leaf=-0.0516229644
			6:[f0<2.6500001] yes=11,no=12,missing=11
				11:leaf=0.0495897643
				12:[f0<13.25] yes=19,no=20,missing=19
					19:[f2<2.6500001] yes=29,no=30,missing=29
						29:leaf=-0.0204986315
						30:leaf=-0.0517556965
					20:leaf=0.0493502431
		4:[f5<11.9249992] yes=7,no=8,missing=7
			7:leaf=0.0562482737
			8:[f4<11.9249992] yes=13,no=14,missing=13
				13:[f1<13.25] yes=21,no=22,missing=21
					21:[f4<3.9749999] yes=31,no=32,missing=31
						31:[f0<13.25] yes=39,no=40,missing=39
							39:leaf=-0.0534329489
							40:leaf=-0.023957964
						32:[f2<2.6500001] yes=41,no=42,missing=41
							41:[f0<13.25] yes=47,no=48,missing=47
								47:[f0<2.6500001] yes=55,no=56,missing=55
									55:leaf=0.0439690612
									56:[f0<7.95000029] yes=67,no=68,missing=67
										67:leaf=-0.047213193
										68:leaf=0.00497941254
								48:leaf=0.0453143716
							42:[f3<11.9249992] yes=49,no=50,missing=49
								49:[f2<7.95000029] yes=57,no=58,missing=57
									57:[f0<7.95000029] yes=69,no=70,missing=69
										69:leaf=0.000821433961
										70:leaf=0.0251633711
									58:leaf=-0.0357527547
								50:[f1<2.6500001] yes=59,no=60,missing=59
									59:leaf=-0.0256840177
									60:leaf=-0.0564587601
					22:[f0<13.25] yes=33,no=34,missing=33
						33:[f0<2.6500001] yes=43,no=44,missing=43
							43:leaf=0.0493451804
							44:[f4<3.9749999] yes=51,no=52,missing=51
								51:leaf=-0.05000332
								52:[f2<7.95000029] yes=61,no=62,missing=61
									61:leaf=0.0236331858
									62:leaf=-0.0418729186
						34:leaf=0.0476432852
				14:[f1<13.25] yes=23,no=24,missing=23
					23:[f0<13.25] yes=35,no=36,missing=35
						35:[f0<2.6500001] yes=45,no=46,missing=45
							45:leaf=0.0488911606
							46:[f3<11.9249992] yes=53,no=54,missing=53
								53:[f1<2.6500001] yes=63,no=64,missing=63
									63:leaf=-0.00689579314
									64:leaf=-0.0505377427
								54:[f2<2.6500001] yes=65,no=66,missing=65
									65:leaf=0.0533113964
									66:[f1<2.6500001] yes=71,no=72,missing=71
										71:leaf=0.00426080357
										72:leaf=-0.0436824337
						36:leaf=0.0494142435
					24:leaf=0.0513116717
booster[29]:
0:[f3<3.9749999] yes=1,no=2,missing=1
	1:leaf=0.056067843
	2:[f5<3.9749999] yes=3,no=4,missing=3
		3:[f1<13.25] yes=5,no=6,missing=5
			5:[f0<13.25] yes=9,no=10,missing=9
				9:[f2<2.6500001] yes=15,no=16,missing=15
					15:[f4<11.9249992] yes=25,no=26,missing=25
						25:leaf=-0.0465884022
						26:leaf=0.00742147351
					16:leaf=-0.0538360588
				10:[f1<2.6500001] yes=17,no=18,missing=17
					17:leaf=0.0479081795
					18:[f2<2.6500001] yes=27,no=28,missing=27
						27:leaf=-0.0173992775
						28:leaf=-0.0510245636
			6:[f0<2.6500001] yes=11,no=12,missing=11
				11:leaf=0.0489889234
				12:[f0<13.25] yes=19,no=20,missing=19
					19:[f2<2.6500001] yes=29,no=30,missing=29
						29:leaf=-0.0199179295
						30:leaf=-0.0511843972
					20:leaf=0.0487453863
		4:[f5<11.9249992] yes=7,no=8,missing=7
			7:leaf=0.0558373332
			8:[f4<11.9249992] yes=13,no=14,missing=13
				13:[f0<13.25] yes=21,no=22,missing=21
					21:[f0<2.6500001] yes=31,no=32,missing=31
						31:[f1<13.25] yes=37,no=38,missing=37
							37:[f2<2.6500001] yes=45,no=46,missing=45
								45:leaf=0.0120177893
								46:[f2<7.95000029] yes=55,no=56,missing=55
									55:leaf=-0.016095845
									56:leaf=-0.0486907102
							38:leaf=0.0485636555
						32:[f2<2.6500001] yes=39,no=40,missing=39
							39:[f4<3.9749999] yes=47,no=48,missing=47
								47:leaf=-0.0437039845
								48:[f0<7.95000029] yes=57,no=58,missing=57
									57:leaf=-0.0156561807
									58:leaf=0.0140388561
							40:[f3<11.9249992] yes=49,no=50,missing=49
								49:[f2<7.95000029] yes=59,no=60,missing=59
									59:[f0<7.95000029] yes=67,no=68,missing=67
										67:leaf=-0.0222317036
										68:leaf=0.000852896657
									60:leaf=-0.0490001328
								50:leaf=-0.0570496432
					22:[f1<13.25] yes=33,no=34,missing=33
						33:[f1<2.6500001] yes=41,no=42,missing=41
							41:leaf=0.0480848104
							42:[f2<2.6500001] yes=51,no=52,missing=51
								51:leaf=0.00619831774
								52:[f3<11.9249992] yes=61,no=62,missing=61
									61:leaf=-0.0200111791
									62:leaf=-0.0537086092
						34:leaf=0.0469942801
				14:[f1<13.25] yes=23,no=24,missing=23
					23:[f0<13.25] yes=35,no=36,missing=35
						35:[f0<2.6500001] yes=43,no=44,missing=43
							43:leaf=0.048287604
							44:[f0<7.95000029] yes=53,no=54,missing=53
								53:[f2<2.6500001] yes=63,no=64,missing=63
									63:leaf=0.00472418871
									64:leaf=-0.0532180481
								54:[f1<2.6500001] yes=65,no=66,missing=65
									65:leaf=0.0504186153
									66:[f3<11.9249992] yes=69,no=70,missing=69
										69:leaf=-0.042474065
										70:leaf=-0.00496106176
						36:leaf=0.0488181598
					24:leaf=0.0507322922
booster[30]:
0:[f3<3.9749999] yes=1,no=2,missing=1
	1:leaf=0.0556884967
	2:[f5<3.9749999] yes=3,no=4,missing=3
		3:[f1<13.25] yes=5,no=6,missing=5
			5:[f0<13.25] yes=9,no=10,missing=9
				9:[f2<2.6500001] yes=15,no=16,missing=15
					15:[f3<11.9249992] yes=25,no=26,missing=25
						25:leaf=-0.0471454486
						26:[f0<2.6500001] yes=39,no=40,missing=39
							39:leaf=-0.00632579625
							40:leaf=0.0174278971
					16:leaf=-0.0533724129
				10:[f1<2.6500001] yes=17,no=18,missing=17
					17:leaf=0.0473066494
					18:[f4<11.9249992] yes=27,no=28,missing=27
						27:leaf=-0.0515867136
						28:[f3<11.9249992] yes=41,no=42,missing=41
							41:leaf=-0.0421398729
							42:leaf=0.0120259849
			6:[f0<2.6500001] yes=11,no=12,missing=11
				11:leaf=0.0484039411
				12:[f0<13.25] yes=19,no=20,missing=19
					19:[f2<2.6500001] yes=29,no=30,missing=29
						29:leaf=-0.0193526875
						30:leaf=-0.0506303199
					20:leaf=0.0481563583
		4:[f5<11.9249992] yes=7,no=8,missing=7
			7:leaf=0.0554483831
			8:[f4<3.9749999] yes=13,no=14,missing=13
				13:[f1<13.25] yes=21,no=22,missing=21
					21:[f1<2.6500001] yes=31,no=32,missing=31
						31:[f0<7.95000029] yes=43,no=44,missing=43
							43:leaf=-0.0430662818
							44:leaf=0.000116285344
						32:leaf=-0.0534186065
					22:[f3<11.9249992] yes=33,no=34,missing=33
						33:leaf=-0.0143545493
						34:leaf=0.00596296042
				14:[f0<13.25] yes=23,no=24,missing=23
					23:[f0<2.6500001] yes=35,no=36,missing=35
						35:[f4<11.9249992] yes=45,no=46,missing=45
							45:[f2<7.95000029] yes=51,no=52,missing=51
								51:[f3<11.9249992] yes=61,no=62,missing=61
									61:leaf=0.0490213819
									62:leaf=0.0130270822
								52:leaf=-0.0202256665
							46:leaf=0.0498293303
						36:[f1<13.25] yes=47,no=48,missing=47
							47:[f0<7.95000029] yes=53,no=54,missing=53
								53:[f2<2.6500001] yes=63,no=64,missing=63
									63:[f3<11.9249992] yes=69,no=70,missing=69
										69:leaf=-0.0476093329
										70:leaf=0.00848208833
									64:leaf=-0.0556956008
								54:[f1<2.6500001] yes=65,no=66,missing=65
									65:[f2<7.95000029] yes=71,no=72,missing=71
										71:leaf=0.0509698354
										72:leaf=0.0148439659
									66:[f3<11.9249992] yes=73,no=74,missing=73
										73:leaf=-0.050857164
										74:leaf=-0.0197540764
							48:[f4<11.9249992] yes=55,no=56,missing=55
								55:[f2<7.95000029] yes=67,no=68,missing=67
									67:leaf=0.0236342195
									68:leaf=-0.0403696708
								56:leaf=0.0449542217
					24:[f4<11.9249992] yes=37,no=38,missing=37
						37:[f2<7.95000029] yes=49,no=50,missing=49
							49:[f3<11.9249992] yes=57,no=58,missing=57
								57:leaf=0.0470817052
								58:leaf=0.0159612484
							50:[f1<7.95000029] yes=59,no=60,missing=59
								59:leaf=0.00530099124
								60:leaf=-0.00318899006
						38:leaf=0.0501380228
booster[31]:
0:[f3<3.9749999] yes=1,no=2,missing=1
	1:leaf=0.0553299077
	2:[f5<3.9749999] yes=3,no=4,missing=3
		3:[f1<13.25] yes=5,no=6,missing=5
			5:[f0<13.25] yes=9,no=10,missing=9
				9:[f2<2.6500001] yes=15,no=16,missing=15
					15:[f4<11.9249992] yes=25,no=26,missing=25
						25:leaf=-0.0456841029
						26:leaf=0.00780137395
					16:leaf=-0.0529257245
				10:[f1<2.6500001] yes=17,no=18,missing=17
					17:leaf=0.0467194691
					18:[f2<2.6500001] yes=27,no=28,missing=27
						27:leaf=-0.0157464966
						28:leaf=-0.0500403419
			6:[f0<2.6500001] yes=11,no=12,missing=11
				11:leaf=0.0478332788
				12:[f0<13.25] yes=19,no=20,missing=19
					19:[f2<2.6500001] yes=29,no=30,missing=29
						29:leaf=-0.0188024715
						30:leaf=-0.0500917435
					20:leaf=0.047581654
		4:[f5<11.9249992] yes=7,no=8,missing=7
			7:leaf=0.0550796874
			8:[f4<3.9749999] yes=13,no=14,missing=13
				13:[f0<13.25] yes=21,no=22,missing=21
					21:[f1<13.25] yes=31,no=32,missing=31
						31:leaf=-0.0520824865
						32:[f3<11.9249992] yes=39,no=40,missing=39
							39:leaf=-0.0331678726
							40:leaf=-0.00692617148
					22:[f1<7.95000029] yes=33,no=34,missing=33
						33:leaf=-0.00880663004
						34:leaf=0.00278393459
				14:[f0<13.25] yes=23,no=24,missing=23
					23:[f0<2.6500001] yes=35,no=36,missing=35
						35:[f4<11.9249992] yes=41,no=42,missing=41
							41:[f2<7.95000029] yes=47,no=48,missing=47
								47:[f3<11.9249992] yes=57,no=58,missing=57
									57:leaf=0.0481036715
									58:leaf=0.0125854863
								48:leaf=-0.0195495095
							42:leaf=0.0492758639
						36:[f1<13.25] yes=43,no=44,missing=43
							43:[f0<7.95000029] yes=49,no=50,missing=49
								49:[f2<2.6500001] yes=59,no=60,missing=59
									59:[f3<11.9249992] yes=65,no=66,missing=65
										65:leaf=-0.046697326
										66:leaf=0.00818112958
									60:leaf=-0.0548499301
								50:[f1<2.6500001] yes=61,no=62,missing=61
									61:[f2<7.95000029] yes=67,no=68,missing=67
										67:leaf=0.0493047535
										68:leaf=0.0143064903
									62:[f3<11.9249992] yes=69,no=70,missing=69
										69:leaf=-0.050029289
										70:leaf=-0.0191139393
							44:[f4<11.9249992] yes=51,no=52,missing=51
								51:[f3<11.9249992] yes=63,no=64,missing=63
									63:leaf=0.0147028062
									64:leaf=-0.0189350862
								52:leaf=0.0443697907
					24:[f4<11.9249992] yes=37,no=38,missing=37
						37:[f2<7.95000029] yes=45,no=46,missing=45
							45:[f3<11.9249992] yes=53,no=54,missing=53
								53:leaf=0.0462595709
								54:leaf=0.0154980589
							46:[f1<7.95000029] yes=55,no=56,missing=55
								55:leaf=0.00512508163
								56:leaf=-0.00308000925
						38:leaf=0.0495916791
booster[32]:
0:[f3<3.9749999] yes=1,no=2,missing=1
	1:leaf=0.0549904704
	2:[f5<3.9749999] yes=3,no=4,missing=3
		3:[f1<13.25] yes=5,no=6,missing=5
			5:[f0<13.25] yes=9,no=10,missing=9
				9:[f2<2.6500001] yes=15,no=16,missing=15
					15:[f3<11.9249992] yes=25,no=26,missing=25
						25:leaf=-0.0462581106
						26:leaf=0.00783304032
					16:leaf=-0.0524943545
				10:[f1<2.6500001] yes=17,no=18,missing=17
					17:leaf=0.046145346
					18:[f4<11.9249992] yes=27,no=28,missing=27
						27:leaf=-0.0505327471
						28:[f3<11.9249992] yes=37,no=38,missing=37
							37:leaf=-0.0409539863
							38:leaf=0.0128806727
			6:[f0<2.6500001] yes=11,no=12,missing=11
				11:leaf=0.0472755842
				12:[f0<13.25] yes=19,no=20,missing=19
					19:[f2<2.6500001] yes=29,no=30,missing=29
						29:leaf=-0.0182668585
						30:leaf=-0.0495670922
					20:leaf=0.0470199138
		4:[f5<11.9249992] yes=7,no=8,missing=7
			7:leaf=0.0547296368
			8:[f4<11.9249992] yes=13,no=14,missing=13
				13:[f1<13.25] yes=21,no=22,missing=21
					21:[f0<13.25] yes=31,no=32,missing=31
						31:[f2<2.6500001] yes=39,no=40,missing=39
							39:[f0<2.6500001] yes=47,no=48,missing=47
								47:leaf=0.0123043172
								48:[f1<2.6500001] yes=57,no=58,missing=57
									57:leaf=-0.00529838214
									58:leaf=-0.0457420014
							40:[f2<7.95000029] yes=49,no=50,missing=49
								49:[f3<11.9249992] yes=59,no=60,missing=59
									59:[f1<2.6500001] yes=69,no=70,missing=69
										69:leaf=0.0091542732
										70:leaf=-0.0259427726
									60:leaf=-0.0482862443
								50:leaf=-0.0516962819
						32:[f1<2.6500001] yes=41,no=42,missing=41
							41:leaf=0.04715975
							42:[f2<2.6500001] yes=51,no=52,missing=51
								51:leaf=0.00582209369
								52:[f3<11.9249992] yes=61,no=62,missing=61
									61:leaf=-0.0198911894
									62:leaf=-0.0527946241
					22:[f0<2.6500001] yes=33,no=34,missing=33
						33:leaf=0.0478659533
						34:[f0<13.25] yes=43,no=44,missing=43
							43:[f4<3.9749999] yes=53,no=54,missing=53
								53:leaf=-0.0481871963
								54:[f3<11.9249992] yes=63,no=64,missing=63
									63:leaf=0.0141421426
									64:leaf=-0.0182743389
							44:leaf=0.0462030992
				14:[f1<13.25] yes=23,no=24,missing=23
					23:[f0<13.25] yes=35,no=36,missing=35
						35:[f0<2.6500001] yes=45,no=46,missing=45
							45:leaf=0.0465123765
							46:[f3<11.9249992] yes=55,no=56,missing=55
								55:[f1<2.6500001] yes=65,no=66,missing=65
									65:leaf=-0.00551642803
									66:leaf=-0.0477726422
								56:[f2<2.6500001] yes=67,no=68,missing=67
									67:leaf=0.0520787351
									68:[f0<7.95000029] yes=71,no=72,missing=71
										71:leaf=-0.0428144336
										72:leaf=0.000239647678
						36:leaf=0.04707231
					24:leaf=0.049149327
booster[33]:
0:[f3<3.9749999] yes=1,no=2,missing=1
	1:leaf=0.0546687245
	2:[f5<3.9749999] yes=3,no=4,missing=3
		3:[f1<13.25] yes=5,no=6,missing=5
			5:[f0<13.25] yes=9,no=10,missing=9
				9:[f2<2.6500001] yes=15,no=16,missing=15
					15:[f4<11.9249992] yes=25,no=26,missing=25
						25:leaf=-0.0448571965
						26:leaf=0.00818181317
					16:leaf=-0.052076783
				10:[f1<2.6500001] yes=17,no=18,missing=17
					17:leaf=0.0455831178
					18:[f2<2.6500001] yes=27,no=28,missing=27
						27:leaf=-0.0141888931
						28:leaf=-0.0491128825
			6:[f0<2.6500001] yes=11,no=12,missing=11
				11:leaf=0.0467296094
				12:[f0<13.25] yes=19,no=20,missing=19
					19:[f2<2.6500001] yes=29,no=30,missing=29
						29:leaf=-0.0177454334
						30:leaf=-0.0490549244
					20:leaf=0.0464699194
		4:[f5<11.9249992] yes=7,no=8,missing=7
			7:leaf=0.0543967448
			8:[f4<3.9749999] yes=13,no=14,missing=13
				13:[f1<13.25] yes=21,no=22,missing=21
					21:[f1<2.6500001] yes=31,no=32,missing=31
						31:[f0<7.95000029] yes=39,no=40,missing=39
							39:leaf=-0.0414149016
							40:leaf=0.00107223762
						32:leaf=-0.0522125624
					22:[f3<11.9249992] yes=33,no=34,missing=33
						33:leaf=-0.0128365951
						34:leaf=0.00584233971
				14:[f0<13.25] yes=23,no=24,missing=23
					23:[f0<2.6500001] yes=35,no=36,missing=35
						35:[f4<11.9249992] yes=41,no=42,missing=41
							41:[f2<7.95000029] yes=47,no=48,missing=47
								47:[f3<11.9249992] yes=55,no=56,missing=55
									55:leaf=0.0471719205
									56:leaf=0.0123288715
								48:leaf=-0.0184749309
							42:leaf=0.048225008
						36:[f1<13.25] yes=43,no=44,missing=43
							43:[f0<7.95000029] yes=49,no=50,missing=49
								49:[f2<2.6500001] yes=57,no=58,missing=57
									57:[f3<11.9249992] yes=63,no=64,missing=63
										63:leaf=-0.0453062765
										64:leaf=0.00742111588
									58:leaf=-0.0536568239
								50:[f1<2.6500001] yes=59,no=60,missing=59
									59:[f2<7.95000029] yes=65,no=66,missing=65
										65:leaf=0.0480382405
										66:leaf=0.0147102773
									60:[f2<2.6500001] yes=67,no=68,missing=67
										67:leaf=-0.0166793689
										68:leaf=-0.0472564362
							44:[f2<2.6500001] yes=51,no=52,missing=51
								51:leaf=0.049898684
								52:[f4<11.9249992] yes=61,no=62,missing=61
									61:leaf=-0.0267045554
									62:leaf=0.0400244147
					24:[f4<11.9249992] yes=37,no=38,missing=37
						37:[f2<7.95000029] yes=45,no=46,missing=45
							45:[f3<11.9249992] yes=53,no=54,missing=53
								53:leaf=0.0453819409
								54:leaf=0.0147783225
							46:leaf=0.000778142072
						38:leaf=0.0485541336
booster[34]:
0:[f3<3.9749999] yes=1,no=2,missing=1
	1:leaf=0.0543633215
	2:[f5<3.9749999] yes=3,no=4,missing=3
		3:[f1<13.25] yes=5,no=6,missing=5
			5:[f0<13.25] yes=9,no=10,missing=9
				9:[f2<2.6500001] yes=15,no=16,missing=15
					15:[f3<11.9249992] yes=25,no=26,missing=25
						25:leaf=-0.0454157405
						26:leaf=0.00821487047
					16:leaf=-0.0516716205
				10:[f1<2.6500001] yes=17,no=18,missing=17
					17:leaf=0.0450317226
					18:[f4<11.9249992] yes=27,no=28,missing=27
						27:leaf=-0.0495360829
						28:leaf=-0.014959896
			6:[f0<2.6500001] yes=11,no=12,missing=11
				11:leaf=0.0461942293
				12:[f0<13.25] yes=19,no=20,missing=19
					19:[f2<2.6500001] yes=29,no=30,missing=29
						29:leaf=-0.0172378384
						30:leaf=-0.0485539474
					20:leaf=0.0459305719
		4:[f5<11.9249992] yes=7,no=8,missing=7
			7:leaf=0.0540796593
			8:[f4<11.9249992] yes=13,no=14,missing=13
				13:[f1<13.25] yes=21,no=22,missing=21
					21:[f0<13.25] yes=31,no=32,missing=31
						31:[f2<2.6500001] yes=37,no=38,missing=37
							37:[f0<2.6500001] yes=45,no=46,missing=45
								45:leaf=0.0122044869
								46:[f0<7.95000029] yes=55,no=56,missing=55
									55:leaf=-0.0461842902
									56:leaf=-0.0061180382
							38:[f2<7.95000029] yes=47,no=48,missing=47
								47:[f3<11.9249992] yes=57,no=58,missing=57
									57:[f1<2.6500001] yes=67,no=68,missing=67
										67:leaf=0.00880818628
										68:leaf=-0.0245554969
									58:leaf=-0.0474406146
								48:leaf=-0.0509107523
						32:[f1<2.6500001] yes=39,no=40,missing=39
							39:leaf=0.0463644862
							40:[f2<2.6500001] yes=49,no=50,missing=49
								49:leaf=0.00598950451
								50:[f3<11.9249992] yes=59,no=60,missing=59
									59:leaf=-0.0192958042
									60:leaf=-0.0518352874
					22:[f0<2.6500001] yes=33,no=34,missing=33
						33:leaf=0.0471186861
						34:[f0<13.25] yes=41,no=42,missing=41
							41:[f4<3.9749999] yes=51,no=52,missing=51
								51:leaf=-0.0474187285
								52:[f3<11.9249992] yes=61,no=62,missing=61
									61:leaf=0.0141499536
									62:leaf=-0.0177615341
							42:leaf=0.0455261655
				14:[f1<13.25] yes=23,no=24,missing=23
					23:[f0<13.25] yes=35,no=36,missing=35
						35:[f0<2.6500001] yes=43,no=44,missing=43
							43:leaf=0.0453973785
							44:[f3<11.9249992] yes=53,no=54,missing=53
								53:[f1<2.6500001] yes=63,no=64,missing=63
									63:leaf=-0.00473972922
									64:leaf=-0.046499826
								54:[f2<2.6500001] yes=65,no=66,missing=65
									65:leaf=0.050972309
									66:[f0<7.95000029] yes=69,no=70,missing=69
										69:leaf=-0.041269213
										70:leaf=0.000692198693
						36:leaf=0.0459756143
					24:leaf=0.0481502078
booster[35]:
0:[f3<3.9749999] yes=1,no=2,missing=1
	1:leaf=0.0540730432
	2:[f5<3.9749999] yes=3,no=4,missing=3
		3:[f1<13.25] yes=5,no=6,missing=5
			5:[f0<13.25] yes=9,no=10,missing=9
				9:[f2<2.6500001] yes=15,no=16,missing=15
					15:[f4<11.9249992] yes=25,no=26,missing=25
						25:leaf=-0.0440695733
						26:leaf=0.00852105953
					16:leaf=-0.0512775667
				10:[f1<2.6500001] yes=17,no=18,missing=17
					17:leaf=0.0444902144
					18:[f2<2.6500001] yes=27,no=28,missing=27
						27:leaf=-0.0125913173
						28:leaf=-0.048206795
			6:[f0<2.6500001] yes=11,no=12,missing=11
				11:leaf=0.0456684493
				12:[f0<13.25] yes=19,no=20,missing=19
					19:[f2<2.6500001] yes=29,no=30,missing=29
						29:leaf=-0.0167437028
						30:leaf=-0.0480629615
					20:leaf=0.0454008728
		4:[f5<11.9249992] yes=7,no=8,missing=7
			7:leaf=0.0537771061
			8:[f4<3.9749999] yes=13,no=14,missing=13
				13:[f1<13.25] yes=21,no=22,missing=21
					21:[f1<2.6500001] yes=31,no=32,missing=31
						31:[f0<7.95000029] yes=39,no=40,missing=39
							39:leaf=-0.040430706
							40:leaf=0.000825461117
						32:leaf=-0.0514016524
					22:[f3<11.9249992] yes=33,no=34,missing=33
						33:leaf=-0.0121663762
						34:leaf=0.00554539775
				14:[f0<13.25] yes=23,no=24,missing=23
					23:[f0<2.6500001] yes=35,no=36,missing=35
						35:[f4<11.9249992] yes=41,no=42,missing=41
							41:[f2<7.95000029] yes=47,no=48,missing=47
								47:[f3<11.9249992] yes=55,no=56,missing=55
									55:leaf=0.0462758504
									56:leaf=0.0120870909
								48:leaf=-0.0174540803
							42:leaf=0.0472178161
						36:[f1<13.25] yes=43,no=44,missing=43
							43:[f0<7.95000029] yes=49,no=50,missing=49
								49:[f2<2.6500001] yes=57,no=58,missing=57
									57:[f3<11.9249992] yes=63,no=64,missing=63
										63:leaf=-0.0438106246
										64:leaf=0.00701012835
									58:leaf=-0.0525407493
								50:[f1<2.6500001] yes=59,no=60,missing=59
									59:[f2<7.95000029] yes=65,no=66,missing=65
										65:leaf=0.0468380935
										66:leaf=0.0150687797
									60:[f3<11.9249992] yes=67,no=68,missing=67
										67:leaf=-0.0476056822
										68:leaf=-0.0178737473
							44:[f2<2.6500001] yes=51,no=52,missing=51
								51:leaf=0.0489014126
								52:[f4<11.9249992] yes=61,no=62,missing=61
									61:leaf=-0.0258112196
									62:leaf=0.0388327688
					24:[f4<11.9249992] yes=37,no=38,missing=37
						37:[f2<2.6500001] yes=45,no=46,missing=45
							45:leaf=0.0440759696
							46:[f3<11.9249992] yes=53,no=54,missing=53
								53:leaf=0.0153804217
								54:leaf=-0.00524632446
						38:leaf=0.0475602858
booster[36]:
0:[f3<3.9749999] yes=1,no=2,missing=1
	1:leaf=0.053796716
	2:[f5<3.9749999] yes=3,no=4,missing=3
		3:[f1<13.25] yes=5,no=6,missing=5
			5:[f0<13.25] yes=9,no=10,missing=9
				9:[f2<2.6500001] yes=15,no=16,missing=15
					15:[f3<11.9249992] yes=25,no=26,missing=25
						25:leaf=-0.0446128957
						26:leaf=0.00855555199
					16:leaf=-0.0508934334
				10:[f1<2.6500001] yes=17,no=18,missing=17
					17:leaf=0.0439577773
					18:[f4<11.9249992] yes=27,no=28,missing=27
						27:leaf=-0.0485884584
						28:leaf=-0.0133984359
			6:[f0<2.6500001] yes=11,no=12,missing=11
				11:leaf=0.045151338
				12:[f0<13.25] yes=19,no=20,missing=19
					19:[f2<2.6500001] yes=29,no=30,missing=29
						29:leaf=-0.0162626747
						30:leaf=-0.0475808829
					20:leaf=0.044879932
		4:[f5<11.9249992] yes=7,no=8,missing=7
			7:leaf=0.0534879379
			8:[f4<3.9749999] yes=13,no=14,missing=13
				13:[f0<13.25] yes=21,no=22,missing=21
					21:[f1<13.25] yes=31,no=32,missing=31
						31:leaf=-0.0501977913
						32:[f3<11.9249992] yes=39,no=40,missing=39
							39:leaf=-0.0306498855
							40:leaf=-0.00682533113
					22:[f1<7.95000029] yes=33,no=34,missing=33
						33:leaf=-0.00710502034
						34:leaf=0.00377691234
				14:[f1<13.25] yes=23,no=24,missing=23
					23:[f0<13.25] yes=35,no=36,missing=35
						35:[f0<2.6500001] yes=41,no=42,missing=41
							41:[f4<11.9249992] yes=47,no=48,missing=47
								47:[f2<7.95000029] yes=55,no=56,missing=55
									55:leaf=0.0274733249
									56:leaf=-0.0397224687
								48:leaf=0.0443198644
							42:[f0<7.95000029] yes=49,no=50,missing=49
								49:[f2<2.6500001] yes=57,no=58,missing=57
									57:leaf=-0.0199883077
									58:leaf=-0.0518107228
								50:[f1<2.6500001] yes=59,no=60,missing=59
									59:[f4<11.9249992] yes=61,no=62,missing=61
										61:leaf=0.0148365768
										62:leaf=0.0474919602
									60:[f2<2.6500001] yes=63,no=64,missing=63
										63:leaf=-0.0152445352
										64:leaf=-0.0458234064
						36:[f4<11.9249992] yes=43,no=44,missing=43
							43:[f2<7.95000029] yes=51,no=52,missing=51
								51:leaf=0.0304711517
								52:leaf=-0.0134550622
							44:leaf=0.0449159928
					24:[f4<11.9249992] yes=37,no=38,missing=37
						37:[f2<2.6500001] yes=45,no=46,missing=45
							45:leaf=0.048662778
							46:[f3<11.9249992] yes=53,no=54,missing=53
								53:leaf=0.019401012
								54:leaf=-0.00930105429
						38:leaf=0.0471906625
booster[37]:
0:[f3<3.9749999] yes=1,no=2,missing=1
	1:leaf=0.0535332859
	2:[f5<3.9749999] yes=3,no=4,missing=3
		3:[f1<13.25] yes=5,no=6,missing=5
			5:[f0<13.25] yes=9,no=10,missing=9
				9:[f2<2.6500001] yes=15,no=16,missing=15
					15:[f4<11.9249992] yes=25,no=26,missing=25
						25:leaf=-0.0433166958
						26:leaf=0.00882269442
					16:leaf=-0.0505181029
				10:[f1<2.6500001] yes=17,no=18,missing=17
					17:leaf=0.0434336103
					18:[f2<2.6500001] yes=27,no=28,missing=27
						27:leaf=-0.0110891415
						28:leaf=-0.0473405682
			6:[f0<2.6500001] yes=11,no=12,missing=11
				11:leaf=0.0446420908
				12:[f0<13.25] yes=19,no=20,missing=19
					19:[f4<11.9249992] yes=29,no=30,missing=29
						29:leaf=-0.0482300818
						30:leaf=-0.0175588261
					20:leaf=0.0443669371
		4:[f5<11.9249992] yes=7,no=8,missing=7
			7:leaf=0.0532110631
			8:[f4<11.9249992] yes=13,no=14,missing=13
				13:[f1<13.25] yes=21,no=22,missing=21
					21:[f0<13.25] yes=31,no=32,missing=31
