booster[0]:
0:[f3<3.9749999] yes=1,no=2,missing=1
	1:leaf=0.0996161252
	2:[f5<3.9749999] yes=3,no=4,missing=3
		3:[f1<13.25] yes=5,no=6,missing=5
			5:[f0<13.25] yes=9,no=10,missing=9
				9:[f2<2.6500001] yes=15,no=16,missing=15
					15:[f4<11.9249992] yes=25,no=26,missing=25
						25:leaf=-0.0894736871
						26:[f3<11.9249992] yes=35,no=36,missing=35
							35:leaf=-0.075000003
							36:leaf=0.0818181857
					16:leaf=-0.0975308642
				10:[f1<2.6500001] yes=17,no=18,missing=17
					17:leaf=0.0913043544
					18:leaf=-0.0869565234
			6:[f0<13.25] yes=11,no=12,missing=11
				11:[f0<2.6500001] yes=19,no=20,missing=19
					19:leaf=0.0916666687
					20:[f2<2.6500001] yes=27,no=28,missing=27
						27:[f4<11.9249992] yes=37,no=38,missing=37
							37:leaf=-0.0777777806
							38:leaf=-0
						28:leaf=-0.0939393938
				12:leaf=0.0916666687
		4:[f5<11.9249992] yes=7,no=8,missing=7
			7:leaf=0.0994269326
			8:[f4<11.9249992] yes=13,no=14,missing=13
				13:[f0<13.25] yes=21,no=22,missing=21
					21:[f1<13.25] yes=29,no=30,missing=29
						29:[f4<3.9749999] yes=39,no=40,missing=39
							39:leaf=-0.0956521779
							40:[f2<7.95000029] yes=47,no=48,missing=47
								47:[f0<2.6500001] yes=55,no=56,missing=55
									55:[f3<11.9249992] yes=65,no=66,missing=65
										65:leaf=0.075000003
										66:leaf=-0.0142857153
									56:[f1<2.6500001] yes=67,no=68,missing=67
										67:leaf=-0.0200000014
										68:leaf=-0.0857142881
								48:leaf=-0.0899999961
						30:[f0<2.6500001] yes=41,no=42,missing=41
							41:leaf=0.086666666
							42:[f2<2.6500001] yes=49,no=50,missing=49
								49:leaf=0.0111111114
								50:[f2<7.95000029] yes=57,no=58,missing=57
									57:[f3<11.9249992] yes=69,no=70,missing=69
										69:leaf=-0
										70:leaf=-0.0666666701
									58:leaf=-0.088888891
					22:[f1<13.25] yes=31,no=32,missing=31
						31:[f1<2.6500001] yes=43,no=44,missing=43
							43:leaf=0.0874999985
							44:[f2<2.6500001] yes=51,no=52,missing=51
								51:leaf=-0
								52:[f2<7.95000029] yes=59,no=60,missing=59
									59:[f3<11.9249992] yes=71,no=72,missing=71
										71:leaf=-0
										72:leaf=-0.0666666701
									60:leaf=-0.0882352963
						32:leaf=0.0874999985
				14:[f1<13.25] yes=23,no=24,missing=23
					23:[f0<2.6500001] yes=33,no=34,missing=33
						33:leaf=0.0916666687
						34:[f0<13.25] yes=45,no=46,missing=45
							45:[f2<2.6500001] yes=53,no=54,missing=53
								53:[f3<11.9249992] yes=61,no=62,missing=61
									61:leaf=-0.0500000007
									62:leaf=0.0666666701
								54:[f1<2.6500001] yes=63,no=64,missing=63
									63:[f3<11.9249992] yes=73,no=74,missing=73
										73:leaf=-0.0333333351
										74:leaf=-0
									64:leaf=-0.0913043544
							46:leaf=0.0913043544
					24:leaf=0.0939393938
booster[1]:
0:[f3<3.9749999] yes=1,no=2,missing=1
	1:leaf=0.0948926508
	2:[f5<3.9749999] yes=3,no=4,missing=3
		3:[f1<13.25] yes=5,no=6,missing=5
			5:[f0<13.25] yes=9,no=10,missing=9
				9:[f2<2.6500001] yes=15,no=16,missing=15
					15:[f4<11.9249992] yes=25,no=26,missing=25
						25:leaf=-0.0856267139
						26:[f3<11.9249992] yes=37,no=38,missing=37
							37:leaf=-0.0722649619
							38:leaf=0.0785804167
					16:leaf=-0.0929938406
				10:[f1<2.6500001] yes=17,no=18,missing=17
					17:leaf=0.0873049051
					18:[f2<2.6500001] yes=27,no=28,missing=27
						27:[f3<11.9249992] yes=39,no=40,missing=39
							39:leaf=-0.0718429089
							40:leaf=-0.0217720084
						28:leaf=-0.0901884064
			6:[f0<13.25] yes=11,no=12,missing=11
				11:[f0<2.6500001] yes=19,no=20,missing=19
					19:leaf=0.087636739
					20:[f2<2.6500001] yes=29,no=30,missing=29
						29:[f4<11.9249992] yes=41,no=42,missing=41
							41:leaf=-0.0748425499
							42:leaf=-0
						30:leaf=-0.0897160023
				12:leaf=0.087636739
		4:[f5<11.9249992] yes=7,no=8,missing=7
			7:leaf=0.0947205201
			8:[f4<11.9249992] yes=13,no=14,missing=13
				13:[f0<13.25] yes=21,no=22,missing=21
					21:[f1<13.25] yes=31,no=32,missing=31
						31:[f4<3.9749999] yes=43,no=44,missing=43
							43:leaf=-0.0912804082
							44:[f2<7.95000029] yes=51,no=52,missing=51
								51:[f0<2.6500001] yes=59,no=60,missing=59
									59:[f3<11.9249992] yes=69,no=70,missing=69
										69:leaf=0.0722649619
										70:leaf=-0.0137760267
									60:[f1<2.6500001] yes=71,no=72,missing=71
										71:leaf=-0.0192015748
										72:leaf=-0.0821722746
								52:leaf=-0.0861094519
						32:[f0<2.6500001] yes=45,no=46,missing=45
							45:leaf=0.083048448
							46:[f2<2.6500001] yes=53,no=54,missing=53
								53:leaf=0.0106792729
								54:[f2<7.95000029] yes=61,no=62,missing=61
									61:leaf=-0.0386843383
									62:leaf=-0.0850900784
					22:[f1<13.25] yes=33,no=34,missing=33
						33:[f1<2.6500001] yes=47,no=48,missing=47
							47:leaf=0.0838145092
							48:[f2<2.6500001] yes=55,no=56,missing=55
								55:leaf=-0
								56:[f2<7.95000029] yes=63,no=64,missing=63
									63:leaf=-0.0386843383
									64:leaf=-0.0844899938
						34:leaf=0.0838145092
				14:[f1<13.25] yes=23,no=24,missing=23
					23:[f0<2.6500001] yes=35,no=36,missing=35
						35:leaf=0.087636739
						36:[f0<13.25] yes=49,no=50,missing=49
							49:[f2<2.6500001] yes=57,no=58,missing=57
								57:[f0<7.95000029] yes=65,no=66,missing=65
									65:leaf=-0.0141748292
									66:leaf=0.0144133223
								58:[f1<2.6500001] yes=67,no=68,missing=67
									67:leaf=-0.0193355437
									68:leaf=-0.0873048902
							50:leaf=0.0873049051
					24:leaf=0.0897159874
booster[2]:
0:[f3<3.9749999] yes=1,no=2,missing=1
	1:leaf=0.090808697
	2:[f5<3.9749999] yes=3,no=4,missing=3
		3:[f1<13.25] yes=5,no=6,missing=5
			5:[f0<13.25] yes=9,no=10,missing=9
				9:[f2<2.6500001] yes=15,no=16,missing=15
					15:[f4<11.9249992] yes=25,no=26,missing=25
						25:leaf=-0.0822212249
						26:[f3<11.9249992] yes=35,no=36,missing=35
							35:leaf=-0.0697702095
							36:leaf=0.0756669566
					16:leaf=-0.0890512839
				10:[f1<2.6500001] yes=17,no=18,missing=17
					17:leaf=0.083778888
					18:leaf=-0.0795970783
			6:[f0<13.25] yes=11,no=12,missing=11
				11:[f0<2.6500001] yes=19,no=20,missing=19
					19:leaf=0.0840867609
					20:[f2<2.6500001] yes=27,no=28,missing=27
						27:[f4<11.9249992] yes=37,no=38,missing=37
							37:leaf=-0.0721796975
							38:leaf=-0
						28:leaf=-0.0860148594
				12:leaf=0.0840867609
		4:[f5<11.9249992] yes=7,no=8,missing=7
			7:leaf=0.0906494036
			8:[f4<11.9249992] yes=13,no=14,missing=13
				13:[f0<13.25] yes=21,no=22,missing=21
					21:[f1<13.25] yes=29,no=30,missing=29
						29:[f4<3.9749999] yes=39,no=40,missing=39
							39:leaf=-0.0874645039
							40:[f2<7.95000029] yes=47,no=48,missing=47
								47:[f0<2.6500001] yes=55,no=56,missing=55
									55:[f3<11.9249992] yes=65,no=66,missing=65
										65:leaf=0.0697702095
										66:leaf=-0.0132854432
									56:[f1<2.6500001] yes=67,no=68,missing=67
										67:leaf=-0.0184378084
										68:leaf=-0.0790109858
								48:leaf=-0.0826694071
						30:[f0<2.6500001] yes=41,no=42,missing=41
							41:leaf=0.0798257366
							42:[f2<2.6500001] yes=49,no=50,missing=49
								49:leaf=0.0102646872
								50:[f2<7.95000029] yes=57,no=58,missing=57
									57:leaf=-0.0371680707
									58:leaf=-0.0817228705
					22:[f1<13.25] yes=31,no=32,missing=31
						31:[f1<2.6500001] yes=43,no=44,missing=43
							43:leaf=0.0805378035
							44:[f2<2.6500001] yes=51,no=52,missing=51
								51:leaf=-0
								52:[f2<7.95000029] yes=59,no=60,missing=59
									59:leaf=-0.0371680707
									60:leaf=-0.0811654627
						32:leaf=0.0805378035
				14:[f1<13.25] yes=23,no=24,missing=23
					23:[f0<2.6500001] yes=33,no=34,missing=33
						33:leaf=0.0840867609
						34:[f0<13.25] yes=45,no=46,missing=45
							45:[f2<2.6500001] yes=53,no=54,missing=53
								53:[f0<7.95000029] yes=61,no=62,missing=61
									61:leaf=-0.0136694359
									62:leaf=0.0138989585
								54:[f1<2.6500001] yes=63,no=64,missing=63
									63:leaf=-0.0185660124
									64:leaf=-0.083778888
							46:leaf=0.083778888
					24:leaf=0.0860148594
booster[3]:
0:[f3<3.9749999] yes=1,no=2,missing=1
	1:leaf=0.0872456729
	2:[f5<3.9749999] yes=3,no=4,missing=3
		3:[f1<13.25] yes=5,no=6,missing=5
			5:[f0<13.25] yes=9,no=10,missing=9
				9:[f2<2.6500001] yes=15,no=16,missing=15
					15:[f4<11.9249992] yes=25,no=26,missing=25
						25:leaf=-0.0791850314
						26:[f3<11.9249992] yes=35,no=36,missing=35
							35:leaf=-0.0674843565
							36:leaf=0.0730303377
					16:leaf=-0.0855956152
				10:[f1<2.6500001] yes=17,no=18,missing=17
					17:leaf=0.0806470066
					18:[f2<2.6500001] yes=27,no=28,missing=27
						27:[f3<11.9249992] yes=37,no=38,missing=37
							37:leaf=-0.0668074563
							38:leaf=-0.0180781018
						28:leaf=-0.0833807439
			6:[f0<13.25] yes=11,no=12,missing=11
				11:[f0<2.6500001] yes=19,no=20,missing=19
					19:leaf=0.0809359401
					20:leaf=-0.0762574077
				12:leaf=0.0809359401
		4:[f5<11.9249992] yes=7,no=8,missing=7
			7:leaf=0.0870961025
			8:[f4<11.9249992] yes=13,no=14,missing=13
				13:[f0<13.25] yes=21,no=22,missing=21
					21:[f1<13.25] yes=29,no=30,missing=29
						29:[f4<3.9749999] yes=39,no=40,missing=39
							39:leaf=-0.0841060877
							40:[f2<7.95000029] yes=47,no=48,missing=47
								47:[f0<2.6500001] yes=55,no=56,missing=55
									55:[f3<11.9249992] yes=65,no=66,missing=65
										65:leaf=0.0674843565
										66:leaf=-0.01281315
									56:[f1<2.6500001] yes=67,no=68,missing=67
										67:leaf=-0.0177068245
										68:leaf=-0.0761713609
								48:leaf=-0.079605706
						30:[f0<2.6500001] yes=41,no=42,missing=41
							41:leaf=0.0769363493
							42:[f2<2.6500001] yes=49,no=50,missing=49
								49:leaf=0.00986659527
								50:[f2<7.95000029] yes=57,no=58,missing=57
									57:leaf=-0.0357309841
									58:leaf=-0.0787172616
					22:[f1<13.25] yes=31,no=32,missing=31
						31:[f1<2.6500001] yes=43,no=44,missing=43
							43:leaf=0.0776048377
							44:[f4<3.9749999] yes=51,no=52,missing=51
								51:leaf=-0.0812453926
								52:[f2<7.95000029] yes=59,no=60,missing=59
									59:leaf=0.0358083099
									60:leaf=-0.0708016381
						32:leaf=0.0776048377
				14:[f1<13.25] yes=23,no=24,missing=23
					23:[f0<2.6500001] yes=33,no=34,missing=33
						33:leaf=0.0809359401
						34:[f0<13.25] yes=45,no=46,missing=45
							45:[f2<2.6500001] yes=53,no=54,missing=53
								53:[f0<7.95000029] yes=61,no=62,missing=61
									61:leaf=-0.0131829707
									62:leaf=0.0134039093
								54:[f1<2.6500001] yes=63,no=64,missing=63
									63:leaf=-0.0178295653
									64:leaf=-0.0806469917
							46:leaf=0.0806470066
					24:leaf=0.0827454999
booster[4]:
0:[f3<3.9749999] yes=1,no=2,missing=1
	1:leaf=0.0841128007
	2:[f5<3.9749999] yes=3,no=4,missing=3
		3:[f1<13.25] yes=5,no=6,missing=5
			5:[f0<13.25] yes=9,no=10,missing=9
				9:[f2<2.6500001] yes=15,no=16,missing=15
					15:[f4<11.9249992] yes=25,no=26,missing=25
						25:leaf=-0.0764606223
						26:[f3<11.9249992] yes=37,no=38,missing=37
							37:leaf=-0.0653810576
							38:leaf=0.0706316978
					16:leaf=-0.0825437233
				10:[f1<2.6500001] yes=17,no=18,missing=17
					17:leaf=0.07784646
					18:[f2<2.6500001] yes=27,no=28,missing=27
						27:[f3<11.9249992] yes=39,no=40,missing=39
							39:leaf=-0.0647565573
							40:leaf=-0.0174254309
						28:leaf=-0.0804116726
			6:[f0<13.25] yes=11,no=12,missing=11
				11:[f0<2.6500001] yes=19,no=20,missing=19
					19:leaf=0.0781204402
					20:[f2<2.6500001] yes=29,no=30,missing=29
						29:[f3<11.9249992] yes=41,no=42,missing=41
							41:leaf=-0.0673533008
							42:leaf=-0.00686240289
						30:leaf=-0.0800571367
				12:leaf=0.0781204402
		4:[f5<11.9249992] yes=7,no=8,missing=7
			7:leaf=0.083970502
			8:[f4<11.9249992] yes=13,no=14,missing=13
				13:[f0<13.25] yes=21,no=22,missing=21
					21:[f1<13.25] yes=31,no=32,missing=31
						31:[f4<3.9749999] yes=43,no=44,missing=43
							43:leaf=-0.081128642
							44:[f2<7.95000029] yes=51,no=52,missing=51
								51:[f0<2.6500001] yes=59,no=60,missing=59
									59:[f3<11.9249992] yes=69,no=70,missing=69
										69:leaf=0.0653810576
										70:leaf=-0.0123583563
									60:[f1<2.6500001] yes=71,no=72,missing=71
										71:leaf=-0.0170068648
										72:leaf=-0.0736056864
								52:leaf=-0.0768593252
						32:[f0<2.6500001] yes=45,no=46,missing=45
							45:leaf=0.0743301958
							46:[f4<3.9749999] yes=53,no=54,missing=53
								53:leaf=-0.0802542195
								54:[f2<7.95000029] yes=61,no=62,missing=61
									61:leaf=0.0421543755
									62:leaf=-0.0682449639
					22:[f1<13.25] yes=33,no=34,missing=33
						33:[f1<2.6500001] yes=47,no=48,missing=47
							47:leaf=0.0749634132
							48:[f2<2.6500001] yes=55,no=56,missing=55
								55:leaf=0.000851810095
								56:[f2<7.95000029] yes=63,no=64,missing=63
									63:leaf=-0.0348895267
									64:leaf=-0.0756054297
						34:leaf=0.0749634132
				14:[f1<13.25] yes=23,no=24,missing=23
					23:[f0<2.6500001] yes=35,no=36,missing=35
						35:leaf=0.0781204402
						36:[f0<13.25] yes=49,no=50,missing=49
							49:[f2<2.6500001] yes=57,no=58,missing=57
								57:[f0<7.95000029] yes=65,no=66,missing=65
									65:leaf=-0.0127146067
									66:leaf=0.012927331
								58:[f1<2.6500001] yes=67,no=68,missing=67
									67:leaf=-0.0171244368
									68:leaf=-0.07784646
							50:leaf=0.07784646
					24:leaf=0.0798370242
booster[5]:
0:[f3<3.9749999] yes=1,no=2,missing=1
	1:leaf=0.0813392028
	2:[f5<3.9749999] yes=3,no=4,missing=3
		3:[f1<13.25] yes=5,no=6,missing=5
			5:[f0<13.25] yes=9,no=10,missing=9
				9:[f2<2.6500001] yes=15,no=16,missing=15
					15:[f4<11.9249992] yes=25,no=26,missing=25
						25:leaf=-0.0740016326
						26:[f3<11.9249992] yes=37,no=38,missing=37
							37:leaf=-0.0634380355
							38:leaf=0.0684388801
					16:leaf=-0.0798303336
				10:[f1<2.6500001] yes=17,no=18,missing=17
					17:leaf=0.0753269717
					18:[f2<2.6500001] yes=27,no=28,missing=27
						27:[f3<11.9249992] yes=39,no=40,missing=39
							39:leaf=-0.0628596693
							40:leaf=-0.0167977568
						28:leaf=-0.0777569339
			6:[f0<13.25] yes=11,no=12,missing=11
				11:[f0<2.6500001] yes=19,no=20,missing=19
					19:leaf=0.0755891576
					20:[f2<2.6500001] yes=29,no=30,missing=29
						29:[f3<11.9249992] yes=41,no=42,missing=41
							41:leaf=-0.0652670264
							42:leaf=-0.00662182411
						30:leaf=-0.0774307176
				12:leaf=0.0755891576
		4:[f5<11.9249992] yes=7,no=8,missing=7
			7:leaf=0.0812022611
			8:[f4<11.9249992] yes=13,no=14,missing=13
				13:[f0<13.25] yes=21,no=22,missing=21
					21:[f1<13.25] yes=31,no=32,missing=31
						31:[f4<3.9749999] yes=43,no=44,missing=43
							43:leaf=-0.0784716383
							44:[f2<7.95000029] yes=51,no=52,missing=51
								51:[f0<2.6500001] yes=59,no=60,missing=59
									59:[f3<11.9249992] yes=69,no=70,missing=69
										69:leaf=0.063438043
										70:leaf=-0.0119203394
									60:[f1<2.6500001] yes=71,no=72,missing=71
										71:leaf=-0.0163363237
										72:leaf=-0.0712750107
								52:leaf=-0.0743827969
						32:[f0<2.6500001] yes=45,no=46,missing=45
							45:leaf=0.0719665363
							46:[f2<2.6500001] yes=53,no=54,missing=53
								53:leaf=0.00989162456
								54:[f2<7.95000029] yes=61,no=62,missing=61
									61:leaf=-0.0336759351
									62:leaf=-0.0736336038
					22:[f1<13.25] yes=33,no=34,missing=33
						33:[f1<2.6500001] yes=47,no=48,missing=47
							47:leaf=0.072571151
							48:[f4<3.9749999] yes=55,no=56,missing=55
								55:leaf=-0.0767287537
								56:[f2<7.95000029] yes=63,no=64,missing=63
									63:leaf=0.0351792835
									64:leaf=-0.0662667677
						34:leaf=0.072571151
				14:[f1<13.25] yes=23,no=24,missing=23
					23:[f0<2.6500001] yes=35,no=36,missing=35
						35:leaf=0.0755891576
						36:[f0<13.25] yes=49,no=50,missing=49
							49:[f2<2.6500001] yes=57,no=58,missing=57
								57:[f0<7.95000029] yes=65,no=66,missing=65
									65:leaf=-0.01226357
									66:leaf=0.0124684339
								58:[f1<2.6500001] yes=67,no=68,missing=67
									67:leaf=-0.0164489876
									68:leaf=-0.0753269717
							50:leaf=0.0753269717
					24:leaf=0.0772330835
booster[6]:
0:[f3<3.9749999] yes=1,no=2,missing=1
	1:leaf=0.0788688436
	2:[f5<3.9749999] yes=3,no=4,missing=3
		3:[f1<13.25] yes=5,no=6,missing=5
			5:[f0<13.25] yes=9,no=10,missing=9
				9:[f2<2.6500001] yes=15,no=16,missing=15
					15:[f4<11.9249992] yes=25,no=26,missing=25
						25:leaf=-0.0717702061
						26:[f3<11.9249992] yes=37,no=38,missing=37
							37:leaf=-0.0616363548
							38:leaf=0.0664250851
					16:leaf=-0.077403456
				10:[f1<2.6500001] yes=17,no=18,missing=17
					17:leaf=0.0730477124
					18:[f4<11.9249992] yes=27,no=28,missing=27
						27:leaf=-0.076512821
						28:[f3<11.9249992] yes=39,no=40,missing=39
							39:leaf=-0.0621658228
							40:leaf=-0.0177549422
			6:[f0<13.25] yes=11,no=12,missing=11
				11:[f0<2.6500001] yes=19,no=20,missing=19
					19:leaf=0.0733006448
					20:[f2<2.6500001] yes=29,no=30,missing=29
						29:[f3<11.9249992] yes=41,no=42,missing=41
							41:leaf=-0.0633383915
							42:leaf=-0.00638969988
						30:leaf=-0.0750667378
				12:leaf=0.0733006448
		4:[f5<11.9249992] yes=7,no=8,missing=7
			7:leaf=0.0787357092
			8:[f4<11.9249992] yes=13,no=14,missing=13
				13:[f0<13.25] yes=21,no=22,missing=21
					21:[f1<13.25] yes=31,no=32,missing=31
						31:[f4<3.9749999] yes=43,no=44,missing=43
							43:leaf=-0.0760866404
							44:[f2<7.95000029] yes=51,no=52,missing=51
								51:[f0<2.6500001] yes=59,no=60,missing=59
									59:[f3<11.9249992] yes=69,no=70,missing=69
										69:leaf=0.0616363548
										70:leaf=-0.0114983814
									60:[f1<2.6500001] yes=71,no=72,missing=71
										71:leaf=-0.0156937055
										72:leaf=-0.0691472217
								52:leaf=-0.0721374303
						32:[f0<2.6500001] yes=45,no=46,missing=45
							45:leaf=0.0698118433
							46:[f4<3.9749999] yes=53,no=54,missing=53
								53:leaf=-0.07604523
								54:[f2<7.95000029] yes=61,no=62,missing=61
									61:leaf=0.0409624204
									62:leaf=-0.0641021878
					22:[f1<13.25] yes=33,no=34,missing=33
						33:[f1<2.6500001] yes=47,no=48,missing=47
							47:leaf=0.0703932792
							48:[f4<3.9749999] yes=55,no=56,missing=55
								55:leaf=-0.0741878748
								56:[f2<7.95000029] yes=63,no=64,missing=63
									63:leaf=0.0337982364
									64:leaf=-0.0643726811
						34:leaf=0.0703932792
				14:[f1<13.25] yes=23,no=24,missing=23
					23:[f0<2.6500001] yes=35,no=36,missing=35
						35:leaf=0.0733006448
						36:[f0<13.25] yes=49,no=50,missing=49
							49:[f2<2.6500001] yes=57,no=58,missing=57
								57:[f0<7.95000029] yes=65,no=66,missing=65
									65:leaf=-0.0118291285
									66:leaf=0.0120264655
								58:[f1<2.6500001] yes=67,no=68,missing=67
									67:leaf=-0.015801698
									68:leaf=-0.073047705
							50:leaf=0.0730477124
					24:leaf=0.0748883411
booster[7]:
0:[f3<3.9749999] yes=1,no=2,missing=1
	1:leaf=0.0766567588
	2:[f5<3.9749999] yes=3,no=4,missing=3
		3:[f1<13.25] yes=5,no=6,missing=5
			5:[f0<13.25] yes=9,no=10,missing=9
				9:[f2<2.6500001] yes=15,no=16,missing=15
					15:[f4<11.9249992] yes=25,no=26,missing=25
						25:leaf=-0.0697352067
						26:[f3<11.9249992] yes=37,no=38,missing=37
							37:leaf=-0.0599598251
							38:leaf=0.0645678043
					16:leaf=-0.0752211735
				10:[f1<2.6500001] yes=17,no=18,missing=17
					17:leaf=0.0709752068
					18:[f2<2.6500001] yes=27,no=28,missing=27
						27:[f3<11.9249992] yes=39,no=40,missing=39
							39:leaf=-0.0591805056
							40:leaf=-0.0141588673
						28:leaf=-0.0735050365
			6:[f0<13.25] yes=11,no=12,missing=11
				11:[f0<2.6500001] yes=19,no=20,missing=19
					19:leaf=0.0712209791
					20:[f2<2.6500001] yes=29,no=30,missing=29
						29:[f3<11.9249992] yes=41,no=42,missing=41
							41:leaf=-0.0615488589
							42:leaf=-0.00616574567
						30:leaf=-0.0729277059
				12:leaf=0.0712209791
		4:[f5<11.9249992] yes=7,no=8,missing=7
			7:leaf=0.0765261576
			8:[f4<11.9249992] yes=13,no=14,missing=13
				13:[f0<13.25] yes=21,no=22,missing=21
					21:[f1<13.25] yes=31,no=32,missing=31
						31:[f4<3.9749999] yes=43,no=44,missing=43
							43:leaf=-0.0739343613
							44:[f2<2.6500001] yes=51,no=52,missing=51
								51:[f0<2.6500001] yes=59,no=60,missing=59
									59:leaf=0.0642552599
									60:[f0<7.95000029] yes=71,no=72,missing=71
										71:leaf=-0.062545009
										72:leaf=-0.0107122967
								52:[f3<11.9249992] yes=61,no=62,missing=61
									61:[f2<7.95000029] yes=73,no=74,missing=73
										73:leaf=0.00219975784
										74:leaf=-0.0633033663
									62:leaf=-0.0739709586
						32:[f0<2.6500001] yes=45,no=46,missing=45
							45:leaf=0.0678383335
							46:[f4<3.9749999] yes=53,no=54,missing=53
								53:leaf=-0.0736088529
								54:[f2<7.95000029] yes=63,no=64,missing=63
									63:leaf=0.039324522
									64:leaf=-0.0623675659
					22:[f1<13.25] yes=33,no=34,missing=33
						33:[f1<2.6500001] yes=47,no=48,missing=47
							47:leaf=0.0684010237
							48:[f2<2.6500001] yes=55,no=56,missing=55
								55:leaf=0.00235312502
								56:[f2<7.95000029] yes=65,no=66,missing=65
									65:leaf=-0.0322367214
									66:leaf=-0.0690769181
						34:leaf=0.0684010237
				14:[f1<13.25] yes=23,no=24,missing=23
					23:[f0<2.6500001] yes=35,no=36,missing=35
						35:leaf=0.0712209791
						36:[f0<13.25] yes=49,no=50,missing=49
							49:[f2<2.6500001] yes=57,no=58,missing=57
								57:[f0<7.95000029] yes=67,no=68,missing=67
									67:leaf=-0.0114106135
									68:leaf=0.0116007263
								58:[f1<2.6500001] yes=69,no=70,missing=69
									69:leaf=-0.0151811736
									70:leaf=-0.0709752068
							50:leaf=0.0709752068
					24:leaf=0.0727658346
booster[8]:
0:[f3<3.9749999] yes=1,no=2,missing=1
	1:leaf=0.0746664256
	2:[f5<3.9749999] yes=3,no=4,missing=3
		3:[f1<13.25] yes=5,no=6,missing=5
			5:[f0<13.25] yes=9,no=10,missing=9
				9:[f2<2.6500001] yes=15,no=16,missing=15
					15:[f4<11.9249992] yes=25,no=26,missing=25
						25:leaf=-0.0678706989
						26:[f3<11.9249992] yes=37,no=38,missing=37
							37:leaf=-0.0583945177
							38:leaf=0.0628479794
					16:leaf=-0.0732492432
				10:[f1<2.6500001] yes=17,no=18,missing=17
					17:leaf=0.0690817609
					18:[f4<11.9249992] yes=27,no=28,missing=27
						27:leaf=-0.0725337639
						28:[f3<11.9249992] yes=39,no=40,missing=39
							39:leaf=-0.0587554462
							40:leaf=-0.0151588572
			6:[f0<13.25] yes=11,no=12,missing=11
				11:[f0<2.6500001] yes=19,no=20,missing=19
					19:leaf=0.0693220943
					20:[f2<2.6500001] yes=29,no=30,missing=29
						29:[f3<11.9249992] yes=41,no=42,missing=41
							41:leaf=-0.0598826073
							42:leaf=-0.00594965182
						30:leaf=-0.0709827468
				12:leaf=0.0693220943
		4:[f5<11.9249992] yes=7,no=8,missing=7
			7:leaf=0.0745373145
			8:[f4<11.9249992] yes=13,no=14,missing=13
				13:[f0<13.25] yes=21,no=22,missing=21
					21:[f1<13.25] yes=31,no=32,missing=31
						31:[f4<3.9749999] yes=43,no=44,missing=43
							43:leaf=-0.0719825923
							44:[f2<7.95000029] yes=51,no=52,missing=51
								51:[f0<2.6500001] yes=59,no=60,missing=59
									59:[f3<11.9249992] yes=69,no=70,missing=69
										69:leaf=0.0590976253
										70:leaf=-0.0104447892
									60:[f1<2.6500001] yes=71,no=72,missing=71
										71:leaf=-0.0136628989
										72:leaf=-0.0663953945
								52:leaf=-0.0682566389
						32:[f0<2.6500001] yes=45,no=46,missing=45
							45:leaf=0.0660227314
							46:[f2<2.6500001] yes=53,no=54,missing=53
								53:leaf=0.0102704652
								54:[f2<7.95000029] yes=61,no=62,missing=61
									61:leaf=-0.0313466154
									62:leaf=-0.0676036552
					22:[f1<13.25] yes=33,no=34,missing=33
						33:[f1<2.6500001] yes=47,no=48,missing=47
							47:leaf=0.0665703639
							48:[f4<3.9749999] yes=55,no=56,missing=55
								55:leaf=-0.0707502514
								56:[f2<7.95000029] yes=63,no=64,missing=63
									63:leaf=0.0331786871
									64:leaf=-0.0608240254
						34:leaf=0.0665703639
				14:[f1<13.25] yes=23,no=24,missing=23
					23:[f0<2.6500001] yes=35,no=36,missing=35
						35:leaf=0.0693220943
						36:[f0<13.25] yes=49,no=50,missing=49
							49:[f2<2.6500001] yes=57,no=58,missing=57
								57:[f0<7.95000029] yes=65,no=66,missing=65
									65:leaf=-0.0110073574
									66:leaf=0.0111905411
								58:[f1<2.6500001] yes=67,no=68,missing=67
									67:leaf=-0.014586105
									68:leaf=-0.0690817609
							50:leaf=0.0690817609
					24:leaf=0.0708351955
booster[9]:
0:[f3<3.9749999] yes=1,no=2,missing=1
	1:leaf=0.0728678927
	2:[f5<3.9749999] yes=3,no=4,missing=3
		3:[f1<13.25] yes=5,no=6,missing=5
			5:[f0<13.25] yes=9,no=10,missing=9
				9:[f2<2.6500001] yes=15,no=16,missing=15
					15:[f4<11.9249992] yes=25,no=26,missing=25
						25:leaf=-0.0661550164
						26:[f3<11.9249992] yes=37,no=38,missing=37
							37:leaf=-0.0569284335
							38:leaf=0.0612494126
					16:leaf=-0.0714594945
				10:[f1<2.6500001] yes=17,no=18,missing=17
					17:leaf=0.0673442408
					18:[f2<2.6500001] yes=27,no=28,missing=27
						27:[f3<11.9249992] yes=39,no=40,missing=39
							39:leaf=-0.0559976287
							40:leaf=-0.0117609426
						28:leaf=-0.0699774921
			6:[f0<13.25] yes=11,no=12,missing=11
				11:[f0<2.6500001] yes=19,no=20,missing=19
					19:leaf=0.0675805658
					20:[f2<2.6500001] yes=29,no=30,missing=29
						29:[f3<11.9249992] yes=41,no=42,missing=41
							41:leaf=-0.0583260059
							42:leaf=-0.00574114826
						30:leaf=-0.0692062452
				12:leaf=0.0675805658
		4:[f5<11.9249992] yes=7,no=8,missing=7
			7:leaf=0.0727393851
			8:[f4<11.9249992] yes=13,no=14,missing=13
				13:[f0<13.25] yes=21,no=22,missing=21
					21:[f1<13.25] yes=31,no=32,missing=31
						31:[f4<3.9749999] yes=43,no=44,missing=43
							43:leaf=-0.0702047199
							44:[f2<2.6500001] yes=51,no=52,missing=51
								51:[f0<2.6500001] yes=59,no=60,missing=59
									59:leaf=0.0617317334
									60:[f0<7.95000029] yes=71,no=72,missing=71
										71:leaf=-0.0596669987
										72:leaf=-0.00864946004
								52:[f3<11.9249992] yes=61,no=62,missing=61
									61:[f2<7.95000029] yes=73,no=74,missing=73
										73:leaf=0.0023682483
										74:leaf=-0.0599957518
									62:leaf=-0.0705351532
						32:[f0<2.6500001] yes=45,no=46,missing=45
							45:leaf=0.0643454418
							46:[f4<3.9749999] yes=53,no=54,missing=53
								53:leaf=-0.0703909844
								54:[f2<7.95000029] yes=63,no=64,missing=63
									63:leaf=0.0382311791
									64:leaf=-0.0590826981
					22:[f1<13.25] yes=33,no=34,missing=33
						33:[f1<2.6500001] yes=47,no=48,missing=47
							47:leaf=0.0648810789
							48:[f4<3.9749999] yes=55,no=56,missing=55
								55:leaf=-0.0687446073
								56:[f2<7.95000029] yes=65,no=66,missing=65
									65:leaf=0.0318981782
									66:leaf=-0.0593137741
						34:leaf=0.0648810789
				14:[f1<13.25] yes=23,no=24,missing=23
					23:[f0<2.6500001] yes=35,no=36,missing=35
						35:leaf=0.0675805658
						36:[f0<13.25] yes=49,no=50,missing=49
							49:[f2<2.6500001] yes=57,no=58,missing=57
								57:[f0<7.95000029] yes=67,no=68,missing=67
									67:leaf=-0.0106187565
									68:leaf=0.0107952869
								58:[f1<2.6500001] yes=69,no=70,missing=69
									69:leaf=-0.0140152713
									70:leaf=-0.0673442408
							50:leaf=0.0673442408
					24:leaf=0.0690711588
booster[10]:
0:[f3<3.9749999] yes=1,no=2,missing=1
	1:leaf=0.0712363422
	2:[f5<3.9749999] yes=3,no=4,missing=3
		3:[f1<13.25] yes=5,no=6,missing=5
			5:[f0<13.25] yes=9,no=10,missing=9
				9:[f2<2.6500001] yes=15,no=16,missing=15
					15:[f4<11.9249992] yes=25,no=26,missing=25
						25:leaf=-0.0645697936
						26:[f3<11.9249992] yes=37,no=38,missing=37
							37:leaf=-0.055551149
							38:leaf=0.0597582124
					16:leaf=-0.0698284432
				10:[f1<2.6500001] yes=17,no=18,missing=17
					17:leaf=0.0657431707
					18:[f4<11.9249992] yes=27,no=28,missing=27
						27:leaf=-0.0692119822
						28:[f3<11.9249992] yes=39,no=40,missing=39
							39:leaf=-0.0557885729
							40:leaf=-0.0127826212
			6:[f0<13.25] yes=11,no=12,missing=11
				11:[f0<2.6500001] yes=19,no=20,missing=19
					19:leaf=0.0659767091
					20:[f2<2.6500001] yes=29,no=30,missing=29
						29:[f3<11.9249992] yes=41,no=42,missing=41
							41:leaf=-0.0568672791
							42:leaf=-0.00553996442
						30:leaf=-0.0675767809
				12:leaf=0.0659767091
		4:[f5<11.9249992] yes=7,no=8,missing=7
			7:leaf=0.0711076558
			8:[f4<11.9249992] yes=13,no=14,missing=13
				13:[f0<13.25] yes=21,no=22,missing=21
					21:[f1<13.25] yes=31,no=32,missing=31
						31:[f4<3.9749999] yes=43,no=44,missing=43
							43:leaf=-0.0685784519
							44:[f2<2.6500001] yes=51,no=52,missing=51
								51:[f0<2.6500001] yes=59,no=60,missing=59
									59:leaf=0.060023915
									60:[f0<7.95000029] yes=71,no=72,missing=71
										71:leaf=-0.0581369102
										72:leaf=-0.00834234431
								52:[f3<11.9249992] yes=61,no=62,missing=61
									61:[f2<7.95000029] yes=73,no=74,missing=73
										73:leaf=0.00227457238
										74:leaf=-0.0585850962
									62:leaf=-0.0685950145
						32:[f0<2.6500001] yes=45,no=46,missing=45
							45:leaf=0.0627898201
							46:[f4<3.9749999] yes=53,no=54,missing=53
								53:leaf=-0.0684537664
								54:[f2<7.95000029] yes=63,no=64,missing=63
									63:leaf=0.0367418714
									64:leaf=-0.0576829612
					22:[f1<13.25] yes=33,no=34,missing=33
						33:[f1<2.6500001] yes=47,no=48,missing=47
							47:leaf=0.0633160397
							48:[f2<2.6500001] yes=55,no=56,missing=55
								55:leaf=0.00365004386
								56:[f2<7.95000029] yes=65,no=66,missing=65
									65:leaf=-0.0300454404
									66:leaf=-0.0640134811
						34:leaf=0.0633160397
				14:[f1<13.25] yes=23,no=24,missing=23
					23:[f0<2.6500001] yes=35,no=36,missing=35
						35:leaf=0.0659767091
						36:[f0<13.25] yes=49,no=50,missing=49
							49:[f0<7.95000029] yes=57,no=58,missing=57
								57:[f2<2.6500001] yes=67,no=68,missing=67
									67:leaf=-0.0102442084
									68:leaf=-0.0700825751
								58:[f1<2.6500001] yes=69,no=70,missing=69
									69:leaf=0.0734204575
									70:leaf=-0.0534773469
							50:leaf=0.0657431707
					24:leaf=0.0674526021
booster[11]:
0:[f3<3.9749999] yes=1,no=2,missing=1
	1:leaf=0.0697510466
	2:[f5<3.9749999] yes=3,no=4,missing=3
		3:[f1<13.25] yes=5,no=6,missing=5
			5:[f0<13.25] yes=9,no=10,missing=9
				9:[f2<2.6500001] yes=15,no=16,missing=15
					15:[f4<11.9249992] yes=25,no=26,missing=25
						25:leaf=-0.0630994514
						26:[f3<11.9249992] yes=37,no=38,missing=37
							37:leaf=-0.0542535894
							38:leaf=0.058362443
					16:leaf=-0.0683363751
				10:[f1<2.6500001] yes=17,no=18,missing=17
					17:leaf=0.0642620549
					18:[f2<2.6500001] yes=27,no=28,missing=27
						27:[f3<11.9249992] yes=39,no=40,missing=39
							39:leaf=-0.0532031432
							40:leaf=-0.00956798345
						28:leaf=-0.0670057014
			6:[f0<13.25] yes=11,no=12,missing=11
				11:[f0<2.6500001] yes=19,no=20,missing=19
					19:leaf=0.0644938275
					20:[f2<2.6500001] yes=29,no=30,missing=29
						29:[f3<11.9249992] yes=41,no=42,missing=41
							41:leaf=-0.0554962121
							42:leaf=-0.0053458265
						30:leaf=-0.0660762489
				12:leaf=0.0644938275
		4:[f5<11.9249992] yes=7,no=8,missing=7
			7:leaf=0.0696214959
			8:[f4<11.9249992] yes=13,no=14,missing=13
				13:[f0<13.25] yes=21,no=22,missing=21
					21:[f1<13.25] yes=31,no=32,missing=31
						31:[f4<3.9749999] yes=43,no=44,missing=43
							43:leaf=-0.0670850947
							44:[f0<2.6500001] yes=51,no=52,missing=51
								51:[f2<2.6500001] yes=59,no=60,missing=59
									59:leaf=0.0584247783
									60:[f3<11.9249992] yes=71,no=72,missing=71
										71:leaf=-0.00307434169
										72:leaf=-0.0595750026
								52:[f1<2.6500001] yes=61,no=62,missing=61
									61:[f0<7.95000029] yes=73,no=74,missing=73
										73:leaf=-0.0623677336
										74:leaf=0.00690742442
									62:leaf=-0.0651707277
						32:[f0<2.6500001] yes=45,no=46,missing=45
							45:leaf=0.0613416694
							46:[f2<2.6500001] yes=53,no=54,missing=53
								53:leaf=0.0106084468
								54:[f2<7.95000029] yes=63,no=64,missing=63
									63:leaf=-0.0294302292
									64:leaf=-0.0628870353
					22:[f1<13.25] yes=33,no=34,missing=33
						33:[f1<2.6500001] yes=47,no=48,missing=47
							47:leaf=0.0618606284
							48:[f4<3.9749999] yes=55,no=56,missing=55
								55:leaf=-0.0660374835
								56:[f2<7.95000029] yes=65,no=66,missing=65
									65:leaf=0.0312958695
									66:leaf=-0.0564341545
						34:leaf=0.0618606284
				14:[f1<13.25] yes=23,no=24,missing=23
					23:[f0<2.6500001] yes=35,no=36,missing=35
						35:leaf=0.0644938275
						36:[f0<13.25] yes=49,no=50,missing=49
							49:[f2<2.6500001] yes=57,no=58,missing=57
								57:[f0<7.95000029] yes=67,no=68,missing=67
									67:leaf=-0.00988317467
									68:leaf=0.0105249183
								58:[f0<7.95000029] yes=69,no=70,missing=69
									69:leaf=-0.0682387576
									70:[f1<7.95000029] yes=75,no=76,missing=75
										75:leaf=0.00836619362
										76:leaf=-0.0487449989
							50:leaf=0.0642620549
					24:leaf=0.0659616515
booster[12]:
0:[f3<3.9749999] yes=1,no=2,missing=1
	1:leaf=0.0683945045
	2:[f5<3.9749999] yes=3,no=4,missing=3
		3:[f1<13.25] yes=5,no=6,missing=5
			5:[f0<13.25] yes=9,no=10,missing=9
				9:[f2<2.6500001] yes=15,no=16,missing=15
					15:[f4<11.9249992] yes=25,no=26,missing=25
						25:leaf=-0.0617306493
						26:[f3<11.9249992] yes=37,no=38,missing=37
							37:leaf=-0.0530278087
							38:leaf=0.0570517741
					16:leaf=-0.0669666752
				10:[f1<2.6500001] yes=17,no=18,missing=17
					17:leaf=0.0628867745
					18:[f4<11.9249992] yes=27,no=28,missing=27
						27:leaf=-0.0663981736
						28:[f3<11.9249992] yes=39,no=40,missing=39
							39:leaf=-0.0531702936
							40:leaf=-0.0105952537
			6:[f0<13.25] yes=11,no=12,missing=11
				11:[f0<2.6500001] yes=19,no=20,missing=19
					19:leaf=0.0631176755
					20:[f4<11.9249992] yes=29,no=30,missing=29
						29:leaf=-0.0663749203
						30:[f3<11.9249992] yes=41,no=42,missing=41
							41:leaf=-0.0541906916
							42:leaf=-0.0144505529
				12:leaf=0.0631176755
		4:[f5<11.9249992] yes=7,no=8,missing=7
			7:leaf=0.0682634935
			8:[f4<11.9249992] yes=13,no=14,missing=13
				13:[f0<13.25] yes=21,no=22,missing=21
					21:[f1<13.25] yes=31,no=32,missing=31
						31:[f4<3.9749999] yes=43,no=44,missing=43
							43:leaf=-0.065708749
							44:[f2<7.95000029] yes=51,no=52,missing=51
								51:[f0<2.6500001] yes=59,no=60,missing=59
									59:[f3<11.9249992] yes=69,no=70,missing=69
										69:leaf=0.0555493943
										70:leaf=-0.00857503153
									60:[f1<2.6500001] yes=71,no=72,missing=71
										71:leaf=-0.00948254857
										72:leaf=-0.0618227683
								52:leaf=-0.0627198219
						32:[f0<2.6500001] yes=45,no=46,missing=45
							45:leaf=0.0599887744
							46:[f4<3.9749999] yes=53,no=54,missing=53
								53:leaf=-0.0659104511
								54:[f2<7.95000029] yes=61,no=62,missing=61
									61:leaf=0.0357370637
									62:leaf=-0.05498714
					22:[f1<13.25] yes=33,no=34,missing=33
						33:[f1<2.6500001] yes=47,no=48,missing=47
							47:leaf=0.0605022907
							48:[f4<3.9749999] yes=55,no=56,missing=55
								55:leaf=-0.0644026697
								56:[f2<7.95000029] yes=63,no=64,missing=63
									63:leaf=0.0301059689
									64:leaf=-0.0551906116
						34:leaf=0.0605022907
				14:[f1<13.25] yes=23,no=24,missing=23
					23:[f0<2.6500001] yes=35,no=36,missing=35
						35:leaf=0.0631176755
						36:[f0<13.25] yes=49,no=50,missing=49
							49:[f2<2.6500001] yes=57,no=58,missing=57
								57:[f0<7.95000029] yes=65,no=66,missing=65
									65:leaf=-0.00953511894
									66:leaf=0.0101538962
								58:[f1<2.6500001] yes=67,no=68,missing=67
									67:leaf=-0.0113450699
									68:leaf=-0.0632864684
							50:leaf=0.0628867745
					24:leaf=0.0645831451
booster[13]:
0:[f3<3.9749999] yes=1,no=2,missing=1
	1:leaf=0.0671519265
	2:[f5<3.9749999] yes=3,no=4,missing=3
		3:[f1<13.25] yes=5,no=6,missing=5
			5:[f0<13.25] yes=9,no=10,missing=9
				9:[f2<2.6500001] yes=15,no=16,missing=15
					15:[f4<11.9249992] yes=25,no=26,missing=25
						25:leaf=-0.0604519024
						26:[f3<11.9249992] yes=37,no=38,missing=37
							37:leaf=-0.0518668778
							38:leaf=0.0558172278
					16:leaf=-0.0657051355
				10:[f1<2.6500001] yes=17,no=18,missing=17
					17:leaf=0.0616052449
					18:[f2<2.6500001] yes=27,no=28,missing=27
						27:[f3<11.9249992] yes=39,no=40,missing=39
							39:leaf=-0.0507172532
							40:leaf=-0.00755286589
						28:leaf=-0.0644680113
			6:[f0<13.25] yes=11,no=12,missing=11
				11:[f0<2.6500001] yes=19,no=20,missing=19
					19:leaf=0.0618360154
					20:[f2<2.6500001] yes=29,no=30,missing=29
						29:[f3<11.9249992] yes=41,no=42,missing=41
							41:leaf=-0.0528187715
							42:leaf=-0.00357912295
						30:leaf=-0.0636101589
				12:leaf=0.0618360154
		4:[f5<11.9249992] yes=7,no=8,missing=7
			7:leaf=0.0670189038
			8:[f4<11.9249992] yes=13,no=14,missing=13
				13:[f0<13.25] yes=21,no=22,missing=21
					21:[f1<13.25] yes=31,no=32,missing=31
						31:[f4<3.9749999] yes=43,no=44,missing=43
							43:leaf=-0.0644358322
							44:[f2<2.6500001] yes=51,no=52,missing=51
								51:[f0<2.6500001] yes=59,no=60,missing=59
									59:leaf=0.0564282127
									60:[f0<7.95000029] yes=71,no=72,missing=71
										71:leaf=-0.0543053411
										72:leaf=-0.00515128346
								52:[f3<11.9249992] yes=61,no=62,missing=61
									61:[f2<7.95000029] yes=73,no=74,missing=73
										73:leaf=0.00366464979
										74:leaf=-0.0553001836
									62:leaf=-0.064771764
						32:[f0<2.6500001] yes=45,no=46,missing=45
							45:leaf=0.0587205961
							46:[f4<3.9749999] yes=53,no=54,missing=53
								53:leaf=-0.0643212348
								54:[f2<7.95000029] yes=63,no=64,missing=63
									63:leaf=0.0343752466
									64:leaf=-0.0538227335
					22:[f1<13.25] yes=33,no=34,missing=33
						33:[f1<2.6500001] yes=47,no=48,missing=47
							47:leaf=0.0592302382
							48:[f4<3.9749999] yes=55,no=56,missing=55
								55:leaf=-0.0628838539
								56:[f2<7.95000029] yes=65,no=66,missing=65
									65:leaf=0.0289711934
									66:leaf=-0.0540153384
						34:leaf=0.0592302382
				14:[f1<13.25] yes=23,no=24,missing=23
					23:[f0<2.6500001] yes=35,no=36,missing=35
						35:leaf=0.0618360154
						36:[f0<13.25] yes=49,no=50,missing=49
							49:[f0<7.95000029] yes=57,no=58,missing=57
								57:[f2<2.6500001] yes=67,no=68,missing=67
									67:leaf=-0.00919954106
									68:leaf=-0.065631628
								58:[f1<2.6500001] yes=69,no=70,missing=69
									69:leaf=0.0705974326
									70:leaf=-0.0506103523
							50:leaf=0.0616052449
					24:leaf=0.0633040741
booster[14]:
0:[f3<3.9749999] yes=1,no=2,missing=1
	1:leaf=0.0660106167
	2:[f5<3.9749999] yes=3,no=4,missing=3
		3:[f1<13.25] yes=5,no=6,missing=5
			5:[f0<13.25] yes=9,no=10,missing=9
				9:[f2<2.6500001] yes=15,no=16,missing=15
					15:[f4<11.9249992] yes=25,no=26,missing=25
						25:leaf=-0.0592532866
						26:[f3<11.9249992] yes=37,no=38,missing=37
							37:leaf=-0.0507646501
							38:leaf=0.0546509735
					16:leaf=-0.0645396113
				10:[f1<2.6500001] yes=17,no=18,missing=17
					17:leaf=0.0604070239
					18:[f4<11.9249992] yes=27,no=28,missing=27
						27:leaf=-0.0639834926
						28:[f3<11.9249992] yes=39,no=40,missing=39
							39:leaf=-0.050829906
							40:leaf=-0.0085734129
			6:[f0<13.25] yes=11,no=12,missing=11
				11:[f0<2.6500001] yes=19,no=20,missing=19
					19:leaf=0.0606383085
					20:[f4<11.9249992] yes=29,no=30,missing=29
						29:leaf=-0.0639377832
						30:[f3<11.9249992] yes=41,no=42,missing=41
							41:leaf=-0.0517847724
							42:leaf=-0.0123754954
				12:leaf=0.0606383085
		4:[f5<11.9249992] yes=7,no=8,missing=7
			7:leaf=0.0658750758
			8:[f4<11.9249992] yes=13,no=14,missing=13
				13:[f0<13.25] yes=21,no=22,missing=21
					21:[f1<13.25] yes=31,no=32,missing=31
						31:[f4<3.9749999] yes=43,no=44,missing=43
							43:leaf=-0.0632546842
							44:[f2<2.6500001] yes=51,no=52,missing=51
								51:[f0<2.6500001] yes=59,no=60,missing=59
									59:leaf=0.0550475679
									60:[f0<7.95000029] yes=71,no=72,missing=71
										71:leaf=-0.0530871116
										72:leaf=-0.00496778404
								52:[f3<11.9249992] yes=61,no=62,missing=61
									61:[f2<7.95000029] yes=73,no=74,missing=73
										73:leaf=0.0035201062
										74:leaf=-0.0541616194
									62:leaf=-0.0632674024
						32:[f0<2.6500001] yes=45,no=46,missing=45
							45:leaf=0.0575279891
							46:[f2<2.6500001] yes=53,no=54,missing=53
								53:leaf=0.0109202582
								54:[f3<11.9249992] yes=63,no=64,missing=63
									63:[f4<3.9749999] yes=75,no=76,missing=75
										75:leaf=-0.0497819744
										76:leaf=-0.00386444782
									64:leaf=-0.0629430488
					22:[f1<13.25] yes=33,no=34,missing=33
						33:[f1<2.6500001] yes=47,no=48,missing=47
							47:leaf=0.0580350645
							48:[f2<2.6500001] yes=55,no=56,missing=55
								55:leaf=0.00540887192
								56:[f3<11.9249992] yes=65,no=66,missing=65
									65:[f4<3.9749999] yes=77,no=78,missing=77
										77:leaf=-0.0496229529
										78:leaf=-0.00441556098
									66:leaf=-0.062810123
						34:leaf=0.0580350645
				14:[f1<13.25] yes=23,no=24,missing=23
					23:[f0<2.6500001] yes=35,no=36,missing=35
						35:leaf=0.0606383085
						36:[f0<13.25] yes=49,no=50,missing=49
							49:[f0<7.95000029] yes=57,no=58,missing=57
								57:[f2<2.6500001] yes=67,no=68,missing=67
									67:leaf=-0.00887596328
									68:leaf=-0.0641233847
								58:[f1<2.6500001] yes=69,no=70,missing=69
									69:leaf=0.0681956336
									70:leaf=-0.0491353683
							50:leaf=0.0604070239
					24:leaf=0.0621132515
booster[15]:
0:[f3<3.9749999] yes=1,no=2,missing=1
	1:leaf=0.0649596974
	2:[f5<3.9749999] yes=3,no=4,missing=3
		3:[f1<13.25] yes=5,no=6,missing=5
			5:[f0<13.25] yes=9,no=10,missing=9
				9:[f2<2.6500001] yes=15,no=16,missing=15
					15:[f4<11.9249992] yes=25,no=26,missing=25
						25:leaf=-0.058126159
						26:[f3<11.9249992] yes=37,no=38,missing=37
							37:leaf=-0.0497157387
							38:leaf=0.0535461493
					16:leaf=-0.063459605
				10:[f1<2.6500001] yes=17,no=18,missing=17
					17:leaf=0.0592830144
					18:[f2<2.6500001] yes=27,no=28,missing=27
						27:[f3<11.9249992] yes=39,no=40,missing=39
							39:leaf=-0.0484798364
							40:leaf=-0.00569468457
						28:leaf=-0.0622744262
			6:[f0<13.25] yes=11,no=12,missing=11
				11:[f0<2.6500001] yes=19,no=20,missing=19
					19:leaf=0.0595153756
					20:[f2<2.6500001] yes=29,no=30,missing=29
						29:[f3<11.9249992] yes=41,no=42,missing=41
							41:leaf=-0.050423719
							42:leaf=-0.00195763819
						30:leaf=-0.0614709966
				12:leaf=0.0595153756
		4:[f5<11.9249992] yes=7,no=8,missing=7
			7:leaf=0.0648211688
			8:[f4<11.9249992] yes=13,no=14,missing=13
				13:[f0<13.25] yes=21,no=22,missing=21
					21:[f1<13.25] yes=31,no=32,missing=31
						31:[f4<3.9749999] yes=43,no=44,missing=43
							43:leaf=-0.0621552169
							44:[f2<7.95000029] yes=51,no=52,missing=51
								51:[f0<2.6500001] yes=59,no=60,missing=59
									59:[f3<11.9249992] yes=69,no=70,missing=69
										69:leaf=0.0531058423
										70:leaf=-0.0073318528
									60:[f1<2.6500001] yes=71,no=72,missing=71
										71:leaf=-0.00687494129
										72:leaf=-0.059533
								52:leaf=-0.0590600558
						32:[f0<2.6500001] yes=45,no=46,missing=45
							45:leaf=0.0564029776
							46:[f4<3.9749999] yes=53,no=54,missing=53
								53:leaf=-0.0620921366
								54:[f2<7.95000029] yes=61,no=62,missing=61
									61:leaf=0.033572264
									62:leaf=-0.0520611182
					22:[f1<13.25] yes=33,no=34,missing=33
						33:[f1<2.6500001] yes=47,no=48,missing=47
							47:leaf=0.0569086187
							48:[f4<3.9749999] yes=55,no=56,missing=55
								55:leaf=-0.0606792979
								56:[f2<7.95000029] yes=63,no=64,missing=63
									63:leaf=0.0285579301
									64:leaf=-0.0522361808
						34:leaf=0.0569086187
				14:[f1<13.25] yes=23,no=24,missing=23
					23:[f0<2.6500001] yes=35,no=36,missing=35
						35:leaf=0.0595153756
						36:[f0<13.25] yes=49,no=50,missing=49
							49:[f0<7.95000029] yes=57,no=58,missing=57
								57:[f2<2.6500001] yes=65,no=66,missing=65
									65:leaf=-0.00856391992
									66:leaf=-0.0627165064
								58:[f1<2.6500001] yes=67,no=68,missing=67
									67:leaf=0.0659849867
									68:leaf=-0.04772719
							50:leaf=0.0592830144
					24:leaf=0.0610009693
booster[16]:
0:[f3<3.9749999] yes=1,no=2,missing=1
	1:leaf=0.0639897659
	2:[f5<3.9749999] yes=3,no=4,missing=3
		3:[f1<13.25] yes=5,no=6,missing=5
			5:[f0<13.25] yes=9,no=10,missing=9
				9:[f2<2.6500001] yes=15,no=16,missing=15
					15:[f4<11.9249992] yes=25,no=26,missing=25
						25:leaf=-0.05706295
						26:[f3<11.9249992] yes=37,no=38,missing=37
							37:leaf=-0.0487153493
							38:leaf=0.0524967425
					16:leaf=-0.0624560118
				10:[f1<2.6500001] yes=17,no=18,missing=17
					17:leaf=0.0582252927
					18:[f4<11.9249992] yes=27,no=28,missing=27
						27:leaf=-0.0618867241
						28:[f3<11.9249992] yes=39,no=40,missing=39
							39:leaf=-0.0487137921
							40:leaf=-0.00669915741
			6:[f0<13.25] yes=11,no=12,missing=11
				11:[f0<2.6500001] yes=19,no=20,missing=19
					19:leaf=0.0584592335
					20:[f2<2.6500001] yes=29,no=30,missing=29
						29:[f3<11.9249992] yes=41,no=42,missing=41
							41:leaf=-0.0493917316
							42:leaf=-0.001888923
						30:leaf=-0.0603998415
				12:leaf=0.0584592335
		4:[f5<11.9249992] yes=7,no=8,missing=7
			7:leaf=0.0638477802
			8:[f4<11.9249992] yes=13,no=14,missing=13
				13:[f0<13.25] yes=21,no=22,missing=21
					21:[f0<2.6500001] yes=31,no=32,missing=31
						31:[f1<13.25] yes=43,no=44,missing=43
							43:[f4<3.9749999] yes=51,no=52,missing=51
								51:leaf=-0.0576636903
								52:[f2<2.6500001] yes=59,no=60,missing=59
									59:leaf=0.053325396
									60:[f3<11.9249992] yes=69,no=70,missing=69
										69:leaf=-0.000342557876
										70:leaf=-0.0538588576
							44:leaf=0.0553385913
						32:[f2<2.6500001] yes=45,no=46,missing=45
							45:[f4<3.9749999] yes=53,no=54,missing=53
								53:leaf=-0.0557234697
								54:[f0<7.95000029] yes=61,no=62,missing=61
									61:leaf=-0.0216975939
									62:leaf=0.0147573175
							46:leaf=-0.0559585765
					22:[f1<13.25] yes=33,no=34,missing=33
						33:[f1<2.6500001] yes=47,no=48,missing=47
							47:leaf=0.055843737
							48:[f2<2.6500001] yes=55,no=56,missing=55
								55:leaf=0.0057916753
								56:[f3<11.9249992] yes=63,no=64,missing=63
									63:[f4<3.9749999] yes=71,no=72,missing=71
										71:leaf=-0.0474436209
										72:leaf=-0.0035430789
									64:leaf=-0.0608573556
						34:leaf=0.055843737
				14:[f1<13.25] yes=23,no=24,missing=23
					23:[f0<2.6500001] yes=35,no=36,missing=35
						35:leaf=0.0584592335
						36:[f0<13.25] yes=49,no=50,missing=49
							49:[f0<7.95000029] yes=57,no=58,missing=57
								57:[f2<2.6500001] yes=65,no=66,missing=65
									65:leaf=-0.00826298539
									66:leaf=-0.0613998063
								58:[f1<2.6500001] yes=67,no=68,missing=67
									67:leaf=0.0639425293
									68:leaf=-0.046379704
							50:leaf=0.0582252927
					24:leaf=0.0599587746
booster[17]:
0:[f3<3.9749999] yes=1,no=2,missing=1
	1:leaf=0.0630926117
	2:[f5<3.9749999] yes=3,no=4,missing=3
		3:[f1<13.25] yes=5,no=6,missing=5
			5:[f0<13.25] yes=9,no=10,missing=9
				9:[f2<2.6500001] yes=15,no=16,missing=15
					15:[f4<11.9249992] yes=25,no=26,missing=25
						25:leaf=-0.0560570545
						26:[f3<11.9249992] yes=39,no=40,missing=39
							39:leaf=-0.0477592461
							40:leaf=0.0514974296
					16:leaf=-0.0615209006
				10:[f1<2.6500001] yes=17,no=18,missing=17
					17:leaf=0.0572269261
					18:[f2<2.6500001] yes=27,no=28,missing=27
						27:[f3<11.9249992] yes=41,no=42,missing=41
							41:leaf=-0.0464449301
							42:leaf=-0.00397706544
						28:leaf=-0.0603569448
			6:[f0<13.25] yes=11,no=12,missing=11
				11:[f0<2.6500001] yes=19,no=20,missing=19
					19:leaf=0.0574628785
					20:[f4<11.9249992] yes=29,no=30,missing=29
						29:leaf=-0.0610189252
						30:[f3<11.9249992] yes=43,no=44,missing=43
							43:leaf=-0.0485410839
							44:leaf=-0.00898205396
				12:leaf=0.0574628785
		4:[f5<11.9249992] yes=7,no=8,missing=7
			7:leaf=0.0629467666
			8:[f4<3.9749999] yes=13,no=14,missing=13
				13:[f0<13.25] yes=21,no=22,missing=21
					21:[f0<2.6500001] yes=31,no=32,missing=31
						31:[f1<13.25] yes=45,no=46,missing=45
							45:leaf=-0.0567103624
							46:leaf=0.0451539941
						32:leaf=-0.0620322824
					22:[f1<13.25] yes=33,no=34,missing=33
						33:[f1<2.6500001] yes=47,no=48,missing=47
							47:leaf=0.0449718088
							48:leaf=-0.0587232411
						34:leaf=0.0449718088
				14:[f1<13.25] yes=23,no=24,missing=23
					23:[f0<13.25] yes=35,no=36,missing=35
						35:[f0<2.6500001] yes=49,no=50,missing=49
							49:[f4<11.9249992] yes=55,no=56,missing=55
								55:[f2<2.6500001] yes=65,no=66,missing=65
									65:leaf=0.052113384
									66:[f3<11.9249992] yes=73,no=74,missing=73
										73:leaf=-0.000329846196
										74:leaf=-0.0527160726
								56:leaf=0.0574628785
							50:[f0<7.95000029] yes=57,no=58,missing=57
								57:[f3<11.9249992] yes=67,no=68,missing=67
									67:leaf=-0.0665729046
									68:[f2<2.6500001] yes=75,no=76,missing=75
										75:leaf=0.00570212957
										76:leaf=-0.0551464632
								58:[f1<2.6500001] yes=69,no=70,missing=69
									69:[f2<7.95000029] yes=77,no=78,missing=77
										77:leaf=0.0564866252
										78:leaf=0.00574755808
									70:leaf=-0.0546603203
						36:[f4<11.9249992] yes=51,no=52,missing=51
							51:[f2<7.95000029] yes=59,no=60,missing=59
								59:[f3<11.9249992] yes=71,no=72,missing=71
									71:leaf=0.0574953072
									72:leaf=0.00976191089
								60:leaf=-0.0199248418
							52:leaf=0.0572269261
					24:[f4<11.9249992] yes=37,no=38,missing=37
						37:[f2<7.95000029] yes=53,no=54,missing=53
							53:[f3<11.9249992] yes=61,no=62,missing=61
								61:leaf=0.0622315519
								62:leaf=0.0184053369
							54:[f3<11.9249992] yes=63,no=64,missing=63
								63:leaf=-0.008441207
								64:leaf=-0.00052411959
						38:leaf=0.058979284
booster[18]:
0:[f3<3.9749999] yes=1,no=2,missing=1
	1:leaf=0.062261112
	2:[f5<3.9749999] yes=3,no=4,missing=3
		3:[f1<13.25] yes=5,no=6,missing=5
			5:[f0<13.25] yes=9,no=10,missing=9
				9:[f2<2.6500001] yes=15,no=16,missing=15
					15:[f4<11.9249992] yes=25,no=26,missing=25
						25:leaf=-0.0551026352
						26:[f3<11.9249992] yes=39,no=40,missing=39
							39:leaf=-0.0468436554
							40:leaf=0.0505435169
					16:leaf=-0.0606473088
				10:[f1<2.6500001] yes=17,no=18,missing=17
					17:leaf=0.056281805
					18:[f2<2.6500001] yes=27,no=28,missing=27
						27:[f3<11.9249992] yes=41,no=42,missing=41
							41:leaf=-0.0455821566
							42:leaf=-0.00383458659
						28:leaf=-0.0593649633
			6:[f0<13.25] yes=11,no=12,missing=11
				11:[f0<2.6500001] yes=19,no=20,missing=19
					19:leaf=0.0565201342
					20:[f2<2.6500001] yes=29,no=30,missing=29
						29:[f3<11.9249992] yes=43,no=44,missing=43
							43:leaf=-0.0473176874
							44:leaf=-0.000438008661
						30:leaf=-0.0586399138
				12:leaf=0.0565201342
		4:[f5<11.9249992] yes=7,no=8,missing=7
			7:leaf=0.0621109791
			8:[f4<3.9749999] yes=13,no=14,missing=13
				13:[f0<13.25] yes=21,no=22,missing=21
					21:[f1<13.25] yes=31,no=32,missing=31
						31:leaf=-0.0593402199
						32:[f0<2.6500001] yes=45,no=46,missing=45
							45:leaf=0.0443399437
							46:leaf=-0.0583869591
					22:[f1<13.25] yes=33,no=34,missing=33
						33:[f1<2.6500001] yes=47,no=48,missing=47
							47:leaf=0.0441643856
							48:leaf=-0.0575653724
						34:leaf=0.0441643856
				14:[f1<13.25] yes=23,no=24,missing=23
					23:[f0<13.25] yes=35,no=36,missing=35
						35:[f0<2.6500001] yes=49,no=50,missing=49
							49:[f4<11.9249992] yes=55,no=56,missing=55
								55:[f2<2.6500001] yes=65,no=66,missing=65
									65:leaf=0.0509610288
									66:[f3<11.9249992] yes=73,no=74,missing=73
										73:leaf=-0.000317605532
										74:leaf=-0.05162872
								56:leaf=0.0565201342
							50:[f0<7.95000029] yes=57,no=58,missing=57
								57:[f3<11.9249992] yes=67,no=68,missing=67
									67:leaf=-0.0650705919
									68:[f2<2.6500001] yes=75,no=76,missing=75
										75:leaf=0.00550026447
										76:leaf=-0.0540624037
								58:[f1<2.6500001] yes=69,no=70,missing=69
									69:[f4<11.9249992] yes=77,no=78,missing=77
										77:leaf=0.0115595153
										78:leaf=0.0610864274
									70:leaf=-0.0533121228
						36:[f4<11.9249992] yes=51,no=52,missing=51
							51:[f1<2.6500001] yes=59,no=60,missing=59
								59:leaf=0.0486997031
								60:[f2<7.95000029] yes=71,no=72,missing=71
									71:leaf=0.0270223301
									72:leaf=-0.0502431057
							52:leaf=0.056281805
					24:[f4<11.9249992] yes=37,no=38,missing=37
						37:[f2<7.95000029] yes=53,no=54,missing=53
							53:[f3<11.9249992] yes=61,no=62,missing=61
								61:leaf=0.0606924407
								62:leaf=0.0177621413
							54:[f3<11.9249992] yes=63,no=64,missing=63
								63:leaf=-0.00813944824
								64:leaf=-0.000504570722
						38:leaf=0.0580560155
booster[19]:
0:[f3<3.9749999] yes=1,no=2,missing=1
	1:leaf=0.0614889748
	2:[f5<3.9749999] yes=3,no=4,missing=3
		3:[f1<13.25] yes=5,no=6,missing=5
			5:[f0<13.25] yes=9,no=10,missing=9
				9:[f2<2.6500001] yes=15,no=16,missing=15
					15:[f4<11.9249992] yes=25,no=26,missing=25
						25:leaf=-0.0541945472
						26:[f3<11.9249992] yes=37,no=38,missing=37
							37:leaf=-0.0459652096
							38:leaf=0.049630858
					16:leaf=-0.0598291047
				10:[f1<2.6500001] yes=17,no=18,missing=17
					17:leaf=0.0553845279
					18:[f4<11.9249992] yes=27,no=28,missing=27
						27:leaf=-0.0593538545
						28:[f3<11.9249992] yes=39,no=40,missing=39
							39:leaf=-0.0458017737
							40:leaf=-0.0034850284
			6:[f0<13.25] yes=11,no=12,missing=11
				11:[f0<2.6500001] yes=19,no=20,missing=19
					19:leaf=0.0556255579
					20:[f4<11.9249992] yes=29,no=30,missing=29
						29:leaf=-0.0592589639
						30:[f3<11.9249992] yes=41,no=42,missing=41
							41:leaf=-0.0466490835
							42:leaf=-0.00726043759
				12:leaf=0.0556255579
		4:[f5<11.9249992] yes=7,no=8,missing=7
			7:leaf=0.0613341443
			8:[f4<11.9249992] yes=13,no=14,missing=13
				13:[f0<13.25] yes=21,no=22,missing=21
					21:[f0<2.6500001] yes=31,no=32,missing=31
						31:[f1<13.25] yes=43,no=44,missing=43
							43:[f4<3.9749999] yes=51,no=52,missing=51
								51:leaf=-0.0548929684
								52:[f2<7.95000029] yes=61,no=62,missing=61
									61:[f3<11.9249992] yes=73,no=74,missing=73
										73:leaf=0.0506928153
										74:leaf=-0.00628084689
									62:leaf=-0.048717916
							44:leaf=0.0532200746
						32:[f2<2.6500001] yes=45,no=46,missing=45
							45:[f1<13.25] yes=53,no=54,missing=53
								53:[f1<2.6500001] yes=63,no=64,missing=63
									63:leaf=-0.011162499
									64:leaf=-0.0528438874
								54:leaf=0.0122647686
							46:[f3<11.9249992] yes=55,no=56,missing=55
								55:[f2<7.95000029] yes=65,no=66,missing=65
									65:[f0<7.95000029] yes=75,no=76,missing=75
										75:leaf=-0.0276741292
										76:leaf=0.00765588833
									66:leaf=-0.0553767942
								56:leaf=-0.0625177994
					22:[f1<13.25] yes=33,no=34,missing=33
						33:[f1<2.6500001] yes=47,no=48,missing=47
							47:leaf=0.0536255911
							48:[f2<2.6500001] yes=57,no=58,missing=57
								57:leaf=0.00672440184
								58:[f3<11.9249992] yes=67,no=68,missing=67
									67:[f4<3.9749999] yes=77,no=78,missing=77
										77:leaf=-0.0444083177
										78:leaf=-0.00313203339
									68:leaf=-0.0587545335
						34:leaf=0.0538427047
				14:[f1<13.25] yes=23,no=24,missing=23
					23:[f0<2.6500001] yes=35,no=36,missing=35
						35:leaf=0.0556255579
						36:[f0<13.25] yes=49,no=50,missing=49
							49:[f3<11.9249992] yes=59,no=60,missing=59
								59:[f1<2.6500001] yes=69,no=70,missing=69
									69:leaf=-0.0155042848
									70:leaf=-0.0603626072
								60:[f2<7.95000029] yes=71,no=72,missing=71
									71:[f0<7.95000029] yes=79,no=80,missing=79
										79:leaf=0.0094652148
										80:leaf=0.0269273613
									72:leaf=-0.0353259817
							50:leaf=0.0553845279
					24:leaf=0.0571832061
booster[20]:
0:[f3<3.9749999] yes=1,no=2,missing=1
	1:leaf=0.0607706793
	2:[f5<3.9749999] yes=3,no=4,missing=3
		3:[f1<13.25] yes=5,no=6,missing=5
			5:[f0<13.25] yes=9,no=10,missing=9
				9:[f2<2.6500001] yes=15,no=16,missing=15
					15:[f4<11.9249992] yes=25,no=26,missing=25
						25:leaf=-0.0533282049
						26:[f3<11.9249992] yes=39,no=40,missing=39
							39:leaf=-0.0451209098
							40:leaf=0.048755724
					16:leaf=-0.0590608679
				10:[f1<2.6500001] yes=17,no=18,missing=17
					17:leaf=0.0545303114
					18:[f2<2.6500001] yes=27,no=28,missing=27
						27:[f3<11.9249992] yes=41,no=42,missing=41
							41:leaf=-0.043779891
							42:leaf=-0.0022839657
						28:leaf=-0.0577717088
			6:[f0<13.25] yes=11,no=12,missing=11
				11:[f0<2.6500001] yes=19,no=20,missing=19
					19:leaf=0.0547743402
					20:[f2<2.6500001] yes=29,no=30,missing=29
						29:[f3<11.9249992] yes=43,no=44,missing=43
							43:leaf=-0.0454163142
							44:leaf=0.000898883154
						30:leaf=-0.0570721291
				12:leaf=0.0547743402
		4:[f5<11.9249992] yes=7,no=8,missing=7
			7:leaf=0.0606107526
			8:[f4<3.9749999] yes=13,no=14,missing=13
				13:[f0<13.25] yes=21,no=22,missing=21
					21:[f0<2.6500001] yes=31,no=32,missing=31
						31:[f1<13.25] yes=45,no=46,missing=45
							45:leaf=-0.054075487
							46:leaf=0.042630583
						32:leaf=-0.059502203
					22:[f1<2.6500001] yes=33,no=34,missing=33
						33:leaf=0.0424575619
						34:[f1<13.25] yes=47,no=48,missing=47
							47:leaf=-0.055910524
							48:leaf=0.0424538366
				14:[f1<13.25] yes=23,no=24,missing=23
					23:[f0<13.25] yes=35,no=36,missing=35
						35:[f0<2.6500001] yes=49,no=50,missing=49
							49:[f4<11.9249992] yes=55,no=56,missing=55
								55:[f2<2.6500001] yes=65,no=66,missing=65
									65:leaf=0.0495179258
									66:[f3<11.9249992] yes=73,no=74,missing=73
										73:leaf=-0.000230410296
										74:leaf=-0.0501525365
								56:leaf=0.0547743402
							50:[f0<7.95000029] yes=57,no=58,missing=57
								57:[f3<11.9249992] yes=67,no=68,missing=67
									67:leaf=-0.0629171357
									68:[f2<2.6500001] yes=75,no=76,missing=75
										75:leaf=0.00588858826
										76:leaf=-0.0525215082
								58:[f1<2.6500001] yes=69,no=70,missing=69
									69:[f2<7.95000029] yes=77,no=78,missing=77
										77:leaf=0.0536758676
										78:leaf=0.00589682627
									70:leaf=-0.0511562414
						36:[f4<11.9249992] yes=51,no=52,missing=51
							51:[f2<2.6500001] yes=59,no=60,missing=59
								59:leaf=0.053040605
								60:[f1<2.6500001] yes=71,no=72,missing=71
									71:leaf=0.0431997739
									72:[f3<11.9249992] yes=79,no=80,missing=79
										79:leaf=-0.00302192359
										80:leaf=-0.0544360057
							52:leaf=0.0545303114
					24:[f4<11.9249992] yes=37,no=38,missing=37
						37:[f2<7.95000029] yes=53,no=54,missing=53
							53:[f3<11.9249992] yes=61,no=62,missing=61
								61:leaf=0.0589862354
								62:leaf=0.0170394685
							54:[f3<11.9249992] yes=63,no=64,missing=63
								63:leaf=-0.00766659901
								64:leaf=-0.000315720739
						38:leaf=0.0563557856
booster[21]:
0:[f3<3.9749999] yes=1,no=2,missing=1
	1:leaf=0.0601013303
	2:[f5<3.9749999] yes=3,no=4,missing=3
		3:[f1<13.25] yes=5,no=6,missing=5
			5:[f0<13.25] yes=9,no=10,missing=9
				9:[f2<2.6500001] yes=15,no=16,missing=15
					15:[f4<11.9249992] yes=25,no=26,missing=25
						25:leaf=-0.0524995625
						26:[f3<11.9249992] yes=39,no=40,missing=39
							39:leaf=-0.0443080664
							40:leaf=0.0479148477
					16:leaf=-0.0583377667
				10:[f1<2.6500001] yes=17,no=18,missing=17
					17:leaf=0.0537149087
					18:[f4<11.9249992] yes=27,no=28,missing=27
						27:leaf=-0.0578044914
						28:[f3<11.9249992] yes=41,no=42,missing=41
							41:leaf=-0.0440904871
							42:leaf=-0.00194304425
			6:[f0<13.25] yes=11,no=12,missing=11
				11:[f0<2.6500001] yes=19,no=20,missing=19
					19:leaf=0.0539621599
					20:[f4<11.9249992] yes=29,no=30,missing=29
						29:leaf=-0.0576883741
						30:[f3<11.9249992] yes=43,no=44,missing=43
							43:leaf=-0.0449005254
							44:leaf=-0.00565365097
				12:leaf=0.0539621599
		4:[f5<11.9249992] yes=7,no=8,missing=7
			7:leaf=0.0599359162
			8:[f4<3.9749999] yes=13,no=14,missing=13
				13:[f0<13.25] yes=21,no=22,missing=21
					21:[f0<2.6500001] yes=31,no=32,missing=31
						31:[f1<7.95000029] yes=45,no=46,missing=45
							45:leaf=-0.0495797805
							46:leaf=-0.00429924252
						32:leaf=-0.058606904
					22:[f2<7.95000029] yes=33,no=34,missing=33
						33:leaf=-0.0212399494
						34:[f3<11.9249992] yes=47,no=48,missing=47
							47:leaf=0.000966495194
							48:leaf=0.0077644675
				14:[f1<13.25] yes=23,no=24,missing=23
					23:[f0<13.25] yes=35,no=36,missing=35
						35:[f0<2.6500001] yes=49,no=50,missing=49
							49:[f4<11.9249992] yes=55,no=56,missing=55
								55:[f2<7.95000029] yes=63,no=64,missing=63
									63:[f3<11.9249992] yes=73,no=74,missing=73
										73:leaf=0.0493010618
										74:leaf=-0.00583232474
									64:leaf=-0.0474775024
								56:leaf=0.0539621599
							50:[f0<7.95000029] yes=57,no=58,missing=57
								57:[f3<11.9249992] yes=65,no=66,missing=65
									65:leaf=-0.0616514087
									66:[f2<2.6500001] yes=75,no=76,missing=75
										75:leaf=0.00568039995
										76:leaf=-0.0515585914
								58:[f1<2.6500001] yes=67,no=68,missing=67
									67:[f4<11.9249992] yes=77,no=78,missing=77
										77:leaf=0.0110658547
										78:leaf=0.0586797409
									68:leaf=-0.0499576032
						36:[f4<11.9249992] yes=51,no=52,missing=51
							51:[f2<7.95000029] yes=59,no=60,missing=59
								59:[f3<11.9249992] yes=69,no=70,missing=69
									69:leaf=0.0546544082
									70:leaf=0.00820471812
								60:leaf=-0.0191285014
							52:leaf=0.0537149087
					24:[f4<11.9249992] yes=37,no=38,missing=37
						37:[f2<2.6500001] yes=53,no=54,missing=53
							53:leaf=0.0557124205
							54:[f0<13.25] yes=61,no=62,missing=61
								61:[f3<11.9249992] yes=71,no=72,missing=71
									71:leaf=0.0089494409
									72:leaf=-0.0267477073
								62:leaf=0.0435174815
						38:leaf=0.0555692278
booster[22]:
0:[f3<3.9749999] yes=1,no=2,missing=1
	1:leaf=0.0594765805
	2:[f5<3.9749999] yes=3,no=4,missing=3
		3:[f1<13.25] yes=5,no=6,missing=5
			5:[f0<13.25] yes=9,no=10,missing=9
				9:[f2<2.6500001] yes=15,no=16,missing=15
					15:[f4<11.9249992] yes=25,no=26,missing=25
						25:leaf=-0.0517049991
						26:[f3<11.9249992] yes=39,no=40,missing=39
							39:leaf=-0.0435242765
							40:leaf=0.0471053086
					16:leaf=-0.0576555207
				10:[f1<2.6500001] yes=17,no=18,missing=17
					17:leaf=0.0529345088
					18:[f2<2.6500001] yes=27,no=28,missing=27
						27:leaf=-0.0228269324
						28:leaf=-0.0563432463
			6:[f0<13.25] yes=11,no=12,missing=11
				11:[f0<2.6500001] yes=19,no=20,missing=19
					19:leaf=0.0531852134
					20:[f2<2.6500001] yes=29,no=30,missing=29
						29:[f3<11.9249992] yes=41,no=42,missing=41
							41:leaf=-0.0436589904
							42:leaf=0.00213112752
						30:leaf=-0.0556620434
				12:leaf=0.0531852134
		4:[f5<11.9249992] yes=7,no=8,missing=7
			7:leaf=0.0593052581
			8:[f4<3.9749999] yes=13,no=14,missing=13
				13:[f0<13.25] yes=21,no=22,missing=21
					21:[f1<13.25] yes=31,no=32,missing=31
						31:leaf=-0.0564498492
						32:[f0<7.95000029] yes=43,no=44,missing=43
							43:leaf=-0.00482519669
							44:leaf=-0.0485599637
					22:[f2<7.95000029] yes=33,no=34,missing=33
						33:leaf=-0.0204296764
						34:[f3<11.9249992] yes=45,no=46,missing=45
							45:leaf=0.000931676768
							46:leaf=0.00749980658
				14:[f1<13.25] yes=23,no=24,missing=23
					23:[f0<13.25] yes=35,no=36,missing=35
						35:[f0<2.6500001] yes=47,no=48,missing=47
							47:[f4<11.9249992] yes=53,no=54,missing=53
								53:[f2<7.95000029] yes=61,no=62,missing=61
									61:[f3<11.9249992] yes=71,no=72,missing=71
										71:leaf=0.0483210422
										72:leaf=-0.0056325607
									62:leaf=-0.0466505513
								54:leaf=0.0531852134
							48:[f0<7.95000029] yes=55,no=56,missing=55
								55:[f3<11.9249992] yes=63,no=64,missing=63
									63:leaf=-0.0604606457
									64:[f2<2.6500001] yes=73,no=74,missing=73
										73:leaf=0.0054797302
										74:leaf=-0.0506363809
								56:[f1<2.6500001] yes=65,no=66,missing=65
									65:[f4<11.9249992] yes=75,no=76,missing=75
										75:leaf=0.0106274281
										76:leaf=0.057142891
									66:leaf=-0.04880419
						36:[f4<11.9249992] yes=49,no=50,missing=49
							49:[f2<2.6500001] yes=57,no=58,missing=57
								57:leaf=0.0512946732
								58:[f1<2.6500001] yes=67,no=68,missing=67
									67:leaf=0.0425145738
									68:[f3<11.9249992] yes=77,no=78,missing=77
										77:leaf=-0.00329595222
										78:leaf=-0.0532162748
							50:leaf=0.0529345088
					24:[f4<11.9249992] yes=37,no=38,missing=37
						37:[f2<2.6500001] yes=51,no=52,missing=51
							51:leaf=0.0545220263
							52:[f0<13.25] yes=59,no=60,missing=59
								59:[f3<11.9249992] yes=69,no=70,missing=69
									69:leaf=0.00860515144
									70:leaf=-0.0257479157
								60:leaf=0.0427605882
						38:leaf=0.0548194945
booster[23]:
0:[f3<3.9749999] yes=1,no=2,missing=1
	1:leaf=0.0588925295
	2:[f5<3.9749999] yes=3,no=4,missing=3
		3:[f1<13.25] yes=5,no=6,missing=5
			5:[f0<13.25] yes=9,no=10,missing=9
				9:[f2<2.6500001] yes=15,no=16,missing=15
					15:[f4<11.9249992] yes=25,no=26,missing=25
						25:leaf=-0.0509412698
						26:[f3<11.9249992] yes=37,no=38,missing=37
							37:leaf=-0.042767372
							38:leaf=0.0463244468
					16:leaf=-0.0570102707
				10:[f1<2.6500001] yes=17,no=18,missing=17
					17:leaf=0.0521857403
					18:[f4<11.9249992] yes=27,no=28,missing=27
						27:leaf=-0.0563480929
						28:[f3<11.9249992] yes=39,no=40,missing=39
							39:leaf=-0.0425999723
							40:leaf=-0.000230884762
			6:[f0<13.25] yes=11,no=12,missing=11
				11:[f0<2.6500001] yes=19,no=20,missing=19
					19:leaf=0.0524400659
					20:[f4<11.9249992] yes=29,no=30,missing=29
						29:leaf=-0.0562731884
						30:[f3<11.9249992] yes=41,no=42,missing=41
							41:leaf=-0.0432721786
							42:leaf=-0.00415371871
				12:leaf=0.0524400659
		4:[f5<11.9249992] yes=7,no=8,missing=7
			7:leaf=0.0587149225
			8:[f4<11.9249992] yes=13,no=14,missing=13
				13:[f1<13.25] yes=21,no=22,missing=21
					21:[f0<13.25] yes=31,no=32,missing=31
						31:[f2<7.95000029] yes=43,no=44,missing=43
							43:[f4<3.9749999] yes=51,no=52,missing=51
								51:leaf=-0.051969476
								52:[f0<2.6500001] yes=59,no=60,missing=59
									59:[f3<11.9249992] yes=69,no=70,missing=69
										69:leaf=0.0473825037
										70:leaf=-0.00543964235
									60:[f0<7.95000029] yes=71,no=72,missing=71
										71:leaf=-0.0548866875
										72:leaf=-0.00532181794
							44:leaf=-0.0567921065
						32:[f1<2.6500001] yes=45,no=46,missing=45
							45:leaf=0.0516052246
							46:[f4<3.9749999] yes=53,no=54,missing=53
								53:leaf=-0.0544704795
								54:[f2<7.95000029] yes=61,no=62,missing=61
									61:leaf=0.0254401304
									62:leaf=-0.0475498177
					22:[f0<13.25] yes=33,no=34,missing=33
						33:[f0<2.6500001] yes=47,no=48,missing=47
							47:leaf=0.0518270507
							48:[f2<2.6500001] yes=55,no=56,missing=55
								55:leaf=0.0113115208
								56:[f3<11.9249992] yes=63,no=64,missing=63
									63:leaf=-0.0238991547
									64:leaf=-0.0565991364
						34:leaf=0.0516875386
				14:[f1<13.25] yes=23,no=24,missing=23
					23:[f0<2.6500001] yes=35,no=36,missing=35
						35:leaf=0.0524400659
						36:[f0<13.25] yes=49,no=50,missing=49
							49:[f2<2.6500001] yes=57,no=58,missing=57
								57:[f0<7.95000029] yes=65,no=66,missing=65
									65:leaf=-0.00107055937
									66:leaf=0.0132313771
								58:[f1<2.6500001] yes=67,no=68,missing=67
									67:leaf=-0.00563103287
									68:leaf=-0.0529480986
							50:leaf=0.0521857403
					24:leaf=0.0541029759
booster[24]:
0:[f3<3.9749999] yes=1,no=2,missing=1
	1:leaf=0.0583457425
	2:[f5<3.9749999] yes=3,no=4,missing=3
		3:[f1<13.25] yes=5,no=6,missing=5
			5:[f0<13.25] yes=9,no=10,missing=9
				9:[f2<2.6500001] yes=15,no=16,missing=15
					15:[f4<11.9249992] yes=25,no=26,missing=25
						25:leaf=-0.0502054952
						26:leaf=0.00820384268
					16:leaf=-0.0563985594
				10:[f1<2.6500001] yes=17,no=18,missing=17
					17:leaf=0.0514655486
					18:[f2<2.6500001] yes=27,no=28,missing=27
						27:leaf=-0.0207088832
						28:leaf=-0.0550519489
			6:[f0<13.25] yes=11,no=12,missing=11
				11:[f0<2.6500001] yes=19,no=20,missing=19
					19:leaf=0.051723659
					20:[f2<2.6500001] yes=29,no=30,missing=29
						29:leaf=-0.0215747785
						30:leaf=-0.0543821119
				12:leaf=0.051723659
		4:[f5<11.9249992] yes=7,no=8,missing=7
			7:leaf=0.0581614263
			8:[f4<3.9749999] yes=13,no=14,missing=13
				13:[f0<13.25] yes=21,no=22,missing=21
					21:[f0<2.6500001] yes=31,no=32,missing=31
						31:[f1<7.95000029] yes=39,no=40,missing=39
							39:leaf=-0.0472213849
							40:leaf=-0.00270077912
						32:leaf=-0.0567116328
					22:[f2<7.95000029] yes=33,no=34,missing=33
						33:leaf=-0.0193068162
						34:[f3<11.9249992] yes=41,no=42,missing=41
							41:leaf=0.000940404658
							42:leaf=0.00715590129
				14:[f1<13.25] yes=23,no=24,missing=23
					23:[f0<13.25] yes=35,no=36,missing=35
						35:[f0<2.6500001] yes=43,no=44,missing=43
							43:[f4<11.9249992] yes=49,no=50,missing=49
								49:[f2<7.95000029] yes=59,no=60,missing=59
									59:[f3<11.9249992] yes=67,no=68,missing=67
										67:leaf=0.0464820713
										68:leaf=-0.00525332754
									60:leaf=-0.044901751
								50:leaf=0.051723659
							44:[f0<7.95000029] yes=51,no=52,missing=51
								51:[f3<11.9249992] yes=61,no=62,missing=61
									61:leaf=-0.0588402525
									62:[f2<2.6500001] yes=69,no=70,missing=69
										69:leaf=0.00638058549
										70:leaf=-0.0491194613
								52:[f1<2.6500001] yes=63,no=64,missing=63
									63:[f2<7.95000029] yes=71,no=72,missing=71
										71:leaf=0.0500024557
										72:leaf=0.00460365368
									64:leaf=-0.0472334959
						36:[f4<11.9249992] yes=45,no=46,missing=45
							45:[f2<2.6500001] yes=53,no=54,missing=53
								53:leaf=0.0495305955
								54:[f3<11.9249992] yes=65,no=66,missing=65
									65:leaf=0.011394185
									66:leaf=-0.0258449465
							46:leaf=0.0514655486
					24:[f4<11.9249992] yes=37,no=38,missing=37
						37:[f2<7.95000029] yes=47,no=48,missing=47
							47:[f3<11.9249992] yes=55,no=56,missing=55
								55:leaf=0.0562677346
								56:leaf=0.0150658851
							48:[f3<11.9249992] yes=57,no=58,missing=57
								57:leaf=-0.00913625676
								58:leaf=0.000467037637
						38:leaf=0.0534164272
booster[25]:
0:[f3<3.9749999] yes=1,no=2,missing=1
	1:leaf=0.0578330718
	2:[f5<3.9749999] yes=3,no=4,missing=3
		3:[f1<13.25] yes=5,no=6,missing=5
			5:[f0<13.25] yes=9,no=10,missing=9
				9:[f2<2.6500001] yes=15,no=16,missing=15
					15:[f4<11.9249992] yes=25,no=26,missing=25
						25:leaf=-0.0494950823
						26:leaf=0.007871137
					16:leaf=-0.0558172576
				10:[f1<2.6500001] yes=17,no=18,missing=17
					17:leaf=0.0507712252
					18:[f4<11.9249992] yes=27,no=28,missing=27
						27:leaf=-0.0550238304
						28:[f3<11.9249992] yes=37,no=38,missing=37
							37:leaf=-0.041205477
							38:leaf=0.00136957422
			6:[f0<13.25] yes=11,no=12,missing=11
				11:[f0<2.6500001] yes=19,no=20,missing=19
					19:leaf=0.0510332286
					20:[f2<2.6500001] yes=29,no=30,missing=29
						29:leaf=-0.0208485108
						30:leaf=-0.053683389
				12:leaf=0.0510332286
		4:[f5<11.9249992] yes=7,no=8,missing=7
			7:leaf=0.0576416366
			8:[f4<11.9249992] yes=13,no=14,missing=13
				13:[f1<13.25] yes=21,no=22,missing=21
					21:[f0<13.25] yes=31,no=32,missing=31
						31:[f2<2.6500001] yes=39,no=40,missing=39
							39:[f0<2.6500001] yes=47,no=48,missing=47
								47:leaf=0.0132886162
								48:[f1<2.6500001] yes=57,no=58,missing=57
									57:leaf=-0.00699581578
									58:leaf=-0.0485542826
							40:[f3<11.9249992] yes=49,no=50,missing=49
								49:[f2<7.95000029] yes=59,no=60,missing=59
									59:[f0<2.6500001] yes=69,no=70,missing=69
										69:leaf=0.0128459511
										70:leaf=-0.0233321581
									60:leaf=-0.0517962538
								50:leaf=-0.0572866313
						32:[f1<2.6500001] yes=41,no=42,missing=41
							41:leaf=0.0507741831
							42:[f2<2.6500001] yes=51,no=52,missing=51
								51:leaf=0.00580071425
								52:[f2<7.95000029] yes=61,no=62,missing=61
									61:leaf=-0.020961253
									62:leaf=-0.0521268062
					22:[f0<13.25] yes=33,no=34,missing=33
						33:[f0<2.6500001] yes=43,no=44,missing=43
							43:leaf=0.0508609489
							44:[f2<2.6500001] yes=53,no=54,missing=53
								53:leaf=0.0111298477
								54:[f3<11.9249992] yes=63,no=64,missing=63
									63:leaf=-0.0228608456
									64:leaf=-0.0553932749
						34:leaf=0.050785955
				14:[f1<13.25] yes=23,no=24,missing=23
					23:[f0<2.6500001] yes=35,no=36,missing=35
						35:leaf=0.0510332286
						36:[f0<13.25] yes=45,no=46,missing=45
							45:[f2<2.6500001] yes=55,no=56,missing=55
								55:[f0<7.95000029] yes=65,no=66,missing=65
									65:leaf=6.28215857e-05
									66:leaf=0.0132754371
								56:[f1<2.6500001] yes=67,no=68,missing=67
									67:leaf=-0.00453807786
									68:leaf=-0.0515006147
							46:leaf=0.0507712252
					24:leaf=0.0527569242
booster[26]:
0:[f3<3.9749999] yes=1,no=2,missing=1
	1:leaf=0.057351727
	2:[f5<3.9749999] yes=3,no=4,missing=3
		3:[f1<13.25] yes=5,no=6,missing=5
			5:[f0<13.25] yes=9,no=10,missing=9
				9:[f2<2.6500001] yes=15,no=16,missing=15
					15:[f3<11.9249992] yes=25,no=26,missing=25
						25:leaf=-0.0499748401
						26:[f4<11.9249992] yes=39,no=40,missing=39
							39:leaf=-0.0405977778
							40:leaf=0.0453110524
					16:leaf=-0.0552635752
				10:[f1<2.6500001] yes=17,no=18,missing=17
					17:leaf=0.0501002967
					18:[f2<2.6500001] yes=27,no=28,missing=27
						27:leaf=-0.0187036172
						28:leaf=-0.053874325
			6:[f0<13.25] yes=11,no=12,missing=11
				11:[f0<2.6500001] yes=19,no=20,missing=19
					19:leaf=0.0503663123
					20:[f4<11.9249992] yes=29,no=30,missing=29
						29:leaf=-0.0543963574
						30:[f3<11.9249992] yes=41,no=42,missing=41
							41:leaf=-0.0412268341
							42:leaf=-0.000895609264
				12:leaf=0.0503663123
		4:[f5<11.9249992] yes=7,no=8,missing=7
			7:leaf=0.0571527444
			8:[f4<3.9749999] yes=13,no=14,missing=13
				13:[f1<13.25] yes=21,no=22,missing=21
					21:[f1<2.6500001] yes=31,no=32,missing=31
						31:[f0<7.95000029] yes=43,no=44,missing=43
							43:leaf=-0.0466712043
							44:leaf=0.00250107632
						32:leaf=-0.0560774878
					22:[f2<7.95000029] yes=33,no=34,missing=33
						33:[f0<7.95000029] yes=45,no=46,missing=45
							45:leaf=-0.00487408508
							46:leaf=-0.019549517
						34:[f0<7.95000029] yes=47,no=48,missing=47
							47:leaf=-0.00215081219
							48:leaf=0.00398952002
				14:[f1<13.25] yes=23,no=24,missing=23
					23:[f0<13.25] yes=35,no=36,missing=35
						35:[f0<2.6500001] yes=49,no=50,missing=49
							49:[f4<11.9249992] yes=55,no=56,missing=55
								55:[f2<7.95000029] yes=65,no=66,missing=65
									65:[f3<11.9249992] yes=71,no=72,missing=71
										71:leaf=0.045377776
										72:leaf=-0.00417279033
									66:leaf=-0.0432886668
								56:leaf=0.0503663123
							50:[f0<7.95000029] yes=57,no=58,missing=57
								57:[f3<11.9249992] yes=67,no=68,missing=67
									67:leaf=-0.0575288013
									68:[f2<2.6500001] yes=73,no=74,missing=73
										73:leaf=0.00678973785
										74:leaf=-0.04770061
								58:[f1<2.6500001] yes=69,no=70,missing=69
									69:[f4<11.9249992] yes=75,no=76,missing=75
										75:leaf=0.0112734828
										76:leaf=0.0549963005
									70:leaf=-0.0455073193
						36:[f4<11.9249992] yes=51,no=52,missing=51
							51:[f2<7.95000029] yes=59,no=60,missing=59
								59:leaf=0.0320174843
								60:leaf=-0.0177705158
							52:leaf=0.0501002967
					24:[f4<11.9249992] yes=37,no=38,missing=37
						37:[f2<7.95000029] yes=53,no=54,missing=53
							53:[f3<11.9249992] yes=61,no=62,missing=61
								61:leaf=0.0550464764
								62:leaf=0.0144770909
							54:[f3<11.9249992] yes=63,no=64,missing=63
								63:leaf=-0.00919664837
								64:leaf=0.000529833545
						38:leaf=0.0521218181
booster[27]:
0:[f3<3.9749999] yes=1,no=2,missing=1
	1:leaf=0.056899149
	2:[f5<3.9749999] yes=3,no=4,missing=3
		3:[f1<13.25] yes=5,no=6,missing=5
			5:[f0<13.25] yes=9,no=10,missing=9
				9:[f2<2.6500001] yes=15,no=16,missing=15
					15:[f3<11.9249992] yes=25,no=26,missing=25
						25:leaf=-0.0492345132
						26:[f4<11.9249992] yes=39,no=40,missing=39
							39:leaf=-0.0399810709
							40:leaf=0.044588875
					16:leaf=-0.0547349155
				10:[f1<2.6500001] yes=17,no=18,missing=17
					17:leaf=0.0494505577
					18:[f4<11.9249992] yes=27,no=28,missing=27
						27:leaf=-0.053809166
						28:leaf=-0.0190547425
			6:[f0<13.25] yes=11,no=12,missing=11
				11:[f0<2.6500001] yes=19,no=20,missing=19
					19:leaf=0.0497206636
					20:[f2<2.6500001] yes=29,no=30,missing=29
						29:leaf=-0.0188675672
						30:leaf=-0.0525627397
				12:leaf=0.0497206636
		4:[f5<11.9249992] yes=7,no=8,missing=7
			7:leaf=0.0566922016
			8:[f4<3.9749999] yes=13,no=14,missing=13
				13:[f0<13.25] yes=21,no=22,missing=21
					21:[f0<2.6500001] yes=31,no=32,missing=31
						31:[f1<7.95000029] yes=41,no=42,missing=41
							41:leaf=-0.0454203188
							42:leaf=-0.00173476234
						32:leaf=-0.0553604029
					22:[f2<7.95000029] yes=33,no=34,missing=33
						33:leaf=-0.0178940315
						34:[f3<11.9249992] yes=43,no=44,missing=43
							43:leaf=0.00184626679
							44:leaf=0.00761181954
				14:[f1<13.25] yes=23,no=24,missing=23
					23:[f0<13.25] yes=35,no=36,missing=35
						35:[f0<2.6500001] yes=45,no=46,missing=45
							45:[f4<11.9249992] yes=51,no=52,missing=51
								51:[f2<7.95000029] yes=59,no=60,missing=59
									59:[f3<11.9249992] yes=67,no=68,missing=67
										67:leaf=0.0445535332
										68:leaf=-0.00403023511
									60:leaf=-0.0425986126
								52:leaf=0.0497206636
							46:[f0<7.95000029] yes=53,no=54,missing=53
								53:[f3<11.9249992] yes=61,no=62,missing=61
									61:leaf=-0.0565574169
									62:[f2<2.6500001] yes=69,no=70,missing=69
										69:leaf=0.00654973835
										70:leaf=-0.0469209515
								54:[f1<2.6500001] yes=63,no=64,missing=63
									63:[f2<7.95000029] yes=71,no=72,missing=71
										71:leaf=0.0480023324
										72:leaf=0.00446161535
									64:leaf=-0.0444968343
						36:[f4<11.9249992] yes=47,no=48,missing=47
							47:[f1<2.6500001] yes=55,no=56,missing=55
								55:leaf=0.0434461497
								56:[f2<7.95000029] yes=65,no=66,missing=65
									65:leaf=0.0232455395
									66:leaf=-0.045464132
							48:leaf=0.0494505577
					24:[f4<11.9249992] yes=37,no=38,missing=37
						37:[f2<2.6500001] yes=49,no=50,missing=49
							49:leaf=0.0512292795
							50:[f3<11.9249992] yes=57,no=58,missing=57
								57:leaf=0.0177135449
								58:leaf=-0.00902077463
						38:leaf=0.0515087619
booster[28]:
0:[f3<3.9749999] yes=1,no=2,missing=1
	1:leaf=0.0564730726
	2:[f5<3.9749999] yes=3,no=4,missing=3
		3:[f1<13.25] yes=5,no=6,missing=5
			5:[f0<13.25] yes=9,no=10,missing=9
				9:[f2<2.6500001] yes=15,no=16,missing=15
					15:[f3<11.9249992] yes=25,no=26,missing=25
						25:leaf=-0.0485186502
						26:[f4<11.9249992] yes=39,no=40,missing=39
							39:leaf=-0.0393791683
							40:leaf=0.0438884459
					16:leaf=-0.0542289615
				10:[f1<2.6500001] yes=17,no=18,missing=17
					17:leaf=0.0488200486
					18:[f2<2.6500001] yes=27,no=28,missing=27
						27:leaf=-0.0167162381
						28:leaf=-0.0527460948
			6:[f0<13.25] yes=11,no=12,missing=11
				11:[f0<2.6500001] yes=19,no=20,missing=19
					19:leaf=0.0490942635
					20:[f4<11.9249992] yes=29,no=30,missing=29
						29:leaf=-0.0531906486
						30:leaf=-0.0201024786
				12:leaf=0.0490942635
		4:[f5<11.9249992] yes=7,no=8,missing=7
			7:leaf=0.056257695
			8:[f4<3.9749999] yes=13,no=14,missing=13
				13:[f1<13.25] yes=21,no=22,missing=21
					21:[f1<2.6500001] yes=31,no=32,missing=31
						31:[f0<7.95000029] yes=41,no=42,missing=41
							41:leaf=-0.0453478657
							42:leaf=0.00355210016
						32:leaf=-0.0551098473
					22:[f2<7.95000029] yes=33,no=34,missing=33
						33:leaf=-0.0129232919
						34:leaf=0.00228827749
				14:[f1<13.25] yes=23,no=24,missing=23
					23:[f0<13.25] yes=35,no=36,missing=35
						35:[f0<2.6500001] yes=43,no=44,missing=43
							43:[f4<11.9249992] yes=49,no=50,missing=49
								49:[f2<7.95000029] yes=59,no=60,missing=59
									59:[f3<11.9249992] yes=67,no=68,missing=67
										67:leaf=0.0437585972
										68:leaf=-0.00389253884
									60:leaf=-0.0419280119
								50:leaf=0.0490942635
							44:[f0<7.95000029] yes=51,no=52,missing=51
								51:[f2<2.6500001] yes=61,no=62,missing=61
									61:[f3<11.9249992] yes=69,no=70,missing=69
										69:leaf=-0.0472277328
										70:leaf=0.00631843507
									62:leaf=-0.0543588772
								52:[f1<2.6500001] yes=63,no=64,missing=63
									63:[f4<11.9249992] yes=71,no=72,missing=71
										71:leaf=0.00957557
										72:leaf=0.0530731753
									64:leaf=-0.0435139649
						36:[f4<11.9249992] yes=45,no=46,missing=45
							45:[f1<2.6500001] yes=53,no=54,missing=53
								53:leaf=0.0427525006
								54:[f2<7.95000029] yes=65,no=66,missing=65
									65:leaf=0.0224084817
									66:leaf=-0.0447072424
							46:leaf=0.0488200486
					24:[f4<11.9249992] yes=37,no=38,missing=37
						37:[f2<7.95000029] yes=47,no=48,missing=47
							47:[f3<11.9249992] yes=55,no=56,missing=55
								55:leaf=0.0532773845
								56:leaf=0.0133257974
							48:[f3<11.9249992] yes=57,no=58,missing=57
								57:leaf=-0.00949349161
								58:leaf=0.000837277097
						38:leaf=0.0509155691
booster[29]:
0:[f3<3.9749999] yes=1,no=2,missing=1
	1:leaf=0.0560713895
	2:[f5<3.9749999] yes=3,no=4,missing=3
		3:[f1<13.25] yes=5,no=6,missing=5
			5:[f0<13.25] yes=9,no=10,missing=9
				9:[f2<2.6500001] yes=15,no=16,missing=15
					15:[f3<11.9249992] yes=25,no=26,missing=25
						25:leaf=-0.047825098
						26:[f0<2.6500001] yes=37,no=38,missing=37
							37:leaf=-0.00687341345
							38:leaf=0.0170816705
					16:leaf=-0.0537435897
				10:[f1<2.6500001] yes=17,no=18,missing=17
					17:leaf=0.0482069366
					18:[f2<2.6500001] yes=27,no=28,missing=27
						27:leaf=-0.0161504112
						28:leaf=-0.0521157272
			6:[f0<13.25] yes=11,no=12,missing=11
				11:[f0<2.6500001] yes=19,no=20,missing=19
					19:leaf=0.0484853201
					20:[f2<2.6500001] yes=29,no=30,missing=29
						29:leaf=-0.0169097856
						30:leaf=-0.0514870659
				12:leaf=0.0484853201
		4:[f5<11.9249992] yes=7,no=8,missing=7
			7:leaf=0.0558471382
			8:[f4<11.9249992] yes=13,no=14,missing=13
				13:[f0<13.25] yes=21,no=22,missing=21
					21:[f0<2.6500001] yes=31,no=32,missing=31
						31:[f1<13.25] yes=39,no=40,missing=39
							39:[f2<2.6500001] yes=49,no=50,missing=49
								49:leaf=0.0141750565
								50:[f2<7.95000029] yes=61,no=62,missing=61
									61:leaf=-0.0199524295
									62:leaf=-0.0486994497
							40:leaf=0.0498082899
						32:[f2<2.6500001] yes=41,no=42,missing=41
							41:[f4<3.9749999] yes=51,no=52,missing=51
								51:leaf=-0.0462554358
								52:[f0<7.95000029] yes=63,no=64,missing=63
									63:leaf=-0.0187084358
									64:leaf=0.0183692072
							42:[f3<11.9249992] yes=53,no=54,missing=53
								53:[f2<7.95000029] yes=65,no=66,missing=65
									65:leaf=-0.00511590252
									66:leaf=-0.0506167114
								54:leaf=-0.0579456873
					22:[f1<13.25] yes=33,no=34,missing=33
						33:[f1<2.6500001] yes=43,no=44,missing=43
							43:leaf=0.0492238365
							44:[f2<2.6500001] yes=55,no=56,missing=55
								55:leaf=0.00645499257
								56:[f3<11.9249992] yes=67,no=68,missing=67
									67:leaf=-0.021391023
									68:leaf=-0.0542291589
						34:leaf=0.0497892909
				14:[f0<2.6500001] yes=23,no=24,missing=23
					23:leaf=0.0505343191
					24:[f0<7.95000029] yes=35,no=36,missing=35
						35:[f1<7.95000029] yes=45,no=46,missing=45
							45:[f1<2.6500001] yes=57,no=58,missing=57
								57:leaf=-0.0472095907
								58:leaf=-0.0178282838
							46:leaf=0.0066273273
						36:[f0<13.25] yes=47,no=48,missing=47
							47:[f1<2.6500001] yes=59,no=60,missing=59
								59:leaf=0.0518602803
								60:[f3<11.9249992] yes=69,no=70,missing=69
									69:leaf=-0.0174594447
									70:leaf=0.00434208522
							48:leaf=0.050375741
booster[30]:
0:[f3<3.9749999] yes=1,no=2,missing=1
	1:leaf=0.0556921922
	2:[f5<3.9749999] yes=3,no=4,missing=3
		3:[f1<13.25] yes=5,no=6,missing=5
			5:[f0<13.25] yes=9,no=10,missing=9
				9:[f2<2.6500001] yes=15,no=16,missing=15
					15:[f4<11.9249992] yes=25,no=26,missing=25
						25:leaf=-0.0466870256
						26:leaf=0.00814174954
					16:leaf=-0.0532768555
				10:[f1<2.6500001] yes=17,no=18,missing=17
					17:leaf=0.0476096198
					18:[f4<11.9249992] yes=27,no=28,missing=27
						27:leaf=-0.0522700325
						28:leaf=-0.0158369876
			6:[f0<13.25] yes=11,no=12,missing=11
				11:[f0<2.6500001] yes=19,no=20,missing=19
					19:leaf=0.0478921793
					20:[f2<2.6500001] yes=29,no=30,missing=29
						29:leaf=-0.016333051
						30:leaf=-0.0508919768
				12:leaf=0.0478921793
		4:[f5<11.9249992] yes=7,no=8,missing=7
			7:leaf=0.0554585867
			8:[f4<3.9749999] yes=13,no=14,missing=13
				13:[f0<13.25] yes=21,no=22,missing=21
					21:[f0<2.6500001] yes=31,no=32,missing=31
						31:[f1<7.95000029] yes=39,no=40,missing=39
							39:leaf=-0.0437701605
							40:leaf=-0.000874516845
						32:leaf=-0.0539107881
					22:[f2<7.95000029] yes=33,no=34,missing=33
						33:leaf=-0.0164605509
						34:leaf=0.00592715014
				14:[f1<13.25] yes=23,no=24,missing=23
					23:[f0<13.25] yes=35,no=36,missing=35
						35:[f0<2.6500001] yes=41,no=42,missing=41
							41:[f4<11.9249992] yes=47,no=48,missing=47
								47:[f2<7.95000029] yes=55,no=56,missing=55
									55:[f3<11.9249992] yes=61,no=62,missing=61
										61:leaf=0.0431347638
										62:leaf=-0.00359218754
									56:leaf=-0.040526446
								48:leaf=0.047867272
							42:[f0<7.95000029] yes=49,no=50,missing=49
								49:[f2<2.6500001] yes=57,no=58,missing=57
									57:[f3<11.9249992] yes=63,no=64,missing=63
										63:leaf=-0.0459647328
										64:leaf=0.00654852996
									58:leaf=-0.0531889014
								50:[f1<2.6500001] yes=59,no=60,missing=59
									59:[f4<11.9249992] yes=65,no=66,missing=65
										65:leaf=0.0101593081
										66:leaf=0.0507089011
									60:leaf=-0.0423793904
						36:[f4<11.9249992] yes=43,no=44,missing=43
							43:[f2<7.95000029] yes=51,no=52,missing=51
								51:leaf=0.0294712577
								52:leaf=-0.0165961906
							44:leaf=0.0475829206
					24:[f4<11.9249992] yes=37,no=38,missing=37
						37:[f2<2.6500001] yes=45,no=46,missing=45
							45:leaf=0.0494650304
							46:[f3<11.9249992] yes=53,no=54,missing=53
								53:leaf=0.0168736391
								54:leaf=-0.00873420853
						38:leaf=0.0500584058
booster[31]:
0:[f3<3.9749999] yes=1,no=2,missing=1
	1:leaf=0.0553337522
	2:[f5<3.9749999] yes=3,no=4,missing=3
		3:[f1<13.25] yes=5,no=6,missing=5
			5:[f0<13.25] yes=9,no=10,missing=9
				9:[f2<2.6500001] yes=15,no=16,missing=15
					15:[f3<11.9249992] yes=25,no=26,missing=25
						25:leaf=-0.0469046757
						26:[f0<2.6500001] yes=39,no=40,missing=39
							39:leaf=-0.00592893083
							40:leaf=0.0169971772
					16:leaf=-0.0528269671
				10:[f1<2.6500001] yes=17,no=18,missing=17
					17:leaf=0.0470266417
					18:[f2<2.6500001] yes=27,no=28,missing=27
						27:leaf=-0.0143058077
						28:leaf=-0.0511065722
			6:[f0<13.25] yes=11,no=12,missing=11
				11:[f0<2.6500001] yes=19,no=20,missing=19
					19:leaf=0.0473133549
					20:[f4<11.9249992] yes=29,no=30,missing=29
						29:leaf=-0.051658541
						30:leaf=-0.0170091055
				12:leaf=0.0473133549
		4:[f5<11.9249992] yes=7,no=8,missing=7
			7:leaf=0.0550903268
			8:[f4<3.9749999] yes=13,no=14,missing=13
				13:[f1<13.25] yes=21,no=22,missing=21
					21:[f1<2.6500001] yes=31,no=32,missing=31
						31:[f0<7.95000029] yes=41,no=42,missing=41
							41:leaf=-0.0436458178
							42:leaf=0.00455491384
						32:leaf=-0.0539261363
					22:[f2<7.95000029] yes=33,no=34,missing=33
						33:leaf=-0.0112463348
						34:leaf=0.00332076964
				14:[f1<13.25] yes=23,no=24,missing=23
					23:[f0<13.25] yes=35,no=36,missing=35
						35:[f0<2.6500001] yes=43,no=44,missing=43
							43:[f4<11.9249992] yes=49,no=50,missing=49
								49:[f2<7.95000029] yes=57,no=58,missing=57
									57:leaf=0.0220643263
									58:leaf=-0.0399096385
								50:leaf=0.0472890325
							44:[f0<7.95000029] yes=51,no=52,missing=51
								51:[f3<11.9249992] yes=59,no=60,missing=59
									59:leaf=-0.0537024103
									60:[f2<2.6500001] yes=65,no=66,missing=65
										65:leaf=0.0063173892
										66:leaf=-0.0439929217
								52:[f1<2.6500001] yes=61,no=62,missing=61
									61:[f4<11.9249992] yes=67,no=68,missing=67
										67:leaf=0.009762601
										68:leaf=0.0496135838
									62:leaf=-0.0414487161
						36:[f4<11.9249992] yes=45,no=46,missing=45
							45:[f1<2.6500001] yes=53,no=54,missing=53
								53:leaf=0.0412574038
								54:[f2<7.95000029] yes=63,no=64,missing=63
									63:leaf=0.0213322267
									64:leaf=-0.0431485213
							46:leaf=0.0470005535
					24:[f4<11.9249992] yes=37,no=38,missing=37
						37:[f2<2.6500001] yes=47,no=48,missing=47
							47:leaf=0.0485528409
							48:[f3<11.9249992] yes=55,no=56,missing=55
								55:leaf=0.0162247252
								56:leaf=-0.00837910455
						38:leaf=0.0495066568
booster[32]:
0:[f3<3.9749999] yes=1,no=2,missing=1
	1:leaf=0.0549944825
	2:[f5<3.9749999] yes=3,no=4,missing=3
		3:[f1<13.25] yes=5,no=6,missing=5
			5:[f0<13.25] yes=9,no=10,missing=9
				9:[f2<2.6500001] yes=15,no=16,missing=15
					15:[f4<11.9249992] yes=25,no=26,missing=25
						25:leaf=-0.0457957163
						26:leaf=0.00848965347
					16:leaf=-0.0523922853
				10:[f1<2.6500001] yes=17,no=18,missing=17
					17:leaf=0.0464566648
					18:[f4<11.9249992] yes=27,no=28,missing=27
						27:leaf=-0.0512539744
						28:leaf=-0.0140515743
			6:[f0<13.25] yes=11,no=12,missing=11
				11:[f0<2.6500001] yes=19,no=20,missing=19
					19:leaf=0.0467475206
					20:[f2<2.6500001] yes=29,no=30,missing=29
						29:leaf=-0.0145249488
						30:leaf=-0.0499197505
				12:leaf=0.0467475206
		4:[f5<11.9249992] yes=7,no=8,missing=7
			7:leaf=0.0547407158
			8:[f4<11.9249992] yes=13,no=14,missing=13
				13:[f0<13.25] yes=21,no=22,missing=21
					21:[f0<2.6500001] yes=31,no=32,missing=31
						31:[f1<13.25] yes=37,no=38,missing=37
							37:[f2<2.6500001] yes=45,no=46,missing=45
								45:leaf=0.0142754083
								46:[f3<11.9249992] yes=53,no=54,missing=53
									53:leaf=-0.0199470054
									54:leaf=-0.0492921993
							38:leaf=0.0489223041
						32:[f2<7.95000029] yes=39,no=40,missing=39
							39:[f4<3.9749999] yes=47,no=48,missing=47
								47:leaf=-0.0500531569
								48:[f1<13.25] yes=55,no=56,missing=55
									55:[f0<7.95000029] yes=63,no=64,missing=63
										63:leaf=-0.0497196801
										64:leaf=-0.00143253
									56:leaf=0.024477236
							40:leaf=-0.0539832413
					22:[f1<13.25] yes=33,no=34,missing=33
						33:[f1<2.6500001] yes=41,no=42,missing=41
							41:leaf=0.0481362902
							42:[f2<2.6500001] yes=49,no=50,missing=49
								49:leaf=0.00652824342
								50:[f3<11.9249992] yes=57,no=58,missing=57
									57:leaf=-0.0199178979
									58:leaf=-0.0533454902
						34:leaf=0.0488843732
				14:[f1<13.25] yes=23,no=24,missing=23
					23:[f0<2.6500001] yes=35,no=36,missing=35
						35:leaf=0.0467237271
						36:[f0<13.25] yes=43,no=44,missing=43
							43:[f3<11.9249992] yes=51,no=52,missing=51
								51:[f1<2.6500001] yes=59,no=60,missing=59
									59:leaf=-0.00959181879
									60:leaf=-0.0501187742
								52:[f2<7.95000029] yes=61,no=62,missing=61
									61:leaf=0.0296976771
									62:leaf=-0.0261587538
							44:leaf=0.046431154
					24:leaf=0.0489686914
booster[33]:
0:[f3<3.9749999] yes=1,no=2,missing=1
	1:leaf=0.054672908
	2:[f5<3.9749999] yes=3,no=4,missing=3
		3:[f1<13.25] yes=5,no=6,missing=5
			5:[f0<13.25] yes=9,no=10,missing=9
				9:[f2<2.6500001] yes=15,no=16,missing=15
					15:[f3<11.9249992] yes=25,no=26,missing=25
						25:leaf=-0.0460327864
						26:leaf=0.00777306361
					16:leaf=-0.0519712977
				10:[f1<2.6500001] yes=17,no=18,missing=17
					17:leaf=0.0458985381
					18:[f2<2.6500001] yes=27,no=28,missing=27
						27:leaf=-0.0125572635
						28:leaf=-0.0501587801
			6:[f0<13.25] yes=11,no=12,missing=11
				11:[f0<2.6500001] yes=19,no=20,missing=19
					19:leaf=0.0461934768
					20:[f4<11.9249992] yes=29,no=30,missing=29
						29:leaf=-0.0506362319
						30:leaf=-0.0152654713
				12:leaf=0.0461934768
		4:[f5<11.9249992] yes=7,no=8,missing=7
			7:leaf=0.0544083007
			8:[f4<3.9749999] yes=13,no=14,missing=13
				13:[f1<13.25] yes=21,no=22,missing=21
					21:[f1<2.6500001] yes=31,no=32,missing=31
						31:[f0<7.95000029] yes=39,no=40,missing=39
							39:leaf=-0.0426255204
							40:leaf=0.00444861827
						32:leaf=-0.0530184284
					22:[f2<7.95000029] yes=33,no=34,missing=33
						33:leaf=-0.0106453178
						34:leaf=0.00329055195
				14:[f2<2.6500001] yes=23,no=24,missing=23
					23:[f3<11.9249992] yes=35,no=36,missing=35
						35:[f4<11.9249992] yes=41,no=42,missing=41
							41:leaf=0.023388071
							42:[f0<7.95000029] yes=49,no=50,missing=49
								49:leaf=-0.00811478496
								50:leaf=0.00622861693
						36:[f4<11.9249992] yes=43,no=44,missing=43
							43:[f0<7.95000029] yes=51,no=52,missing=51
								51:leaf=0.0116305267
								52:leaf=0.0342286192
							44:leaf=0.0619127639
					24:[f4<11.9249992] yes=37,no=38,missing=37
						37:[f3<11.9249992] yes=45,no=46,missing=45
							45:[f2<7.95000029] yes=53,no=54,missing=53
								53:[f0<7.95000029] yes=59,no=60,missing=59
									59:leaf=0.0192918777
									60:leaf=0.047548797
								54:[f0<13.25] yes=61,no=62,missing=61
									61:leaf=-0.0410816446
									62:leaf=-0.00269518001
							46:[f1<13.25] yes=55,no=56,missing=55
								55:leaf=-0.0468030758
								56:leaf=-0.00869085547
						38:[f1<13.25] yes=47,no=48,missing=47
							47:[f0<2.6500001] yes=57,no=58,missing=57
								57:leaf=0.0432100631
								58:[f0<13.25] yes=63,no=64,missing=63
									63:[f1<2.6500001] yes=65,no=66,missing=65
										65:leaf=-0.00226177461
										66:leaf=-0.0474187545
									64:leaf=0.0426536016
							48:leaf=0.0465542525
booster[34]:
0:[f3<3.9749999] yes=1,no=2,missing=1
	1:leaf=0.0543676987
	2:[f5<3.9749999] yes=3,no=4,missing=3
		3:[f1<13.25] yes=5,no=6,missing=5
			5:[f0<13.25] yes=9,no=10,missing=9
				9:[f2<2.6500001] yes=15,no=16,missing=15
					15:[f4<11.9249992] yes=25,no=26,missing=25
						25:leaf=-0.0449763909
						26:leaf=0.00883597136
					16:leaf=-0.0515626147
				10:[f1<2.6500001] yes=17,no=18,missing=17
					17:leaf=0.0453511588
					18:[f4<11.9249992] yes=27,no=28,missing=27
						27:leaf=-0.0502976589
						28:leaf=-0.0123532014
			6:[f0<13.25] yes=11,no=12,missing=11
				11:[f0<2.6500001] yes=19,no=20,missing=19
					19:leaf=0.0456501171
					20:[f2<2.6500001] yes=29,no=30,missing=29
						29:leaf=-0.0128167812
						30:leaf=-0.0490013398
				12:leaf=0.0456501171
		4:[f5<11.9249992] yes=7,no=8,missing=7
			7:leaf=0.0540916994
			8:[f4<3.9749999] yes=13,no=14,missing=13
				13:[f0<13.25] yes=21,no=22,missing=21
					21:[f0<2.6500001] yes=31,no=32,missing=31
						31:[f1<7.95000029] yes=39,no=40,missing=39
							39:leaf=-0.0416245013
							40:leaf=0.000964332779
						32:leaf=-0.052346237
					22:[f2<7.95000029] yes=33,no=34,missing=33
						33:leaf=-0.014003274
						34:leaf=0.00723716198
				14:[f0<13.25] yes=23,no=24,missing=23
					23:[f0<2.6500001] yes=35,no=36,missing=35
						35:[f4<11.9249992] yes=41,no=42,missing=41
							41:[f2<2.6500001] yes=47,no=48,missing=47
								47:leaf=0.0467870384
								48:[f1<7.95000029] yes=55,no=56,missing=55
									55:leaf=-0.0197543986
									56:leaf=0.0119327093
							42:leaf=0.0479603708
						36:[f1<13.25] yes=43,no=44,missing=43
							43:[f0<7.95000029] yes=49,no=50,missing=49
								49:[f2<2.6500001] yes=57,no=58,missing=57
									57:leaf=-0.0218973123
									58:leaf=-0.0512543395
								50:[f1<2.6500001] yes=59,no=60,missing=59
									59:[f4<11.9249992] yes=63,no=64,missing=63
										63:leaf=0.0104486337
										64:leaf=0.048457358
									60:leaf=-0.0400894955
							44:[f4<11.9249992] yes=51,no=52,missing=51
								51:[f2<7.95000029] yes=61,no=62,missing=61
									61:leaf=0.02307464
									62:leaf=-0.044775039
								52:leaf=0.0419675335
					24:[f4<11.9249992] yes=37,no=38,missing=37
						37:[f2<2.6500001] yes=45,no=46,missing=45
							45:leaf=0.0461652465
							46:[f3<11.9249992] yes=53,no=54,missing=53
								53:leaf=0.020192191
								54:leaf=-0.00798467826
						38:leaf=0.0477655046
booster[35]:
0:[f3<3.9749999] yes=1,no=2,missing=1
	1:leaf=0.0540776029
	2:[f5<3.9749999] yes=3,no=4,missing=3
		3:[f1<13.25] yes=5,no=6,missing=5
			5:[f2<2.6500001] yes=9,no=10,missing=9
				9:[f4<11.9249992] yes=15,no=16,missing=15
					15:[f1<2.6500001] yes=25,no=26,missing=25
						25:leaf=-0.0154768629
						26:leaf=-0.0480873659
					16:[f3<11.9249992] yes=27,no=28,missing=27
						27:leaf=-0.0367152505
						28:leaf=0.0622372217
				10:[f1<2.6500001] yes=17,no=18,missing=17
					17:[f0<13.25] yes=29,no=30,missing=29
						29:leaf=-0.047543902
						30:leaf=0.04150071
					18:leaf=-0.0520383604
			6:[f0<13.25] yes=11,no=12,missing=11
				11:[f0<2.6500001] yes=19,no=20,missing=19
					19:leaf=0.0451164879
					20:[f4<11.9249992] yes=31,no=32,missing=31
						31:leaf=-0.0496696234
						32:leaf=-0.0136055788
				12:leaf=0.0451164879
		4:[f5<11.9249992] yes=7,no=8,missing=7
			7:leaf=0.0537896641
			8:[f4<3.9749999] yes=13,no=14,missing=13
				13:[f1<13.25] yes=21,no=22,missing=21
					21:[f1<2.6500001] yes=33,no=34,missing=33
						33:[f0<7.95000029] yes=41,no=42,missing=41
							41:leaf=-0.0414657108
							42:leaf=0.00527515635
						34:leaf=-0.0522507206
					22:[f2<7.95000029] yes=35,no=36,missing=35
						35:leaf=-0.00905228965
						36:leaf=0.00410580495
				14:[f2<2.6500001] yes=23,no=24,missing=23
					23:[f3<11.9249992] yes=37,no=38,missing=37
						37:[f4<11.9249992] yes=43,no=44,missing=43
							43:leaf=0.0222769435
							44:[f0<7.95000029] yes=51,no=52,missing=51
								51:leaf=-0.0082738651
								52:leaf=0.0056591616
						38:[f4<11.9249992] yes=45,no=46,missing=45
							45:[f0<7.95000029] yes=53,no=54,missing=53
								53:leaf=0.0107691893
								54:leaf=0.032850191
							46:leaf=0.0611375533
					24:[f4<11.9249992] yes=39,no=40,missing=39
						39:[f3<11.9249992] yes=47,no=48,missing=47
							47:[f2<7.95000029] yes=55,no=56,missing=55
								55:[f0<7.95000029] yes=61,no=62,missing=61
									61:leaf=0.0193286054
									62:leaf=0.0459158681
								56:[f0<13.25] yes=63,no=64,missing=63
									63:leaf=-0.0397583358
									64:leaf=-0.0033134257
							48:[f1<13.25] yes=57,no=58,missing=57
								57:[f1<2.6500001] yes=65,no=66,missing=65
									65:leaf=-0.0249227714
									66:leaf=-0.0538920537
								58:leaf=-0.00813991856
						40:[f1<13.25] yes=49,no=50,missing=49
							49:[f0<2.6500001] yes=59,no=60,missing=59
								59:leaf=0.0420496501
								60:[f0<13.25] yes=67,no=68,missing=67
									67:[f1<2.6500001] yes=69,no=70,missing=69
										69:leaf=-0.00193382555
										70:leaf=-0.0462846123
									68:leaf=0.0414844863
							50:leaf=0.0455128551
booster[36]:
0:[f3<3.9749999] yes=1,no=2,missing=1
	1:leaf=0.0538014732
	2:[f5<3.9749999] yes=3,no=4,missing=3
		3:[f1<13.25] yes=5,no=6,missing=5
			5:[f0<13.25] yes=9,no=10,missing=9
				9:[f2<2.6500001] yes=15,no=16,missing=15
					15:[f3<11.9249992] yes=25,no=26,missing=25
						25:leaf=-0.0447264612
						26:leaf=0.00746487314
					16:leaf=-0.0507868007
				10:[f1<2.6500001] yes=17,no=18,missing=17
					17:leaf=0.0444901027
					18:[f2<2.6500001] yes=27,no=28,missing=27
						27:leaf=-0.0102836769
						28:leaf=-0.04869809
			6:[f0<13.25] yes=11,no=12,missing=11
				11:[f0<2.6500001] yes=19,no=20,missing=19
					19:leaf=0.0445916913
					20:[f2<2.6500001] yes=29,no=30,missing=29
						29:leaf=-0.0112040592
						30:leaf=-0.0481282696
				12:leaf=0.0445916913
