booster[0]:
0:[f3<3.9749999] yes=1,no=2,missing=1
	1:leaf=0.0996183231
	2:[f5<3.9749999] yes=3,no=4,missing=3
		3:[f1<13.25] yes=5,no=6,missing=5
			5:[f0<13.25] yes=9,no=10,missing=9
				9:[f2<2.6500001] yes=15,no=16,missing=15
					15:[f4<11.9249992] yes=25,no=26,missing=25
						25:leaf=-0.0904761925
						26:[f3<11.9249992] yes=33,no=34,missing=33
							33:leaf=-0.075000003
							34:leaf=0.0818181857
					16:leaf=-0.0974683538
				10:[f1<2.6500001] yes=17,no=18,missing=17
					17:leaf=0.0909090936
					18:leaf=-0.0909090936
			6:[f0<2.6500001] yes=11,no=12,missing=11
				11:leaf=0.0920000002
				12:[f0<13.25] yes=19,no=20,missing=19
					19:leaf=-0.0860465094
					20:leaf=0.0909090936
		4:[f5<11.9249992] yes=7,no=8,missing=7
			7:leaf=0.0994202942
			8:[f4<11.9249992] yes=13,no=14,missing=13
				13:[f1<13.25] yes=21,no=22,missing=21
					21:[f0<13.25] yes=27,no=28,missing=27
						27:[f2<2.6500001] yes=35,no=36,missing=35
							35:[f4<3.9749999] yes=43,no=44,missing=43
								43:leaf=-0.084615387
								44:[f0<2.6500001] yes=53,no=54,missing=53
									53:leaf=0.075000003
									54:[f0<7.95000029] yes=65,no=66,missing=65
										65:leaf=-0.0666666701
										66:leaf=-0.0250000004
							36:[f2<7.95000029] yes=45,no=46,missing=45
								45:[f3<11.9249992] yes=55,no=56,missing=55
									55:[f4<3.9749999] yes=67,no=68,missing=67
										67:leaf=-0.075000003
										68:leaf=-0.00909090973
									56:leaf=-0.0857142881
								46:leaf=-0.0955555588
						28:[f1<2.6500001] yes=37,no=38,missing=37
							37:leaf=0.0874999985
							38:[f2<2.6500001] yes=47,no=48,missing=47
								47:[f4<3.9749999] yes=57,no=58,missing=57
									57:leaf=-0.0666666701
									58:leaf=0.0666666701
								48:leaf=-0.0839999989
					22:[f0<2.6500001] yes=29,no=30,missing=29
						29:leaf=0.0882352963
						30:[f0<13.25] yes=39,no=40,missing=39
							39:[f4<3.9749999] yes=49,no=50,missing=49
								49:leaf=-0.0857142881
								50:[f2<7.95000029] yes=59,no=60,missing=59
									59:leaf=0.0333333351
									60:leaf=-0.075000003
							40:leaf=0.0874999985
				14:[f0<13.25] yes=23,no=24,missing=23
					23:[f0<2.6500001] yes=31,no=32,missing=31
						31:leaf=0.0933333337
						32:[f1<13.25] yes=41,no=42,missing=41
							41:[f1<2.6500001] yes=51,no=52,missing=51
								51:[f0<7.95000029] yes=61,no=62,missing=61
									61:leaf=-0.0600000024
									62:leaf=0.0800000057
								52:[f2<2.6500001] yes=63,no=64,missing=63
									63:[f3<11.9249992] yes=69,no=70,missing=69
										69:leaf=-0.0666666701
										70:leaf=0.0666666701
									64:leaf=-0.0913043544
							42:leaf=0.086666666
					24:leaf=0.09375
booster[1]:
0:[f3<3.9749999] yes=1,no=2,missing=1
	1:leaf=0.09489467
	2:[f5<3.9749999] yes=3,no=4,missing=3
		3:[f1<13.25] yes=5,no=6,missing=5
			5:[f0<13.25] yes=9,no=10,missing=9
				9:[f2<2.6500001] yes=15,no=16,missing=15
					15:[f4<11.9249992] yes=25,no=26,missing=25
						25:leaf=-0.0865460411
						26:[f3<11.9249992] yes=33,no=34,missing=33
							33:leaf=-0.0722649619
							34:leaf=0.0785804167
					16:leaf=-0.0929368734
				10:[f1<2.6500001] yes=17,no=18,missing=17
					17:leaf=0.0869427845
					18:leaf=-0.0867440775
			6:[f0<2.6500001] yes=11,no=12,missing=11
				11:leaf=0.0879419446
				12:[f0<13.25] yes=19,no=20,missing=19
					19:leaf=-0.0820915252
					20:leaf=0.0869427845
		4:[f5<11.9249992] yes=7,no=8,missing=7
			7:leaf=0.0947144702
			8:[f4<11.9249992] yes=13,no=14,missing=13
				13:[f1<13.25] yes=21,no=22,missing=21
					21:[f0<13.25] yes=27,no=28,missing=27
						27:[f2<2.6500001] yes=35,no=36,missing=35
							35:[f4<3.9749999] yes=43,no=44,missing=43
								43:leaf=-0.0811604187
								44:[f0<2.6500001] yes=53,no=54,missing=53
									53:leaf=0.0722649619
									54:leaf=-0.0482859723
							36:[f2<7.95000029] yes=45,no=46,missing=45
								45:[f4<3.9749999] yes=55,no=56,missing=55
									55:leaf=-0.082386665
									56:[f0<2.6500001] yes=63,no=64,missing=63
										63:leaf=0.00177784939
										64:leaf=-0.0622521639
								46:leaf=-0.0911922082
						28:[f1<2.6500001] yes=37,no=38,missing=37
							37:leaf=0.0838145092
							38:[f2<2.6500001] yes=47,no=48,missing=47
								47:leaf=4.77261075e-09
								48:leaf=-0.0802683905
					22:[f0<2.6500001] yes=29,no=30,missing=29
						29:leaf=0.0844899938
						30:[f0<13.25] yes=39,no=40,missing=39
							39:[f4<3.9749999] yes=49,no=50,missing=49
								49:leaf=-0.0821722746
								50:[f2<7.95000029] yes=57,no=58,missing=57
									57:leaf=0.0320440717
									58:leaf=-0.0722649619
							40:leaf=0.0838145092
				14:[f0<13.25] yes=23,no=24,missing=23
					23:[f0<2.6500001] yes=31,no=32,missing=31
						31:leaf=0.0891619101
						32:[f1<13.25] yes=41,no=42,missing=41
							41:[f1<2.6500001] yes=51,no=52,missing=51
								51:[f0<7.95000029] yes=59,no=60,missing=59
									59:leaf=-0.0576421879
									60:leaf=0.0769000277
								52:[f2<2.6500001] yes=61,no=62,missing=61
									61:leaf=4.77261075e-09
									62:leaf=-0.0873048902
							42:leaf=0.083048448
					24:leaf=0.0895428583
booster[2]:
0:[f3<3.9749999] yes=1,no=2,missing=1
	1:leaf=0.0908105373
	2:[f5<3.9749999] yes=3,no=4,missing=3
		3:[f1<13.25] yes=5,no=6,missing=5
			5:[f0<13.25] yes=9,no=10,missing=9
				9:[f2<2.6500001] yes=15,no=16,missing=15
					15:[f4<11.9249992] yes=25,no=26,missing=25
						25:leaf=-0.083074674
						26:[f3<11.9249992] yes=35,no=36,missing=35
							35:leaf=-0.0697702095
							36:leaf=0.0756669566
					16:leaf=-0.0889985487
				10:[f1<2.6500001] yes=17,no=18,missing=17
					17:leaf=0.0834428743
					18:leaf=-0.083074823
			6:[f0<2.6500001] yes=11,no=12,missing=11
				11:leaf=0.0843698829
				12:[f0<13.25] yes=19,no=20,missing=19
					19:[f2<2.6500001] yes=27,no=28,missing=27
						27:[f3<11.9249992] yes=37,no=38,missing=37
							37:leaf=-0.0690740719
							38:leaf=-0.0188088771
						28:leaf=-0.0862700641
					20:leaf=0.0834428743
		4:[f5<11.9249992] yes=7,no=8,missing=7
			7:leaf=0.0906438157
			8:[f4<11.9249992] yes=13,no=14,missing=13
				13:[f1<13.25] yes=21,no=22,missing=21
					21:[f0<13.25] yes=29,no=30,missing=29
						29:[f2<2.6500001] yes=39,no=40,missing=39
							39:[f4<3.9749999] yes=47,no=48,missing=47
								47:leaf=-0.07806959
								48:[f0<2.6500001] yes=57,no=58,missing=57
									57:leaf=0.0697702095
									58:leaf=-0.046336893
							40:[f2<7.95000029] yes=49,no=50,missing=49
								49:[f3<11.9249992] yes=59,no=60,missing=59
									59:[f0<2.6500001] yes=67,no=68,missing=67
										67:leaf=0.00308920583
										68:leaf=-0.0596914999
									60:leaf=-0.0800040662
								50:leaf=-0.0873828009
						30:[f1<2.6500001] yes=41,no=42,missing=41
							41:leaf=0.0805378035
							42:[f2<2.6500001] yes=51,no=52,missing=51
								51:leaf=4.77261075e-09
								52:leaf=-0.0769359469
					22:[f0<2.6500001] yes=31,no=32,missing=31
						31:leaf=0.0811654553
						32:[f0<13.25] yes=43,no=44,missing=43
							43:[f4<3.9749999] yes=53,no=54,missing=53
								53:leaf=-0.0790109858
								54:[f2<7.95000029] yes=61,no=62,missing=61
									61:leaf=0.0308173802
									62:leaf=-0.0697702095
							44:leaf=0.0805378035
				14:[f0<13.25] yes=23,no=24,missing=23
					23:[f0<2.6500001] yes=33,no=34,missing=33
						33:leaf=0.0855012089
						34:[f1<13.25] yes=45,no=46,missing=45
							45:[f1<2.6500001] yes=55,no=56,missing=55
								55:[f0<7.95000029] yes=63,no=64,missing=63
									63:leaf=-0.0554528609
									64:leaf=0.0741001889
								56:[f2<2.6500001] yes=65,no=66,missing=65
									65:leaf=4.77261075e-09
									66:leaf=-0.083778888
							46:leaf=0.0798257366
					24:leaf=0.0858543813
booster[3]:
0:[f3<3.9749999] yes=1,no=2,missing=1
	1:leaf=0.0872474164
	2:[f5<3.9749999] yes=3,no=4,missing=3
		3:[f1<13.25] yes=5,no=6,missing=5
			5:[f0<13.25] yes=9,no=10,missing=9
				9:[f2<2.6500001] yes=15,no=16,missing=15
					15:[f4<11.9249992] yes=25,no=26,missing=25
						25:leaf=-0.0799860582
						26:[f3<11.9249992] yes=35,no=36,missing=35
							35:leaf=-0.0674843565
							36:leaf=0.0730303377
					16:leaf=-0.0855460986
				10:[f1<2.6500001] yes=17,no=18,missing=17
					17:leaf=0.080331631
					18:leaf=-0.0798155367
			6:[f0<2.6500001] yes=11,no=12,missing=11
				11:leaf=0.0812016502
				12:[f0<13.25] yes=19,no=20,missing=19
					19:[f2<2.6500001] yes=27,no=28,missing=27
						27:[f3<11.9249992] yes=37,no=38,missing=37
							37:leaf=-0.0668447167
							38:leaf=-0.0181279425
						28:leaf=-0.082954675
					20:leaf=0.080331631
		4:[f5<11.9249992] yes=7,no=8,missing=7
			7:leaf=0.0870908573
			8:[f4<11.9249992] yes=13,no=14,missing=13
				13:[f1<13.25] yes=21,no=22,missing=21
					21:[f0<13.25] yes=29,no=30,missing=29
						29:[f2<2.6500001] yes=39,no=40,missing=39
							39:[f4<3.9749999] yes=47,no=48,missing=47
								47:leaf=-0.0752873346
								48:[f0<2.6500001] yes=57,no=58,missing=57
									57:leaf=0.0674843565
									58:leaf=-0.0445061289
							40:[f2<7.95000029] yes=49,no=50,missing=49
								49:[f4<3.9749999] yes=59,no=60,missing=59
									59:leaf=-0.0772541687
									60:[f3<11.9249992] yes=67,no=68,missing=67
										67:leaf=-0.00547754625
										68:leaf=-0.0681772903
								50:leaf=-0.0840294138
						30:[f1<2.6500001] yes=41,no=42,missing=41
							41:leaf=0.0776048377
							42:[f2<2.6500001] yes=51,no=52,missing=51
								51:leaf=-0
								52:leaf=-0.0739379525
					22:[f0<2.6500001] yes=31,no=32,missing=31
						31:leaf=0.0781940445
						32:[f0<13.25] yes=43,no=44,missing=43
							43:[f4<3.9749999] yes=53,no=54,missing=53
								53:leaf=-0.0761713609
								54:[f2<7.95000029] yes=61,no=62,missing=61
									61:leaf=0.0296485759
									62:leaf=-0.0674843565
							44:leaf=0.0776048377
				14:[f0<13.25] yes=23,no=24,missing=23
					23:[f0<2.6500001] yes=33,no=34,missing=33
						33:leaf=0.0822634324
						34:[f1<13.25] yes=45,no=46,missing=45
							45:[f1<2.6500001] yes=55,no=56,missing=55
								55:[f0<7.95000029] yes=63,no=64,missing=63
									63:leaf=-0.0534119084
									64:leaf=0.0715578124
								56:[f2<2.6500001] yes=65,no=66,missing=65
									65:leaf=-0
									66:leaf=-0.0806469917
							46:leaf=0.0769363493
					24:leaf=0.0825948939
booster[4]:
0:[f3<3.9749999] yes=1,no=2,missing=1
	1:leaf=0.0841144472
	2:[f5<3.9749999] yes=3,no=4,missing=3
		3:[f1<13.25] yes=5,no=6,missing=5
			5:[f0<13.25] yes=9,no=10,missing=9
				9:[f2<2.6500001] yes=15,no=16,missing=15
					15:[f4<11.9249992] yes=25,no=26,missing=25
						25:leaf=-0.0772198662
						26:[f3<11.9249992] yes=35,no=36,missing=35
							35:leaf=-0.0653810576
							36:leaf=0.0706316978
					16:leaf=-0.0824966654
				10:[f1<2.6500001] yes=17,no=18,missing=17
					17:leaf=0.0775474757
					18:leaf=-0.0768988281
			6:[f0<2.6500001] yes=11,no=12,missing=11
				11:leaf=0.0783724189
				12:[f0<13.25] yes=19,no=20,missing=19
					19:[f2<2.6500001] yes=27,no=28,missing=27
						27:[f3<11.9249992] yes=37,no=38,missing=37
							37:leaf=-0.0647909418
							38:leaf=-0.0174733605
						28:leaf=-0.0800063312
					20:leaf=0.0775474757
		4:[f5<11.9249992] yes=7,no=8,missing=7
			7:leaf=0.0839655027
			8:[f4<11.9249992] yes=13,no=14,missing=13
				13:[f1<13.25] yes=21,no=22,missing=21
					21:[f0<13.25] yes=29,no=30,missing=29
						29:[f2<2.6500001] yes=39,no=40,missing=39
							39:[f4<3.9749999] yes=47,no=48,missing=47
								47:leaf=-0.0727685615
								48:[f0<2.6500001] yes=57,no=58,missing=57
									57:leaf=0.0653810576
									58:leaf=-0.042781435
							40:[f2<7.95000029] yes=49,no=50,missing=49
								49:[f4<3.9749999] yes=59,no=60,missing=59
									59:leaf=-0.0745870993
									60:[f0<2.6500001] yes=67,no=68,missing=67
										67:leaf=0.00453742454
										68:leaf=-0.0563850999
								50:leaf=-0.08105582
						30:[f1<2.6500001] yes=41,no=42,missing=41
							41:leaf=0.0749634132
							42:[f2<2.6500001] yes=51,no=52,missing=51
								51:leaf=-0
								52:leaf=-0.0712225959
					22:[f0<2.6500001] yes=31,no=32,missing=31
						31:leaf=0.0755216107
						32:[f0<13.25] yes=43,no=44,missing=43
							43:[f4<3.9749999] yes=53,no=54,missing=53
								53:leaf=-0.0736056864
								54:[f2<7.95000029] yes=61,no=62,missing=61
									61:leaf=0.0285335034
									62:leaf=-0.0653810576
							44:leaf=0.0749634132
				14:[f0<13.25] yes=23,no=24,missing=23
					23:[f0<2.6500001] yes=33,no=34,missing=33
						33:leaf=0.0793795958
						34:[f1<13.25] yes=45,no=46,missing=45
							45:[f1<2.6500001] yes=55,no=56,missing=55
								55:[f0<7.95000029] yes=63,no=64,missing=63
									63:leaf=-0.0515022464
									64:leaf=0.0692376941
								56:[f2<2.6500001] yes=65,no=66,missing=65
									65:leaf=-0
									66:leaf=-0.07784646
							46:leaf=0.0743301958
					24:leaf=0.0796940997
booster[5]:
0:[f3<3.9749999] yes=1,no=2,missing=1
	1:leaf=0.0813407972
	2:[f5<3.9749999] yes=3,no=4,missing=3
		3:[f1<13.25] yes=5,no=6,missing=5
			5:[f0<13.25] yes=9,no=10,missing=9
				9:[f2<2.6500001] yes=15,no=16,missing=15
					15:[f4<11.9249992] yes=25,no=26,missing=25
						25:leaf=-0.0747275576
						26:[f3<11.9249992] yes=35,no=36,missing=35
							35:leaf=-0.0634380355
							36:leaf=0.0684388801
					16:leaf=-0.0797851086
				10:[f1<2.6500001] yes=17,no=18,missing=17
					17:leaf=0.0750409216
					18:leaf=-0.0742710456
			6:[f0<2.6500001] yes=11,no=12,missing=11
				11:leaf=0.0758303329
				12:[f0<13.25] yes=19,no=20,missing=19
					19:[f2<2.6500001] yes=27,no=28,missing=27
						27:[f3<11.9249992] yes=37,no=38,missing=37
							37:leaf=-0.0628915429
							38:leaf=-0.0168438517
						28:leaf=-0.0773674473
					20:leaf=0.0750409216
		4:[f5<11.9249992] yes=7,no=8,missing=7
			7:leaf=0.0811974555
			8:[f4<11.9249992] yes=13,no=14,missing=13
				13:[f1<13.25] yes=21,no=22,missing=21
					21:[f0<13.25] yes=29,no=30,missing=29
						29:[f4<3.9749999] yes=39,no=40,missing=39
							39:leaf=-0.0794473216
							40:[f2<7.95000029] yes=47,no=48,missing=47
								47:[f0<2.6500001] yes=55,no=56,missing=55
									55:[f3<11.9249992] yes=63,no=64,missing=63
										63:leaf=0.0693828911
										64:leaf=-0.00228235568
									56:[f1<2.6500001] yes=65,no=66,missing=65
										65:leaf=-0.00145140651
										66:leaf=-0.0769825801
								48:leaf=-0.0753534809
						30:[f1<2.6500001] yes=41,no=42,missing=41
							41:leaf=0.072571151
							42:[f2<2.6500001] yes=49,no=50,missing=49
								49:leaf=-0
								50:leaf=-0.0687479302
					22:[f0<2.6500001] yes=31,no=32,missing=31
						31:leaf=0.0731042996
						32:[f0<13.25] yes=43,no=44,missing=43
							43:[f4<3.9749999] yes=51,no=52,missing=51
								51:leaf=-0.0712750107
								52:[f2<7.95000029] yes=57,no=58,missing=57
									57:leaf=0.0274684764
									58:leaf=-0.0634380355
							44:leaf=0.072571151
				14:[f0<13.25] yes=23,no=24,missing=23
					23:[f0<2.6500001] yes=33,no=34,missing=33
						33:leaf=0.0767947882
						34:[f1<13.25] yes=45,no=46,missing=45
							45:[f1<2.6500001] yes=53,no=54,missing=53
								53:[f0<7.95000029] yes=59,no=60,missing=59
									59:leaf=-0.0497093089
									60:leaf=0.0671105906
								54:[f2<2.6500001] yes=61,no=62,missing=61
									61:leaf=-0
									62:leaf=-0.0753269717
							46:leaf=0.0719665363
					24:leaf=0.077096127
booster[6]:
0:[f3<3.9749999] yes=1,no=2,missing=1
	1:leaf=0.0788704008
	2:[f5<3.9749999] yes=3,no=4,missing=3
		3:[f1<13.25] yes=5,no=6,missing=5
			5:[f0<13.25] yes=9,no=10,missing=9
				9:[f2<2.6500001] yes=15,no=16,missing=15
					15:[f4<11.9249992] yes=25,no=26,missing=25
						25:leaf=-0.0724697188
						26:[f3<11.9249992] yes=35,no=36,missing=35
							35:leaf=-0.0616363548
							36:leaf=0.0664250851
					16:leaf=-0.0773595944
				10:[f1<2.6500001] yes=17,no=18,missing=17
					17:leaf=0.0727718249
					18:leaf=-0.0718888864
			6:[f0<2.6500001] yes=11,no=12,missing=11
				11:leaf=0.0735333711
				12:[f0<13.25] yes=19,no=20,missing=19
					19:[f2<2.6500001] yes=27,no=28,missing=27
						27:[f3<11.9249992] yes=37,no=38,missing=37
							37:leaf=-0.0611284263
							38:leaf=-0.0162382536
						28:leaf=-0.0749917552
					20:leaf=0.0727718249
		4:[f5<11.9249992] yes=7,no=8,missing=7
			7:leaf=0.0787310302
			8:[f4<11.9249992] yes=13,no=14,missing=13
				13:[f1<13.25] yes=21,no=22,missing=21
					21:[f0<13.25] yes=29,no=30,missing=29
						29:[f2<2.6500001] yes=39,no=40,missing=39
							39:[f4<3.9749999] yes=47,no=48,missing=47
								47:leaf=-0.0681215152
								48:[f0<2.6500001] yes=57,no=58,missing=57
									57:leaf=0.0624930821
									58:leaf=-0.0391343608
							40:[f2<7.95000029] yes=49,no=50,missing=49
								49:[f3<11.9249992] yes=59,no=60,missing=59
									59:[f0<2.6500001] yes=67,no=68,missing=67
										67:leaf=0.00602201
										68:leaf=-0.0521047674
									60:leaf=-0.0716101825
								50:leaf=-0.0760526285
						30:[f1<2.6500001] yes=41,no=42,missing=41
							41:leaf=0.0703932792
							42:[f2<2.6500001] yes=51,no=52,missing=51
								51:leaf=-0
								52:leaf=-0.0664796755
					22:[f0<2.6500001] yes=31,no=32,missing=31
						31:leaf=0.0709062442
						32:[f0<13.25] yes=43,no=44,missing=43
							43:[f4<3.9749999] yes=53,no=54,missing=53
								53:leaf=-0.0691472217
								54:[f2<7.95000029] yes=61,no=62,missing=61
									61:leaf=0.0264501274
									62:leaf=-0.0616363548
							44:leaf=0.0703932792
				14:[f0<13.25] yes=23,no=24,missing=23
					23:[f0<2.6500001] yes=33,no=34,missing=33
						33:leaf=0.0744647309
						34:[f1<13.25] yes=45,no=46,missing=45
							45:[f1<2.6500001] yes=55,no=56,missing=55
								55:[f0<7.95000029] yes=63,no=64,missing=63
									63:leaf=-0.0480206273
									64:leaf=0.0651519746
								56:[f2<2.6500001] yes=65,no=66,missing=65
									65:leaf=-0
									66:leaf=-0.073047705
							46:leaf=0.0698118433
					24:leaf=0.0747559369
booster[7]:
0:[f3<3.9749999] yes=1,no=2,missing=1
	1:leaf=0.0766582787
	2:[f5<3.9749999] yes=3,no=4,missing=3
		3:[f1<13.25] yes=5,no=6,missing=5
			5:[f0<13.25] yes=9,no=10,missing=9
				9:[f2<2.6500001] yes=15,no=16,missing=15
					15:[f4<11.9249992] yes=25,no=26,missing=25
						25:leaf=-0.0704139024
						26:[f3<11.9249992] yes=35,no=36,missing=35
							35:leaf=-0.0599598251
							36:leaf=0.0645678043
					16:leaf=-0.0751782656
				10:[f1<2.6500001] yes=17,no=18,missing=17
					17:leaf=0.0707072392
					18:leaf=-0.0697170347
			6:[f0<2.6500001] yes=11,no=12,missing=11
				11:leaf=0.0714472011
				12:[f0<13.25] yes=19,no=20,missing=19
					19:[f4<11.9249992] yes=27,no=28,missing=27
						27:leaf=-0.0742188171
						28:[f2<7.95000029] yes=37,no=38,missing=37
							37:leaf=-0.0165940039
							38:leaf=-0.0616000891
					20:leaf=0.0707072392
		4:[f5<11.9249992] yes=7,no=8,missing=7
			7:leaf=0.0765215755
			8:[f4<11.9249992] yes=13,no=14,missing=13
				13:[f1<13.25] yes=21,no=22,missing=21
					21:[f0<13.25] yes=29,no=30,missing=29
						29:[f4<3.9749999] yes=39,no=40,missing=39
							39:leaf=-0.0750669912
							40:[f2<7.95000029] yes=47,no=48,missing=47
								47:[f0<2.6500001] yes=55,no=56,missing=55
									55:[f3<11.9249992] yes=65,no=66,missing=65
										65:leaf=0.0662389845
										66:leaf=-0.00202136766
									56:[f1<2.6500001] yes=67,no=68,missing=67
										67:leaf=0.000615110621
										68:leaf=-0.0728460923
								48:leaf=-0.0709734783
						30:[f1<2.6500001] yes=41,no=42,missing=41
							41:leaf=0.0684010237
							42:[f4<3.9749999] yes=49,no=50,missing=49
								49:leaf=-0.0743899196
								50:[f2<7.95000029] yes=57,no=58,missing=57
									57:leaf=0.0412688851
									58:leaf=-0.06286823
					22:[f0<2.6500001] yes=31,no=32,missing=31
						31:leaf=0.0688977987
						32:[f0<13.25] yes=43,no=44,missing=43
							43:[f4<3.9749999] yes=51,no=52,missing=51
								51:leaf=-0.0671955869
								52:[f2<7.95000029] yes=59,no=60,missing=59
									59:leaf=0.0254754927
									60:leaf=-0.0599598251
							44:leaf=0.0684010237
				14:[f0<13.25] yes=23,no=24,missing=23
					23:[f0<2.6500001] yes=33,no=34,missing=33
						33:leaf=0.072353296
						34:[f1<13.25] yes=45,no=46,missing=45
							45:[f1<2.6500001] yes=53,no=54,missing=53
								53:[f0<7.95000029] yes=61,no=62,missing=61
									61:leaf=-0.0464254282
									62:leaf=0.0633411184
								54:[f2<2.6500001] yes=63,no=64,missing=63
									63:leaf=-0
									64:leaf=-0.0709752068
							46:leaf=0.0678383335
					24:leaf=0.0726368651
booster[8]:
0:[f3<3.9749999] yes=1,no=2,missing=1
	1:leaf=0.0746679232
	2:[f5<3.9749999] yes=3,no=4,missing=3
		3:[f1<13.25] yes=5,no=6,missing=5
			5:[f0<13.25] yes=9,no=10,missing=9
				9:[f2<2.6500001] yes=15,no=16,missing=15
					15:[f4<11.9249992] yes=25,no=26,missing=25
						25:leaf=-0.0685332566
						26:[f3<11.9249992] yes=35,no=36,missing=35
							35:leaf=-0.0583945177
							36:leaf=0.0628479794
					16:leaf=-0.0732069612
				10:[f1<2.6500001] yes=17,no=18,missing=17
					17:leaf=0.0688198358
					18:leaf=-0.0677263662
			6:[f0<2.6500001] yes=11,no=12,missing=11
				11:leaf=0.0695434064
				12:[f0<13.25] yes=19,no=20,missing=19
					19:[f2<2.6500001] yes=27,no=28,missing=27
						27:[f3<11.9249992] yes=37,no=38,missing=37
							37:leaf=-0.0580745526
							38:leaf=-0.0136913052
						28:leaf=-0.0711021051
					20:leaf=0.0688198358
		4:[f5<11.9249992] yes=7,no=8,missing=7
			7:leaf=0.0745327845
			8:[f4<11.9249992] yes=13,no=14,missing=13
				13:[f1<13.25] yes=21,no=22,missing=21
					21:[f0<13.25] yes=29,no=30,missing=29
						29:[f2<2.6500001] yes=39,no=40,missing=39
							39:[f4<3.9749999] yes=47,no=48,missing=47
								47:leaf=-0.0642288849
								48:[f0<2.6500001] yes=57,no=58,missing=57
									57:leaf=0.0599443913
									58:leaf=-0.0358867012
							40:[f2<7.95000029] yes=49,no=50,missing=49
								49:[f3<11.9249992] yes=59,no=60,missing=59
									59:[f4<3.9749999] yes=69,no=70,missing=69
										69:leaf=-0.0589549243
										70:leaf=-0.00166818709
									60:leaf=-0.0683404654
								50:leaf=-0.071971707
						30:[f1<2.6500001] yes=41,no=42,missing=41
							41:leaf=0.0665703639
							42:[f4<3.9749999] yes=51,no=52,missing=51
								51:leaf=-0.072135143
								52:[f2<7.95000029] yes=61,no=62,missing=61
									61:leaf=0.0395757221
									62:leaf=-0.061220523
					22:[f0<2.6500001] yes=31,no=32,missing=31
						31:leaf=0.067054227
						32:[f0<13.25] yes=43,no=44,missing=43
							43:[f2<2.6500001] yes=53,no=54,missing=53
								53:leaf=-0.00204247446
								54:[f3<11.9249992] yes=63,no=64,missing=63
									63:leaf=-0.0213368293
									64:leaf=-0.071078971
							44:leaf=0.0665703639
				14:[f0<13.25] yes=23,no=24,missing=23
					23:[f0<2.6500001] yes=33,no=34,missing=33
						33:leaf=0.0704307109
						34:[f1<13.25] yes=45,no=46,missing=45
							45:[f1<2.6500001] yes=55,no=56,missing=55
								55:[f0<7.95000029] yes=65,no=66,missing=65
									65:leaf=-0.0449143983
									66:leaf=0.0616604462
								56:[f2<2.6500001] yes=67,no=68,missing=67
									67:leaf=-0
									68:leaf=-0.0690817609
							46:leaf=0.0660227314
					24:leaf=0.070708707
booster[9]:
0:[f3<3.9749999] yes=1,no=2,missing=1
	1:leaf=0.0728693828
	2:[f5<3.9749999] yes=3,no=4,missing=3
		3:[f1<13.25] yes=5,no=6,missing=5
			5:[f0<13.25] yes=9,no=10,missing=9
				9:[f2<2.6500001] yes=15,no=16,missing=15
					15:[f4<11.9249992] yes=25,no=26,missing=25
						25:leaf=-0.0668052733
						26:[f3<11.9249992] yes=35,no=36,missing=35
							35:leaf=-0.0569284335
							36:leaf=0.0612494126
					16:leaf=-0.0714175329
				10:[f1<2.6500001] yes=17,no=18,missing=17
					17:leaf=0.0670867935
					18:leaf=-0.0658926591
			6:[f0<2.6500001] yes=11,no=12,missing=11
				11:leaf=0.0677983016
				12:[f0<13.25] yes=19,no=20,missing=19
					19:[f4<11.9249992] yes=27,no=28,missing=27
						27:leaf=-0.0706073344
						28:[f2<7.95000029] yes=37,no=38,missing=37
							37:leaf=-0.0142408749
							38:leaf=-0.0583163612
					20:leaf=0.0670867935
		4:[f5<11.9249992] yes=7,no=8,missing=7
			7:leaf=0.07273487
			8:[f4<11.9249992] yes=13,no=14,missing=13
				13:[f1<13.25] yes=21,no=22,missing=21
					21:[f0<13.25] yes=29,no=30,missing=29
						29:[f2<2.6500001] yes=39,no=40,missing=39
							39:[f4<3.9749999] yes=47,no=48,missing=47
								47:leaf=-0.0626151487
								48:[f0<2.6500001] yes=57,no=58,missing=57
									57:leaf=0.0583815873
									58:leaf=-0.0345997997
							40:[f2<7.95000029] yes=49,no=50,missing=49
								49:[f3<11.9249992] yes=59,no=60,missing=59
									59:[f4<3.9749999] yes=67,no=68,missing=67
										67:leaf=-0.0574548431
										68:leaf=-0.00160042127
									60:leaf=-0.0664632842
								50:leaf=-0.0701898485
						30:[f1<2.6500001] yes=41,no=42,missing=41
							41:leaf=0.0648810789
							42:[f2<2.6500001] yes=51,no=52,missing=51
								51:leaf=0.00131162722
								52:leaf=-0.0612535886
					22:[f0<2.6500001] yes=31,no=32,missing=31
						31:leaf=0.0653547794
						32:[f0<13.25] yes=43,no=44,missing=43
							43:[f4<3.9749999] yes=53,no=54,missing=53
								53:leaf=-0.0644968674
								54:[f2<7.95000029] yes=61,no=62,missing=61
									61:leaf=0.0255474057
									62:leaf=-0.0570317768
							44:leaf=0.0648810789
				14:[f0<13.25] yes=23,no=24,missing=23
					23:[f0<2.6500001] yes=33,no=34,missing=33
						33:leaf=0.0686722323
						34:[f1<13.25] yes=45,no=46,missing=45
							45:[f1<2.6500001] yes=55,no=56,missing=55
								55:[f0<7.95000029] yes=63,no=64,missing=63
									63:leaf=-0.0434794687
									64:leaf=0.0600949526
								56:[f2<2.6500001] yes=65,no=66,missing=65
									65:leaf=-0
									66:leaf=-0.0673442408
							46:leaf=0.0643454418
					24:leaf=0.0689463764
booster[10]:
0:[f3<3.9749999] yes=1,no=2,missing=1
	1:leaf=0.0712378398
	2:[f5<3.9749999] yes=3,no=4,missing=3
		3:[f1<13.25] yes=5,no=6,missing=5
			5:[f0<13.25] yes=9,no=10,missing=9
				9:[f2<2.6500001] yes=15,no=16,missing=15
					15:[f4<11.9249992] yes=25,no=26,missing=25
						25:leaf=-0.0652110204
						26:[f3<11.9249992] yes=35,no=36,missing=35
							35:leaf=-0.055551149
							36:leaf=0.0597582124
					16:leaf=-0.0697865784
				10:[f1<2.6500001] yes=17,no=18,missing=17
					17:leaf=0.0654889047
					18:leaf=-0.0641955808
			6:[f0<2.6500001] yes=11,no=12,missing=11
				11:leaf=0.0661919788
				12:[f0<13.25] yes=19,no=20,missing=19
					19:[f2<2.6500001] yes=27,no=28,missing=27
						27:[f3<11.9249992] yes=37,no=38,missing=37
							37:leaf=-0.0554102547
							38:leaf=-0.011367742
						28:leaf=-0.0678419769
					20:leaf=0.0654889047
		4:[f5<11.9249992] yes=7,no=8,missing=7
			7:leaf=0.0711031333
			8:[f4<11.9249992] yes=13,no=14,missing=13
				13:[f1<13.25] yes=21,no=22,missing=21
					21:[f0<13.25] yes=29,no=30,missing=29
						29:[f4<3.9749999] yes=39,no=40,missing=39
							39:leaf=-0.069694601
							40:[f2<7.95000029] yes=47,no=48,missing=47
								47:[f0<2.6500001] yes=55,no=56,missing=55
									55:[f3<11.9249992] yes=65,no=66,missing=65
										65:leaf=0.062999092
										66:leaf=-0.0016283415
									56:[f1<2.6500001] yes=67,no=68,missing=67
										67:leaf=0.00327002443
										68:leaf=-0.0690816045
								48:leaf=-0.0656961128
						30:[f1<2.6500001] yes=41,no=42,missing=41
							41:leaf=0.0633160397
							42:[f4<3.9749999] yes=49,no=50,missing=49
								49:leaf=-0.0690424293
								50:[f2<7.95000029] yes=57,no=58,missing=57
									57:leaf=0.0391115025
									58:leaf=-0.0582100041
					22:[f0<2.6500001] yes=31,no=32,missing=31
						31:leaf=0.06378185
						32:[f0<13.25] yes=43,no=44,missing=43
							43:[f4<3.9749999] yes=51,no=52,missing=51
								51:leaf=-0.0628992468
								52:[f2<7.95000029] yes=59,no=60,missing=59
									59:leaf=0.0246108174
									60:leaf=-0.0556484833
							44:leaf=0.0633160397
				14:[f0<13.25] yes=23,no=24,missing=23
					23:[f0<2.6500001] yes=33,no=34,missing=33
						33:leaf=0.0670571104
						34:[f1<13.25] yes=45,no=46,missing=45
							45:[f1<2.6500001] yes=53,no=54,missing=53
								53:[f0<7.95000029] yes=61,no=62,missing=61
									61:leaf=-0.0421135873
									62:leaf=0.058631707
								54:[f2<2.6500001] yes=63,no=64,missing=63
									63:leaf=-0
									64:leaf=-0.0657431707
							46:leaf=0.0627898201
					24:leaf=0.0673288554
booster[11]:
0:[f3<3.9749999] yes=1,no=2,missing=1
	1:leaf=0.0697525442
	2:[f5<3.9749999] yes=3,no=4,missing=3
		3:[f1<13.25] yes=5,no=6,missing=5
			5:[f0<13.25] yes=9,no=10,missing=9
				9:[f2<2.6500001] yes=15,no=16,missing=15
					15:[f4<11.9249992] yes=25,no=26,missing=25
						25:leaf=-0.0637343898
						26:[f3<11.9249992] yes=35,no=36,missing=35
							35:leaf=-0.0542535894
							36:leaf=0.058362443
					16:leaf=-0.0682943985
				10:[f1<2.6500001] yes=17,no=18,missing=17
					17:leaf=0.0640098527
					18:leaf=-0.0626179576
			6:[f0<2.6500001] yes=11,no=12,missing=11
				11:leaf=0.0647075847
				12:[f0<13.25] yes=19,no=20,missing=19
					19:[f4<11.9249992] yes=27,no=28,missing=27
						27:leaf=-0.06756147
						28:[f2<7.95000029] yes=37,no=38,missing=37
							37:leaf=-0.012080621
							38:leaf=-0.0554516315
					20:leaf=0.0640098527
		4:[f5<11.9249992] yes=7,no=8,missing=7
			7:leaf=0.069616951
			8:[f4<11.9249992] yes=13,no=14,missing=13
				13:[f1<13.25] yes=21,no=22,missing=21
					21:[f0<13.25] yes=29,no=30,missing=29
						29:[f2<2.6500001] yes=39,no=40,missing=39
							39:[f4<3.9749999] yes=47,no=48,missing=47
								47:leaf=-0.0595180802
								48:[f0<2.6500001] yes=57,no=58,missing=57
									57:leaf=0.0562420376
									58:leaf=-0.0317605808
							40:[f2<7.95000029] yes=49,no=50,missing=49
								49:[f3<11.9249992] yes=59,no=60,missing=59
									59:[f0<2.6500001] yes=69,no=70,missing=69
										69:leaf=0.00827954337
										70:leaf=-0.0458097383
									60:leaf=-0.0638796315
								50:leaf=-0.0670845509
						30:[f1<2.6500001] yes=41,no=42,missing=41
							41:leaf=0.0618606284
							42:[f4<3.9749999] yes=51,no=52,missing=51
								51:leaf=-0.0672425777
								52:[f2<7.95000029] yes=61,no=62,missing=61
									61:leaf=0.0375428163
									62:leaf=-0.0568633266
					22:[f0<2.6500001] yes=31,no=32,missing=31
						31:leaf=0.0623204969
						32:[f0<13.25] yes=43,no=44,missing=43
							43:[f2<2.6500001] yes=53,no=54,missing=53
								53:leaf=-0.000178322414
								54:[f3<11.9249992] yes=63,no=64,missing=63
									63:leaf=-0.0183636732
									64:leaf=-0.0673213601
							44:leaf=0.0618606284
				14:[f0<13.25] yes=23,no=24,missing=23
					23:[f0<2.6500001] yes=33,no=34,missing=33
						33:leaf=0.0655677915
						34:[f1<13.25] yes=45,no=46,missing=45
							45:[f2<2.6500001] yes=55,no=56,missing=55
								55:[f3<11.9249992] yes=65,no=66,missing=65
									65:leaf=-0.050731238
									66:leaf=0.0741332993
								56:[f1<2.6500001] yes=67,no=68,missing=67
									67:[f0<7.95000029] yes=71,no=72,missing=71
										71:leaf=-0.0579432845
										72:leaf=0.0533017106
									68:leaf=-0.0642620474
							46:leaf=0.0613416694
					24:leaf=0.0658383742
booster[12]:
0:[f3<3.9749999] yes=1,no=2,missing=1
	1:leaf=0.0683960319
	2:[f5<3.9749999] yes=3,no=4,missing=3
		3:[f1<13.25] yes=5,no=6,missing=5
			5:[f0<13.25] yes=9,no=10,missing=9
				9:[f2<2.6500001] yes=15,no=16,missing=15
					15:[f4<11.9249992] yes=25,no=26,missing=25
						25:leaf=-0.062361639
						26:[f3<11.9249992] yes=35,no=36,missing=35
							35:leaf=-0.0530278087
							36:leaf=0.0570517741
					16:leaf=-0.0669244006
				10:[f1<2.6500001] yes=17,no=18,missing=17
					17:leaf=0.0626356974
					18:leaf=-0.0611451529
			6:[f0<2.6500001] yes=11,no=12,missing=11
				11:leaf=0.0633307397
				12:[f0<13.25] yes=19,no=20,missing=19
					19:[f2<2.6500001] yes=27,no=28,missing=27
						27:[f3<11.9249992] yes=37,no=38,missing=37
							37:leaf=-0.0530586615
							38:leaf=-0.00923587196
						28:leaf=-0.0650690347
					20:leaf=0.0626356974
		4:[f5<11.9249992] yes=7,no=8,missing=7
			7:leaf=0.0682589039
			8:[f4<11.9249992] yes=13,no=14,missing=13
				13:[f1<13.25] yes=21,no=22,missing=21
					21:[f0<13.25] yes=29,no=30,missing=29
						29:[f4<3.9749999] yes=39,no=40,missing=39
							39:leaf=-0.0669098496
							40:[f2<7.95000029] yes=47,no=48,missing=47
								47:[f0<2.6500001] yes=55,no=56,missing=55
									55:[f3<11.9249992] yes=63,no=64,missing=63
										63:leaf=0.0605719872
										64:leaf=-0.00142133376
									56:[f1<2.6500001] yes=65,no=66,missing=65
										65:leaf=0.00489114597
										66:leaf=-0.0660932139
								48:leaf=-0.0628457889
						30:[f1<2.6500001] yes=41,no=42,missing=41
							41:leaf=0.0605022907
							42:[f2<2.6500001] yes=49,no=50,missing=49
								49:leaf=0.00244464283
								50:leaf=-0.0570818558
					22:[f0<2.6500001] yes=31,no=32,missing=31
						31:leaf=0.0609578602
						32:[f0<13.25] yes=43,no=44,missing=43
							43:[f4<3.9749999] yes=51,no=52,missing=51
								51:leaf=-0.0607077889
								52:[f2<7.95000029] yes=57,no=58,missing=57
									57:leaf=0.0246250089
									58:leaf=-0.0532095134
							44:leaf=0.0605022907
				14:[f0<13.25] yes=23,no=24,missing=23
					23:[f0<2.6500001] yes=33,no=34,missing=33
						33:leaf=0.0641893446
						34:[f1<13.25] yes=45,no=46,missing=45
							45:[f2<2.6500001] yes=53,no=54,missing=53
								53:[f3<11.9249992] yes=59,no=60,missing=59
									59:leaf=-0.0488902554
									60:leaf=0.071580857
								54:[f1<2.6500001] yes=61,no=62,missing=61
									61:[f0<7.95000029] yes=67,no=68,missing=67
										67:leaf=-0.0565049537
										68:leaf=0.052126538
									62:leaf=-0.0628867745
							46:leaf=0.0599887744
					24:leaf=0.0644598454
booster[13]:
0:[f3<3.9749999] yes=1,no=2,missing=1
	1:leaf=0.0671534762
	2:[f5<3.9749999] yes=3,no=4,missing=3
		3:[f1<13.25] yes=5,no=6,missing=5
			5:[f0<13.25] yes=9,no=10,missing=9
				9:[f2<2.6500001] yes=15,no=16,missing=15
					15:[f4<11.9249992] yes=25,no=26,missing=25
						25:leaf=-0.0610809438
						26:[f3<11.9249992] yes=35,no=36,missing=35
							35:leaf=-0.0518668778
							36:leaf=0.0558172278
					16:leaf=-0.0656624064
				10:[f1<2.6500001] yes=17,no=18,missing=17
					17:leaf=0.061354477
					18:leaf=-0.0597646348
			6:[f0<2.6500001] yes=11,no=12,missing=11
				11:leaf=0.0620490871
				12:[f0<13.25] yes=19,no=20,missing=19
					19:[f4<11.9249992] yes=27,no=28,missing=27
						27:leaf=-0.064957425
						28:[f2<7.95000029] yes=37,no=38,missing=37
							37:leaf=-0.0100892242
							38:leaf=-0.0529157035
					20:leaf=0.061354477
		4:[f5<11.9249992] yes=7,no=8,missing=7
			7:leaf=0.0670142397
			8:[f4<11.9249992] yes=13,no=14,missing=13
				13:[f1<13.25] yes=21,no=22,missing=21
					21:[f0<13.25] yes=29,no=30,missing=29
						29:[f2<2.6500001] yes=39,no=40,missing=39
							39:[f4<3.9749999] yes=47,no=48,missing=47
								47:leaf=-0.0568102859
								48:[f0<2.6500001] yes=57,no=58,missing=57
									57:leaf=0.0543150268
									58:leaf=-0.0291746389
							40:[f2<7.95000029] yes=49,no=50,missing=49
								49:[f3<11.9249992] yes=59,no=60,missing=59
									59:[f4<3.9749999] yes=69,no=70,missing=69
										69:leaf=-0.0525301695
										70:leaf=0.000154657624
									60:leaf=-0.0616257563
								50:leaf=-0.0644442663
						30:[f1<2.6500001] yes=41,no=42,missing=41
							41:leaf=0.0592302382
							42:[f4<3.9749999] yes=51,no=52,missing=51
								51:leaf=-0.0647918209
								52:[f2<7.95000029] yes=61,no=62,missing=61
									61:leaf=0.0370827131
									62:leaf=-0.054366868
					22:[f0<2.6500001] yes=31,no=32,missing=31
						31:leaf=0.059682887
						32:[f0<13.25] yes=43,no=44,missing=43
							43:[f4<3.9749999] yes=53,no=54,missing=53
								53:leaf=-0.0593652539
								54:[f2<7.95000029] yes=63,no=64,missing=63
									63:leaf=0.0237266868
									64:leaf=-0.0520394146
							44:leaf=0.0592302382
				14:[f0<13.25] yes=23,no=24,missing=23
					23:[f0<2.6500001] yes=33,no=34,missing=33
						33:leaf=0.0629089996
						34:[f1<13.25] yes=45,no=46,missing=45
							45:[f1<2.6500001] yes=55,no=56,missing=55
								55:[f0<7.95000029] yes=65,no=66,missing=65
									65:leaf=-0.0384647809
									66:leaf=0.0554326288
								56:[f2<2.6500001] yes=67,no=68,missing=67
									67:leaf=-0.000920251419
									68:leaf=-0.0616052523
							46:leaf=0.0587205961
					24:leaf=0.0631803274
booster[14]:
0:[f3<3.9749999] yes=1,no=2,missing=1
	1:leaf=0.0660121962
	2:[f5<3.9749999] yes=3,no=4,missing=3
		3:[f1<13.25] yes=5,no=6,missing=5
			5:[f0<13.25] yes=9,no=10,missing=9
				9:[f2<2.6500001] yes=15,no=16,missing=15
					15:[f4<11.9249992] yes=25,no=26,missing=25
						25:leaf=-0.0598820932
						26:[f3<11.9249992] yes=35,no=36,missing=35
							35:leaf=-0.0507646501
							36:leaf=0.0546509735
					16:leaf=-0.0644962639
				10:[f1<2.6500001] yes=17,no=18,missing=17
					17:leaf=0.0601558499
					18:leaf=-0.0584656
			6:[f0<2.6500001] yes=11,no=12,missing=11
				11:leaf=0.0608519912
				12:[f0<13.25] yes=19,no=20,missing=19
					19:[f2<2.6500001] yes=27,no=28,missing=27
						27:[f3<11.9249992] yes=37,no=38,missing=37
							37:leaf=-0.0509614237
							38:leaf=-0.00727149704
						28:leaf=-0.0626791865
					20:leaf=0.0601558499
		4:[f5<11.9249992] yes=7,no=8,missing=7
			7:leaf=0.0658703223
			8:[f4<11.9249992] yes=13,no=14,missing=13
				13:[f1<13.25] yes=21,no=22,missing=21
					21:[f0<13.25] yes=29,no=30,missing=29
						29:[f4<3.9749999] yes=39,no=40,missing=39
							39:leaf=-0.0643884167
							40:[f2<2.6500001] yes=47,no=48,missing=47
								47:[f0<2.6500001] yes=55,no=56,missing=55
									55:leaf=0.0530883782
									56:leaf=-0.0281673223
								48:[f2<7.95000029] yes=57,no=58,missing=57
									57:[f3<11.9249992] yes=67,no=68,missing=67
										67:leaf=0.000148379346
										68:leaf=-0.0553202145
									58:leaf=-0.0603756607
						30:[f1<2.6500001] yes=41,no=42,missing=41
							41:leaf=0.0580350645
							42:[f4<3.9749999] yes=49,no=50,missing=49
								49:leaf=-0.063309595
								50:[f2<7.95000029] yes=59,no=60,missing=59
									59:leaf=0.0356253535
									60:leaf=-0.053235013
					22:[f0<2.6500001] yes=31,no=32,missing=31
						31:leaf=0.0584859923
						32:[f0<13.25] yes=43,no=44,missing=43
							43:[f3<11.9249992] yes=51,no=52,missing=51
								51:[f4<3.9749999] yes=61,no=62,missing=61
									61:leaf=-0.047789719
									62:leaf=0.0280289557
								52:leaf=-0.0546590351
							44:leaf=0.0580350645
				14:[f0<13.25] yes=23,no=24,missing=23
					23:[f0<2.6500001] yes=33,no=34,missing=33
						33:leaf=0.0617157035
						34:[f1<13.25] yes=45,no=46,missing=45
							45:[f2<2.6500001] yes=53,no=54,missing=53
								53:[f3<11.9249992] yes=63,no=64,missing=63
									63:leaf=-0.0473964289
									64:leaf=0.0694457218
								54:[f1<2.6500001] yes=65,no=66,missing=65
									65:[f0<7.95000029] yes=69,no=70,missing=69
										69:leaf=-0.0542587228
										70:leaf=0.0498602055
									66:leaf=-0.0604070239
							46:leaf=0.0575279891
					24:leaf=0.0619886778
booster[15]:
0:[f3<3.9749999] yes=1,no=2,missing=1
	1:leaf=0.0649613068
	2:[f5<3.9749999] yes=3,no=4,missing=3
		3:[f1<13.25] yes=5,no=6,missing=5
			5:[f0<13.25] yes=9,no=10,missing=9
				9:[f2<2.6500001] yes=15,no=16,missing=15
					15:[f4<11.9249992] yes=25,no=26,missing=25
						25:leaf=-0.0587561913
						26:[f3<11.9249992] yes=37,no=38,missing=37
							37:leaf=-0.0497157387
							38:leaf=0.0535461493
					16:leaf=-0.0634155199
				10:[f1<2.6500001] yes=17,no=18,missing=17
					17:leaf=0.0590308383
					18:[f2<2.6500001] yes=27,no=28,missing=27
						27:leaf=-0.032267794
						28:leaf=-0.0619953834
			6:[f0<2.6500001] yes=11,no=12,missing=11
				11:leaf=0.059730202
				12:[f0<13.25] yes=19,no=20,missing=19
					19:[f4<11.9249992] yes=29,no=30,missing=29
						29:leaf=-0.0627035648
						30:[f2<7.95000029] yes=39,no=40,missing=39
							39:leaf=-0.00824813824
							40:leaf=-0.0506412499
					20:leaf=0.0590308383
		4:[f5<11.9249992] yes=7,no=8,missing=7
			7:leaf=0.0648163185
			8:[f4<11.9249992] yes=13,no=14,missing=13
				13:[f1<13.25] yes=21,no=22,missing=21
					21:[f0<13.25] yes=31,no=32,missing=31
						31:[f4<3.9749999] yes=41,no=42,missing=41
							41:leaf=-0.0632078275
							42:[f2<2.6500001] yes=49,no=50,missing=49
								49:[f0<2.6500001] yes=57,no=58,missing=57
									57:leaf=0.0519262254
									58:leaf=-0.0271981899
								50:[f2<7.95000029] yes=59,no=60,missing=59
									59:[f3<11.9249992] yes=67,no=68,missing=67
										67:leaf=0.000142360775
										68:leaf=-0.0540380441
									60:leaf=-0.0592828281
						32:[f1<2.6500001] yes=43,no=44,missing=43
							43:leaf=0.0569086187
							44:[f2<2.6500001] yes=51,no=52,missing=51
								51:leaf=0.00344038359
								52:leaf=-0.0536521375
					22:[f0<2.6500001] yes=33,no=34,missing=33
						33:leaf=0.05735882
						34:[f0<13.25] yes=45,no=46,missing=45
							45:[f2<2.6500001] yes=53,no=54,missing=53
								53:leaf=0.0025001578
								54:[f3<11.9249992] yes=61,no=62,missing=61
									61:leaf=-0.0157228969
									62:leaf=-0.0630771816
							46:leaf=0.0569086187
				14:[f0<13.25] yes=23,no=24,missing=23
					23:[f0<2.6500001] yes=35,no=36,missing=35
						35:leaf=0.0605999045
						36:[f1<13.25] yes=47,no=48,missing=47
							47:[f2<2.6500001] yes=55,no=56,missing=55
								55:[f3<11.9249992] yes=63,no=64,missing=63
									63:leaf=-0.0457494333
									64:leaf=0.0672768429
								56:[f1<2.6500001] yes=65,no=66,missing=65
									65:[f0<7.95000029] yes=69,no=70,missing=69
										69:leaf=-0.0530326739
										70:leaf=0.0488532707
									66:leaf=-0.0592830144
							48:leaf=0.0564029776
					24:leaf=0.0608752258
booster[16]:
0:[f3<3.9749999] yes=1,no=2,missing=1
	1:leaf=0.0639914125
	2:[f5<3.9749999] yes=3,no=4,missing=3
		3:[f1<13.25] yes=5,no=6,missing=5
			5:[f0<13.25] yes=9,no=10,missing=9
				9:[f2<2.6500001] yes=15,no=16,missing=15
					15:[f4<11.9249992] yes=25,no=26,missing=25
						25:leaf=-0.0576954968
						26:[f3<11.9249992] yes=37,no=38,missing=37
							37:leaf=-0.0487153493
							38:leaf=0.0524967425
					16:leaf=-0.0624110512
				10:[f1<2.6500001] yes=17,no=18,missing=17
					17:leaf=0.0579715855
					18:[f2<2.6500001] yes=27,no=28,missing=27
						27:leaf=-0.031395793
						28:leaf=-0.0608994067
			6:[f0<2.6500001] yes=11,no=12,missing=11
				11:leaf=0.058675658
				12:[f0<13.25] yes=19,no=20,missing=19
					19:[f2<2.6500001] yes=29,no=30,missing=29
						29:[f3<11.9249992] yes=39,no=40,missing=39
							39:leaf=-0.0490735993
							40:leaf=-0.00545580452
						30:leaf=-0.0605945848
					20:leaf=0.0579715855
		4:[f5<11.9249992] yes=7,no=8,missing=7
			7:leaf=0.0638428107
			8:[f4<11.9249992] yes=13,no=14,missing=13
				13:[f1<13.25] yes=21,no=22,missing=21
					21:[f0<13.25] yes=31,no=32,missing=31
						31:[f4<3.9749999] yes=41,no=42,missing=41
							41:leaf=-0.0621083081
							42:[f2<7.95000029] yes=49,no=50,missing=49
								49:[f0<2.6500001] yes=57,no=58,missing=57
									57:[f3<11.9249992] yes=67,no=68,missing=67
										67:leaf=0.057679642
										68:leaf=-0.00113904604
									58:[f1<2.6500001] yes=69,no=70,missing=69
										69:leaf=0.00797867309
										70:leaf=-0.0629717931
								50:leaf=-0.0582541823
						32:[f1<2.6500001] yes=43,no=44,missing=43
							43:leaf=0.055843737
							44:[f4<3.9749999] yes=51,no=52,missing=51
								51:leaf=-0.0613122098
								52:[f2<7.95000029] yes=59,no=60,missing=59
									59:leaf=0.0351788998
									60:leaf=-0.051108893
					22:[f0<2.6500001] yes=33,no=34,missing=33
						33:leaf=0.0562940799
						34:[f0<13.25] yes=45,no=46,missing=45
							45:[f4<3.9749999] yes=53,no=54,missing=53
								53:leaf=-0.0565253384
								54:[f2<7.95000029] yes=61,no=62,missing=61
									61:leaf=0.0239783041
									62:leaf=-0.0495057404
							46:leaf=0.055843737
				14:[f0<13.25] yes=23,no=24,missing=23
					23:[f0<2.6500001] yes=35,no=36,missing=35
						35:leaf=0.0595532767
						36:[f1<13.25] yes=47,no=48,missing=47
							47:[f2<2.6500001] yes=55,no=56,missing=55
								55:[f3<11.9249992] yes=63,no=64,missing=63
									63:leaf=-0.044188872
									64:leaf=0.0652682409
								56:[f1<2.6500001] yes=65,no=66,missing=65
									65:[f0<7.95000029] yes=71,no=72,missing=71
										71:leaf=-0.051871486
										72:leaf=0.0478911735
									66:leaf=-0.0582252927
							48:leaf=0.0553385913
					24:leaf=0.0598316006
booster[17]:
0:[f3<3.9749999] yes=1,no=2,missing=1
	1:leaf=0.0630943105
	2:[f5<3.9749999] yes=3,no=4,missing=3
		3:[f1<13.25] yes=5,no=6,missing=5
			5:[f0<13.25] yes=9,no=10,missing=9
				9:[f2<2.6500001] yes=15,no=16,missing=15
					15:[f4<11.9249992] yes=25,no=26,missing=25
						25:leaf=-0.0566932037
						26:[f3<11.9249992] yes=37,no=38,missing=37
							37:leaf=-0.0477592461
							38:leaf=0.0514974296
					16:leaf=-0.0614749491
				10:[f1<2.6500001] yes=17,no=18,missing=17
					17:leaf=0.0569712408
					18:[f2<2.6500001] yes=27,no=28,missing=27
						27:leaf=-0.03054877
						28:leaf=-0.0598721914
			6:[f0<2.6500001] yes=11,no=12,missing=11
				11:leaf=0.0576813035
				12:[f0<13.25] yes=19,no=20,missing=19
					19:[f4<11.9249992] yes=29,no=30,missing=29
						29:leaf=-0.0607306361
						30:[f2<7.95000029] yes=39,no=40,missing=39
							39:leaf=-0.00654279161
							40:leaf=-0.0485771112
					20:leaf=0.0569712408
		4:[f5<11.9249992] yes=7,no=8,missing=7
			7:leaf=0.062941663
			8:[f4<11.9249992] yes=13,no=14,missing=13
				13:[f1<13.25] yes=21,no=22,missing=21
					21:[f2<2.6500001] yes=31,no=32,missing=31
						31:[f4<3.9749999] yes=41,no=42,missing=41
							41:[f1<2.6500001] yes=49,no=50,missing=49
								49:leaf=-0.0239694603
								50:leaf=-0.0569220297
							42:[f0<13.25] yes=51,no=52,missing=51
								51:[f0<2.6500001] yes=61,no=62,missing=61
									61:leaf=0.0503360927
									62:leaf=-0.0249378458
								52:leaf=0.058329042
						32:[f0<13.25] yes=43,no=44,missing=43
							43:[f2<7.95000029] yes=53,no=54,missing=53
								53:[f3<11.9249992] yes=63,no=64,missing=63
									63:[f0<2.6500001] yes=71,no=72,missing=71
										71:leaf=0.0113805849
										72:leaf=-0.0404055528
									64:leaf=-0.0572450273
								54:leaf=-0.0602049343
							44:[f1<2.6500001] yes=55,no=56,missing=55
								55:leaf=0.0514492877
								56:leaf=-0.0515313707
					22:[f0<2.6500001] yes=33,no=34,missing=33
						33:leaf=0.0552853718
						34:[f0<13.25] yes=45,no=46,missing=45
							45:[f2<2.6500001] yes=57,no=58,missing=57
								57:leaf=0.003132432
								58:[f3<11.9249992] yes=65,no=66,missing=65
									65:leaf=-0.0142865023
									66:leaf=-0.0612276904
							46:leaf=0.0548341386
				14:[f0<13.25] yes=23,no=24,missing=23
					23:[f0<2.6500001] yes=35,no=36,missing=35
						35:leaf=0.0585685261
						36:[f1<13.25] yes=47,no=48,missing=47
							47:[f1<2.6500001] yes=59,no=60,missing=59
								59:[f0<7.95000029] yes=67,no=68,missing=67
									67:leaf=-0.0344390236
									68:leaf=0.0521555357
								60:[f2<2.6500001] yes=69,no=70,missing=69
									69:leaf=-0.00216474221
									70:leaf=-0.0572269335
							48:leaf=0.0543286763
					24:leaf=0.0588504151
booster[18]:
0:[f3<3.9749999] yes=1,no=2,missing=1
	1:leaf=0.0622628592
	2:[f5<3.9749999] yes=3,no=4,missing=3
		3:[f1<13.25] yes=5,no=6,missing=5
			5:[f0<13.25] yes=9,no=10,missing=9
				9:[f2<2.6500001] yes=15,no=16,missing=15
					15:[f4<11.9249992] yes=25,no=26,missing=25
						25:leaf=-0.0557433255
						26:[f3<11.9249992] yes=37,no=38,missing=37
							37:leaf=-0.0468436554
							38:leaf=0.0505435169
					16:leaf=-0.0606002584
				10:[f1<2.6500001] yes=17,no=18,missing=17
					17:leaf=0.0560237356
					18:[f2<2.6500001] yes=27,no=28,missing=27
						27:leaf=-0.0297254566
						28:leaf=-0.0589065216
			6:[f0<2.6500001] yes=11,no=12,missing=11
				11:leaf=0.0567409173
				12:[f0<13.25] yes=19,no=20,missing=19
					19:[f2<2.6500001] yes=29,no=30,missing=29
						29:[f3<11.9249992] yes=39,no=40,missing=39
							39:leaf=-0.0473601334
							40:leaf=-0.00377390208
						30:leaf=-0.0587557815
					20:leaf=0.0560237356
		4:[f5<11.9249992] yes=7,no=8,missing=7
			7:leaf=0.0621057115
			8:[f4<11.9249992] yes=13,no=14,missing=13
				13:[f1<13.25] yes=21,no=22,missing=21
					21:[f2<2.6500001] yes=31,no=32,missing=31
						31:[f4<3.9749999] yes=41,no=42,missing=41
							41:[f1<2.6500001] yes=49,no=50,missing=49
								49:leaf=-0.0231926758
								50:leaf=-0.0557069145
							42:[f0<13.25] yes=51,no=52,missing=51
								51:[f0<2.6500001] yes=61,no=62,missing=61
									61:leaf=0.0493085496
									62:leaf=-0.0240862127
								52:leaf=0.0568878427
						32:[f0<13.25] yes=43,no=44,missing=43
							43:[f2<7.95000029] yes=53,no=54,missing=53
								53:[f3<11.9249992] yes=63,no=64,missing=63
									63:[f0<2.6500001] yes=71,no=72,missing=71
										71:leaf=0.01095632
										72:leaf=-0.0392235033
									64:leaf=-0.0561119393
								54:leaf=-0.0592945777
							44:[f1<2.6500001] yes=55,no=56,missing=55
								55:leaf=0.0505313687
								56:leaf=-0.0503357314
					22:[f0<2.6500001] yes=33,no=34,missing=33
						33:leaf=0.0543270409
						34:[f0<13.25] yes=45,no=46,missing=45
							45:[f4<3.9749999] yes=57,no=58,missing=57
								57:leaf=-0.0549748205
								58:[f2<7.95000029] yes=65,no=66,missing=65
									65:leaf=0.0238848682
									66:leaf=-0.0476844534
							46:leaf=0.0538743138
				14:[f0<13.25] yes=23,no=24,missing=23
					23:[f0<2.6500001] yes=35,no=36,missing=35
						35:leaf=0.0576392487
						36:[f1<13.25] yes=47,no=48,missing=47
							47:[f2<2.6500001] yes=59,no=60,missing=59
								59:[f3<11.9249992] yes=67,no=68,missing=67
									67:leaf=-0.0429235511
									68:leaf=0.0636220649
								60:[f1<2.6500001] yes=69,no=70,missing=69
									69:[f0<7.95000029] yes=73,no=74,missing=73
										73:leaf=-0.0500542521
										74:leaf=0.0459902398
									70:leaf=-0.056281805
							48:leaf=0.0533678494
					24:leaf=0.0579251945
booster[19]:
0:[f3<3.9749999] yes=1,no=2,missing=1
	1:leaf=0.0614907816
	2:[f5<3.9749999] yes=3,no=4,missing=3
		3:[f1<13.25] yes=5,no=6,missing=5
			5:[f0<13.25] yes=9,no=10,missing=9
				9:[f2<2.6500001] yes=15,no=16,missing=15
					15:[f4<11.9249992] yes=25,no=26,missing=25
						25:leaf=-0.0548405834
						26:[f3<11.9249992] yes=37,no=38,missing=37
							37:leaf=-0.0459652096
							38:leaf=0.049630858
					16:leaf=-0.0597808547
				10:[f1<2.6500001] yes=17,no=18,missing=17
					17:leaf=0.055123724
					18:[f2<2.6500001] yes=27,no=28,missing=27
						27:leaf=-0.028924698
						28:leaf=-0.0579960309
			6:[f0<2.6500001] yes=11,no=12,missing=11
				11:leaf=0.055849012
				12:[f0<13.25] yes=19,no=20,missing=19
					19:[f4<11.9249992] yes=29,no=30,missing=29
						29:leaf=-0.05898536
						30:[f3<11.9249992] yes=39,no=40,missing=39
							39:leaf=-0.0480843149
							40:leaf=-0.00515936827
					20:leaf=0.055123724
		4:[f5<11.9249992] yes=7,no=8,missing=7
			7:leaf=0.0613287203
			8:[f4<11.9249992] yes=13,no=14,missing=13
				13:[f1<13.25] yes=21,no=22,missing=21
					21:[f2<2.6500001] yes=31,no=32,missing=31
						31:[f4<3.9749999] yes=41,no=42,missing=41
							41:[f1<2.6500001] yes=49,no=50,missing=49
								49:leaf=-0.0224401355
								50:leaf=-0.0545552783
							42:[f0<13.25] yes=51,no=52,missing=51
								51:[f0<2.6500001] yes=61,no=62,missing=61
									61:leaf=0.0483272225
									62:leaf=-0.0232644361
								52:leaf=0.0555289872
						32:[f0<13.25] yes=43,no=44,missing=43
							43:[f2<7.95000029] yes=53,no=54,missing=53
								53:[f3<11.9249992] yes=63,no=64,missing=63
									63:[f0<2.6500001] yes=71,no=72,missing=71
										71:leaf=0.0105484435
										72:leaf=-0.0380871668
									64:leaf=-0.0550378561
								54:leaf=-0.0584372841
							44:[f1<2.6500001] yes=55,no=56,missing=55
								55:leaf=0.0496519171
								56:leaf=-0.0491874777
					22:[f0<2.6500001] yes=33,no=34,missing=33
						33:leaf=0.0534140952
						34:[f0<13.25] yes=45,no=46,missing=45
							45:[f4<3.9749999] yes=57,no=58,missing=57
								57:leaf=-0.0539554618
								58:[f2<7.95000029] yes=65,no=66,missing=65
									65:leaf=0.0230175741
									66:leaf=-0.0467722528
							46:leaf=0.052959349
				14:[f0<13.25] yes=23,no=24,missing=23
					23:[f0<2.6500001] yes=35,no=36,missing=35
						35:leaf=0.0567597859
						36:[f1<13.25] yes=47,no=48,missing=47
							47:[f2<2.6500001] yes=59,no=60,missing=59
								59:[f3<11.9249992] yes=67,no=68,missing=67
									67:leaf=-0.0415080898
									68:leaf=0.0618723705
								60:[f1<2.6500001] yes=69,no=70,missing=69
									69:[f0<7.95000029] yes=73,no=74,missing=73
										73:leaf=-0.0490384437
										74:leaf=0.0451449826
									70:leaf=-0.0553845353
							48:leaf=0.0524513014
					24:leaf=0.0570502244
booster[20]:
0:[f3<3.9749999] yes=1,no=2,missing=1
	1:leaf=0.0607725456
	2:[f5<3.9749999] yes=3,no=4,missing=3
		3:[f1<13.25] yes=5,no=6,missing=5
			5:[f0<13.25] yes=9,no=10,missing=9
				9:[f2<2.6500001] yes=15,no=16,missing=15
					15:[f4<11.9249992] yes=25,no=26,missing=25
						25:leaf=-0.0539802909
						26:[f3<11.9249992] yes=37,no=38,missing=37
							37:leaf=-0.0451209098
							38:leaf=0.048755724
					16:leaf=-0.0590113215
				10:[f1<2.6500001] yes=17,no=18,missing=17
					17:leaf=0.0542664826
					18:[f2<2.6500001] yes=27,no=28,missing=27
						27:leaf=-0.0281454604
						28:leaf=-0.0571351051
			6:[f0<2.6500001] yes=11,no=12,missing=11
				11:leaf=0.0550007187
				12:[f0<13.25] yes=19,no=20,missing=19
					19:[f2<2.6500001] yes=29,no=30,missing=29
						29:[f3<11.9249992] yes=39,no=40,missing=39
							39:leaf=-0.0454524346
							40:leaf=-0.00221120589
						30:leaf=-0.0571688488
					20:leaf=0.0542664826
		4:[f5<11.9249992] yes=7,no=8,missing=7
			7:leaf=0.0606051572
			8:[f4<11.9249992] yes=13,no=14,missing=13
				13:[f1<13.25] yes=21,no=22,missing=21
					21:[f2<2.6500001] yes=31,no=32,missing=31
						31:[f4<3.9749999] yes=41,no=42,missing=41
							41:[f1<2.6500001] yes=49,no=50,missing=49
								49:leaf=-0.0217110403
								50:leaf=-0.0534610562
							42:[f0<13.25] yes=51,no=52,missing=51
								51:[f0<2.6500001] yes=61,no=62,missing=61
									61:leaf=0.0473881587
									62:leaf=-0.0224711131
								52:leaf=0.0542445593
						32:[f0<13.25] yes=43,no=44,missing=43
							43:[f2<7.95000029] yes=53,no=54,missing=53
								53:[f3<11.9249992] yes=63,no=64,missing=63
									63:[f4<3.9749999] yes=71,no=72,missing=71
										71:leaf=-0.0469479859
										72:leaf=0.00302835437
									64:leaf=-0.0540169887
								54:leaf=-0.057627745
							44:[f1<2.6500001] yes=55,no=56,missing=55
								55:leaf=0.0488074832
								56:leaf=-0.048081927
					22:[f0<2.6500001] yes=33,no=34,missing=33
						33:leaf=0.0525421202
						34:[f0<13.25] yes=45,no=46,missing=45
							45:[f3<11.9249992] yes=57,no=58,missing=57
								57:[f0<7.95000029] yes=65,no=66,missing=65
									65:leaf=-0.00634846231
									66:leaf=0.000710342021
								58:leaf=-0.049144756
							46:leaf=0.0520849116
				14:[f0<13.25] yes=23,no=24,missing=23
					23:[f0<2.6500001] yes=35,no=36,missing=35
						35:leaf=0.0559251085
						36:[f1<13.25] yes=47,no=48,missing=47
							47:[f1<2.6500001] yes=59,no=60,missing=59
								59:[f0<7.95000029] yes=67,no=68,missing=67
									67:leaf=-0.0318499841
									68:leaf=0.0500672869
								60:[f2<2.6500001] yes=69,no=70,missing=69
									69:leaf=-0.00288273511
									70:leaf=-0.0545303188
							48:leaf=0.0515748262
					24:leaf=0.0562204681
booster[21]:
0:[f3<3.9749999] yes=1,no=2,missing=1
	1:leaf=0.0601032563
	2:[f5<3.9749999] yes=3,no=4,missing=3
		3:[f1<13.25] yes=5,no=6,missing=5
			5:[f0<13.25] yes=9,no=10,missing=9
				9:[f2<2.6500001] yes=15,no=16,missing=15
					15:[f4<11.9249992] yes=25,no=26,missing=25
						25:leaf=-0.0531582721
						26:[f3<11.9249992] yes=37,no=38,missing=37
							37:leaf=-0.0443080664
							38:leaf=0.0479148477
					16:leaf=-0.0582868271
				10:[f1<2.6500001] yes=17,no=18,missing=17
					17:leaf=0.0534477904
					18:[f2<2.6500001] yes=27,no=28,missing=27
						27:leaf=-0.0273868181
						28:leaf=-0.0563187711
			6:[f0<2.6500001] yes=11,no=12,missing=11
				11:leaf=0.0541917086
				12:[f0<13.25] yes=19,no=20,missing=19
					19:[f4<11.9249992] yes=29,no=30,missing=29
						29:leaf=-0.0574264489
						30:[f3<11.9249992] yes=39,no=40,missing=39
							39:leaf=-0.0462466888
							40:leaf=-0.00353879901
					20:leaf=0.0534477904
		4:[f5<11.9249992] yes=7,no=8,missing=7
			7:leaf=0.0599301234
			8:[f4<11.9249992] yes=13,no=14,missing=13
				13:[f1<13.25] yes=21,no=22,missing=21
					21:[f2<2.6500001] yes=31,no=32,missing=31
						31:[f4<3.9749999] yes=41,no=42,missing=41
							41:[f1<2.6500001] yes=49,no=50,missing=49
								49:leaf=-0.0210046433
								50:leaf=-0.0524189137
							42:[f0<13.25] yes=51,no=52,missing=51
								51:[f0<2.6500001] yes=61,no=62,missing=61
									61:leaf=0.0464878418
									62:leaf=-0.0217049569
								52:leaf=0.0530276075
						32:[f0<13.25] yes=43,no=44,missing=43
							43:[f2<7.95000029] yes=53,no=54,missing=53
								53:[f3<11.9249992] yes=63,no=64,missing=63
									63:[f4<3.9749999] yes=73,no=74,missing=73
										73:leaf=-0.0460652635
										74:leaf=0.00290534459
									64:leaf=-0.053044226
								54:leaf=-0.0568612181
							44:[f1<2.6500001] yes=55,no=56,missing=55
								55:leaf=0.0479949787
								56:[f2<7.95000029] yes=65,no=66,missing=65
									65:leaf=-0.0234582517
									66:leaf=-0.0532300137
					22:[f0<2.6500001] yes=33,no=34,missing=33
						33:leaf=0.0517071895
						34:[f0<13.25] yes=45,no=46,missing=45
							45:[f4<3.9749999] yes=57,no=58,missing=57
								57:leaf=-0.0525018834
								58:[f2<7.95000029] yes=67,no=68,missing=67
									67:leaf=0.0230416302
									68:leaf=-0.0453432053
							46:leaf=0.0512471609
				14:[f0<13.25] yes=23,no=24,missing=23
					23:[f0<2.6500001] yes=35,no=36,missing=35
						35:leaf=0.0551307686
						36:[f1<13.25] yes=47,no=48,missing=47
							47:[f2<2.6500001] yes=59,no=60,missing=59
								59:[f3<11.9249992] yes=69,no=70,missing=69
									69:leaf=-0.040362265
									70:leaf=0.0604576133
								60:[f1<2.6500001] yes=71,no=72,missing=71
									71:[f0<7.95000029] yes=75,no=76,missing=75
										75:leaf=-0.0474506319
										76:leaf=0.0434461348
									72:leaf=-0.0537149087
							48:leaf=0.0507346354
					24:leaf=0.0554314032
booster[22]:
0:[f3<3.9749999] yes=1,no=2,missing=1
	1:leaf=0.0594785698
	2:[f5<3.9749999] yes=3,no=4,missing=3
		3:[f1<13.25] yes=5,no=6,missing=5
			5:[f0<13.25] yes=9,no=10,missing=9
				9:[f2<2.6500001] yes=15,no=16,missing=15
					15:[f4<11.9249992] yes=25,no=26,missing=25
						25:leaf=-0.0523708165
						26:[f3<11.9249992] yes=37,no=38,missing=37
							37:leaf=-0.0435242765
							38:leaf=0.0471053086
					16:leaf=-0.057603091
				10:[f1<2.6500001] yes=17,no=18,missing=17
					17:leaf=0.0526638813
					18:[f2<2.6500001] yes=27,no=28,missing=27
						27:leaf=-0.0266479254
						28:leaf=-0.0555425957
			6:[f0<2.6500001] yes=11,no=12,missing=11
				11:leaf=0.0534181371
				12:[f0<13.25] yes=19,no=20,missing=19
					19:[f2<2.6500001] yes=29,no=30,missing=29
						29:[f3<11.9249992] yes=39,no=40,missing=39
							39:leaf=-0.0436894931
							40:leaf=-0.000762430951
						30:leaf=-0.0557420813
					20:leaf=0.0526638813
		4:[f5<11.9249992] yes=7,no=8,missing=7
			7:leaf=0.0592992678
			8:[f4<11.9249992] yes=13,no=14,missing=13
				13:[f1<13.25] yes=21,no=22,missing=21
					21:[f2<2.6500001] yes=31,no=32,missing=31
						31:[f4<3.9749999] yes=41,no=42,missing=41
							41:[f1<2.6500001] yes=49,no=50,missing=49
								49:leaf=-0.0203202181
								50:leaf=-0.0514240973
							42:[f0<13.25] yes=51,no=52,missing=51
								51:[f0<2.6500001] yes=61,no=62,missing=61
									61:leaf=0.0456231274
									62:leaf=-0.0209647845
								52:leaf=0.0518719666
						32:[f0<13.25] yes=43,no=44,missing=43
							43:[f2<7.95000029] yes=53,no=54,missing=53
								53:[f3<11.9249992] yes=63,no=64,missing=63
									63:[f0<2.6500001] yes=73,no=74,missing=73
										73:leaf=0.0117229084
										74:leaf=-0.0365375541
									64:leaf=-0.0521150306
								54:leaf=-0.0561334863
							44:[f1<2.6500001] yes=55,no=56,missing=55
								55:leaf=0.0472116694
								56:[f2<7.95000029] yes=65,no=66,missing=65
									65:leaf=-0.0227839854
									66:leaf=-0.0523864627
					22:[f0<2.6500001] yes=33,no=34,missing=33
						33:leaf=0.0509058014
						34:[f0<13.25] yes=45,no=46,missing=45
							45:[f2<2.6500001] yes=57,no=58,missing=57
								57:leaf=0.00586335128
								58:[f3<11.9249992] yes=67,no=68,missing=67
									67:leaf=-0.0112545164
									68:leaf=-0.0580931082
							46:leaf=0.0504426472
				14:[f0<13.25] yes=23,no=24,missing=23
					23:[f0<2.6500001] yes=35,no=36,missing=35
						35:leaf=0.0543727651
						36:[f1<13.25] yes=47,no=48,missing=47
							47:[f2<2.6500001] yes=59,no=60,missing=59
								59:[f3<11.9249992] yes=69,no=70,missing=69
									69:leaf=-0.039068602
									70:leaf=0.0589120202
								60:[f1<2.6500001] yes=71,no=72,missing=71
									71:[f0<7.95000029] yes=75,no=76,missing=75
										75:leaf=-0.046547737
										76:leaf=0.0426918529
									72:leaf=-0.0529345088
							48:leaf=0.0499273576
					24:leaf=0.0546790026
booster[23]:
0:[f3<3.9749999] yes=1,no=2,missing=1
	1:leaf=0.0588946044
	2:[f5<3.9749999] yes=3,no=4,missing=3
		3:[f1<13.25] yes=5,no=6,missing=5
			5:[f0<13.25] yes=9,no=10,missing=9
				9:[f2<2.6500001] yes=15,no=16,missing=15
					15:[f4<11.9249992] yes=25,no=26,missing=25
						25:leaf=-0.0516146123
						26:[f3<11.9249992] yes=37,no=38,missing=37
							37:leaf=-0.042767372
							38:leaf=0.0463244468
					16:leaf=-0.0569562614
				10:[f1<2.6500001] yes=17,no=18,missing=17
					17:leaf=0.0519114137
					18:[f2<2.6500001] yes=27,no=28,missing=27
						27:leaf=-0.0259280149
						28:leaf=-0.0548026077
			6:[f0<2.6500001] yes=11,no=12,missing=11
				11:leaf=0.0526765473
				12:[f0<13.25] yes=19,no=20,missing=19
					19:[f4<11.9249992] yes=29,no=30,missing=29
						29:leaf=-0.0560208037
						30:[f2<7.95000029] yes=39,no=40,missing=39
							39:leaf=-0.000880316016
							40:leaf=-0.0439556912
					20:leaf=0.0519114137
		4:[f5<11.9249992] yes=7,no=8,missing=7
			7:leaf=0.0587087162
			8:[f4<11.9249992] yes=13,no=14,missing=13
				13:[f1<13.25] yes=21,no=22,missing=21
					21:[f0<13.25] yes=31,no=32,missing=31
						31:[f4<3.9749999] yes=41,no=42,missing=41
							41:leaf=-0.0572688952
							42:[f2<7.95000029] yes=49,no=50,missing=49
								49:[f0<2.6500001] yes=57,no=58,missing=57
									57:[f3<11.9249992] yes=67,no=68,missing=67
										67:leaf=0.053660471
										68:leaf=-0.000356534903
									58:[f1<2.6500001] yes=69,no=70,missing=69
										69:leaf=0.0153723005
										70:leaf=-0.058206588
								50:leaf=-0.052135881
						32:[f1<2.6500001] yes=43,no=44,missing=43
							43:leaf=0.0511354692
							44:[f4<3.9749999] yes=51,no=52,missing=51
								51:leaf=-0.0545336269
								52:[f2<7.95000029] yes=59,no=60,missing=59
									59:leaf=0.0324561819
									60:leaf=-0.0447799414
					22:[f0<2.6500001] yes=33,no=34,missing=33
						33:leaf=0.0501348153
						34:[f0<13.25] yes=45,no=46,missing=45
							45:[f4<3.9749999] yes=53,no=54,missing=53
								53:leaf=-0.0512706935
								54:[f2<7.95000029] yes=61,no=62,missing=61
									61:leaf=0.022889806
									62:leaf=-0.0438409932
							46:leaf=0.0496683195
				14:[f0<13.25] yes=23,no=24,missing=23
					23:[f0<2.6500001] yes=35,no=36,missing=35
						35:leaf=0.053647548
						36:[f1<13.25] yes=47,no=48,missing=47
							47:[f1<2.6500001] yes=55,no=56,missing=55
								55:[f0<7.95000029] yes=63,no=64,missing=63
									63:leaf=-0.0295601469
									64:leaf=0.0482822768
								56:[f2<2.6500001] yes=65,no=66,missing=65
									65:leaf=-0.00354115223
									66:leaf=-0.0521857403
							48:leaf=0.0491500311
					24:leaf=0.0539596677
booster[24]:
0:[f3<3.9749999] yes=1,no=2,missing=1
	1:leaf=0.0583478883
	2:[f5<3.9749999] yes=3,no=4,missing=3
		3:[f1<13.25] yes=5,no=6,missing=5
			5:[f0<13.25] yes=9,no=10,missing=9
				9:[f2<2.6500001] yes=15,no=16,missing=15
					15:[f4<11.9249992] yes=25,no=26,missing=25
						25:leaf=-0.0508866794
						26:leaf=0.00820384268
					16:leaf=-0.0563428812
				10:[f1<2.6500001] yes=17,no=18,missing=17
					17:leaf=0.0511873774
					18:[f2<2.6500001] yes=27,no=28,missing=27
						27:leaf=-0.025226403
						28:leaf=-0.0540952682
			6:[f0<2.6500001] yes=11,no=12,missing=11
				11:leaf=0.0519638322
				12:[f0<13.25] yes=19,no=20,missing=19
					19:[f2<2.6500001] yes=29,no=30,missing=29
						29:leaf=-0.0221898686
						30:leaf=-0.0543897524
					20:leaf=0.0511873774
		4:[f5<11.9249992] yes=7,no=8,missing=7
			7:leaf=0.0581549816
			8:[f4<11.9249992] yes=13,no=14,missing=13
				13:[f1<13.25] yes=21,no=22,missing=21
					21:[f2<2.6500001] yes=31,no=32,missing=31
						31:[f4<3.9749999] yes=37,no=38,missing=37
							37:[f1<2.6500001] yes=45,no=46,missing=45
								45:leaf=-0.0191142913
								46:leaf=-0.049470555
							38:[f0<13.25] yes=47,no=48,missing=47
								47:[f0<2.6500001] yes=57,no=58,missing=57
									57:leaf=0.0444085225
									58:leaf=-0.0191403162
								48:leaf=0.0500412658
						32:[f0<13.25] yes=39,no=40,missing=39
							39:[f2<7.95000029] yes=49,no=50,missing=49
								49:[f3<11.9249992] yes=59,no=60,missing=59
									59:[f4<3.9749999] yes=69,no=70,missing=69
										69:leaf=-0.0440484509
										70:leaf=0.00370167545
									60:leaf=-0.0508897565
								50:leaf=-0.0547912493
							40:[f1<2.6500001] yes=51,no=52,missing=51
								51:leaf=0.0456499569
								52:[f2<7.95000029] yes=61,no=62,missing=61
									61:leaf=-0.0219677556
									62:leaf=-0.0508336499
					22:[f0<2.6500001] yes=33,no=34,missing=33
						33:leaf=0.0493914448
						34:[f0<13.25] yes=41,no=42,missing=41
							41:[f4<3.9749999] yes=53,no=54,missing=53
								53:leaf=-0.0504164286
								54:[f3<11.9249992] yes=63,no=64,missing=63
									63:leaf=0.0284735058
									64:leaf=-0.0369619057
							42:leaf=0.0489214249
				14:[f0<13.25] yes=23,no=24,missing=23
					23:[f0<2.6500001] yes=35,no=36,missing=35
						35:leaf=0.0529519208
						36:[f1<13.25] yes=43,no=44,missing=43
							43:[f2<2.6500001] yes=55,no=56,missing=55
								55:[f3<11.9249992] yes=65,no=66,missing=65
									65:leaf=-0.0380234346
									66:leaf=0.0576773398
								56:[f1<2.6500001] yes=67,no=68,missing=67
									67:leaf=-0.00461242301
									68:leaf=-0.0514655486
							44:leaf=0.0483999662
					24:leaf=0.053270191
booster[25]:
0:[f3<3.9749999] yes=1,no=2,missing=1
	1:leaf=0.057835307
	2:[f5<3.9749999] yes=3,no=4,missing=3
		3:[f1<13.25] yes=5,no=6,missing=5
			5:[f0<13.25] yes=9,no=10,missing=9
				9:[f2<2.6500001] yes=15,no=16,missing=15
					15:[f4<11.9249992] yes=25,no=26,missing=25
						25:leaf=-0.0501843505
						26:leaf=0.007871137
					16:leaf=-0.0557598434
				10:[f1<2.6500001] yes=17,no=18,missing=17
					17:leaf=0.050489068
					18:[f2<2.6500001] yes=27,no=28,missing=27
						27:leaf=-0.0245424453
						28:leaf=-0.0534173921
			6:[f0<2.6500001] yes=11,no=12,missing=11
				11:leaf=0.0512772314
				12:[f0<13.25] yes=19,no=20,missing=19
					19:[f4<11.9249992] yes=29,no=30,missing=29
						29:leaf=-0.0546656661
						30:[f3<11.9249992] yes=37,no=38,missing=37
							37:leaf=-0.0434880517
							38:leaf=0.000287679781
					20:leaf=0.050489068
		4:[f5<11.9249992] yes=7,no=8,missing=7
			7:leaf=0.057634946
			8:[f4<11.9249992] yes=13,no=14,missing=13
				13:[f1<13.25] yes=21,no=22,missing=21
					21:[f2<2.6500001] yes=31,no=32,missing=31
						31:[f4<3.9749999] yes=39,no=40,missing=39
							39:[f1<2.6500001] yes=47,no=48,missing=47
								47:leaf=-0.0184941553
								48:leaf=-0.0485976264
							40:[f0<13.25] yes=49,no=50,missing=49
								49:[f1<2.6500001] yes=59,no=60,missing=59
									59:leaf=0.0443960801
									60:leaf=-0.0190287363
								50:leaf=0.0490250215
						32:[f0<13.25] yes=41,no=42,missing=41
							41:[f2<7.95000029] yes=51,no=52,missing=51
								51:[f3<11.9249992] yes=61,no=62,missing=61
									61:[f0<2.6500001] yes=71,no=72,missing=71
										71:leaf=0.0120030409
										72:leaf=-0.0343357958
									62:leaf=-0.0500482023
								52:leaf=-0.0541581921
							42:[f1<2.6500001] yes=53,no=54,missing=53
								53:leaf=0.044942677
								54:[f2<7.95000029] yes=63,no=64,missing=63
									63:leaf=-0.0213361084
									64:leaf=-0.0500840507
					22:[f0<2.6500001] yes=33,no=34,missing=33
						33:leaf=0.0486731865
						34:[f0<13.25] yes=43,no=44,missing=43
							43:[f2<2.6500001] yes=55,no=56,missing=55
								55:leaf=0.00713351602
								56:[f3<11.9249992] yes=65,no=66,missing=65
									65:leaf=-0.010168924
									66:leaf=-0.0560587347
							44:leaf=0.0481995158
				14:[f0<13.25] yes=23,no=24,missing=23
					23:[f0<2.6500001] yes=35,no=36,missing=35
						35:leaf=0.0522829965
						36:[f1<13.25] yes=45,no=46,missing=45
							45:[f1<2.6500001] yes=57,no=58,missing=57
								57:[f0<7.95000029] yes=67,no=68,missing=67
									67:leaf=-0.0288641006
									68:leaf=0.0475786142
								58:[f3<11.9249992] yes=69,no=70,missing=69
									69:leaf=-0.0557659082
									70:leaf=-0.0080290623
							46:leaf=0.0476747453
					24:leaf=0.0526076369
booster[26]:
0:[f3<3.9749999] yes=1,no=2,missing=1
	1:leaf=0.0573540442
	2:[f5<3.9749999] yes=3,no=4,missing=3
		3:[f1<13.25] yes=5,no=6,missing=5
			5:[f0<13.25] yes=9,no=10,missing=9
				9:[f2<2.6500001] yes=15,no=16,missing=15
					15:[f4<11.9249992] yes=25,no=26,missing=25
						25:leaf=-0.0495052375
						26:[f3<11.9249992] yes=37,no=38,missing=37
							37:leaf=-0.0423092134
							38:leaf=0.0453110524
					16:leaf=-0.0552043095
				10:[f1<2.6500001] yes=17,no=18,missing=17
					17:leaf=0.0498140827
					18:[f2<2.6500001] yes=27,no=28,missing=27
						27:leaf=-0.0238755774
						28:leaf=-0.0527660958
			6:[f0<2.6500001] yes=11,no=12,missing=11
				11:leaf=0.0506142266
				12:[f0<13.25] yes=19,no=20,missing=19
					19:[f2<2.6500001] yes=29,no=30,missing=29
						29:leaf=-0.0201341398
						30:leaf=-0.0532059968
					20:leaf=0.0498140827
		4:[f5<11.9249992] yes=7,no=8,missing=7
			7:leaf=0.0571457855
			8:[f4<11.9249992] yes=13,no=14,missing=13
				13:[f1<13.25] yes=21,no=22,missing=21
					21:[f2<2.6500001] yes=31,no=32,missing=31
						31:[f4<3.9749999] yes=39,no=40,missing=39
							39:[f0<13.25] yes=47,no=48,missing=47
								47:leaf=-0.046625752
								48:leaf=-0.0164238419
							40:[f0<13.25] yes=49,no=50,missing=49
								49:[f0<2.6500001] yes=59,no=60,missing=59
									59:leaf=0.0435916595
									60:leaf=-0.0186115056
								50:leaf=0.048052717
						32:[f0<13.25] yes=41,no=42,missing=41
							41:[f2<7.95000029] yes=51,no=52,missing=51
								51:[f3<11.9249992] yes=61,no=62,missing=61
									61:[f4<3.9749999] yes=71,no=72,missing=71
										71:leaf=-0.0431674831
										72:leaf=0.00429975567
									62:leaf=-0.0492381081
								52:leaf=-0.0535509661
							42:[f1<2.6500001] yes=53,no=54,missing=53
								53:leaf=0.0442560278
								54:[f2<7.95000029] yes=63,no=64,missing=63
									63:leaf=-0.0207224358
									64:leaf=-0.0493605658
					22:[f0<2.6500001] yes=33,no=34,missing=33
						33:leaf=0.0479777865
						34:[f0<13.25] yes=43,no=44,missing=43
							43:[f4<3.9749999] yes=55,no=56,missing=55
								55:leaf=-0.0493251868
								56:[f3<11.9249992] yes=65,no=66,missing=65
									65:leaf=0.0276240762
									66:leaf=-0.0346480496
							44:leaf=0.047500398
				14:[f0<13.25] yes=23,no=24,missing=23
					23:[f0<2.6500001] yes=35,no=36,missing=35
						35:leaf=0.0516381748
						36:[f1<13.25] yes=45,no=46,missing=45
							45:[f2<2.6500001] yes=57,no=58,missing=57
								57:[f3<11.9249992] yes=67,no=68,missing=67
									67:leaf=-0.0359674878
									68:leaf=0.05658428
								58:[f1<2.6500001] yes=69,no=70,missing=69
									69:leaf=-0.00478243968
									70:leaf=-0.0503689349
							46:leaf=0.0469722487
					24:leaf=0.0519693978
booster[27]:
0:[f3<3.9749999] yes=1,no=2,missing=1
	1:leaf=0.0569015741
	2:[f5<3.9749999] yes=3,no=4,missing=3
		3:[f1<13.25] yes=5,no=6,missing=5
			5:[f0<13.25] yes=9,no=10,missing=9
				9:[f2<2.6500001] yes=15,no=16,missing=15
					15:[f4<11.9249992] yes=25,no=26,missing=25
						25:leaf=-0.0488471799
						26:leaf=0.00736786425
					16:leaf=-0.0546737388
				10:[f1<2.6500001] yes=17,no=18,missing=17
					17:leaf=0.0491602086
					18:[f2<2.6500001] yes=27,no=28,missing=27
						27:leaf=-0.0232252534
						28:leaf=-0.0521388054
			6:[f0<2.6500001] yes=11,no=12,missing=11
				11:leaf=0.0499725714
				12:[f0<13.25] yes=19,no=20,missing=19
					19:[f2<2.6500001] yes=29,no=30,missing=29
						29:leaf=-0.0194622409
						30:leaf=-0.0525351129
					20:leaf=0.0491602086
		4:[f5<11.9249992] yes=7,no=8,missing=7
			7:leaf=0.0566849783
			8:[f4<11.9249992] yes=13,no=14,missing=13
				13:[f1<13.25] yes=21,no=22,missing=21
					21:[f2<2.6500001] yes=31,no=32,missing=31
						31:[f4<3.9749999] yes=37,no=38,missing=37
							37:[f1<2.6500001] yes=45,no=46,missing=45
								45:leaf=-0.016749626
								46:leaf=-0.0472999066
							38:[f1<2.6500001] yes=47,no=48,missing=47
								47:leaf=0.0455394387
								48:[f1<7.95000029] yes=57,no=58,missing=57
									57:leaf=0.00700735906
									58:leaf=7.08763691e-05
						32:[f0<13.25] yes=39,no=40,missing=39
							39:[f2<7.95000029] yes=49,no=50,missing=49
								49:[f3<11.9249992] yes=59,no=60,missing=59
									59:[f0<2.6500001] yes=69,no=70,missing=69
										69:leaf=0.012243635
										70:leaf=-0.0332230777
									60:leaf=-0.0484567583
								50:leaf=-0.0529670678
							40:[f1<2.6500001] yes=51,no=52,missing=51
								51:leaf=0.043588452
								52:[f2<7.95000029] yes=61,no=62,missing=61
									61:leaf=-0.0201261137
									62:leaf=-0.0486608259
					22:[f0<2.6500001] yes=33,no=34,missing=33
						33:leaf=0.0473032296
						34:[f0<13.25] yes=41,no=42,missing=41
							41:[f2<2.6500001] yes=53,no=54,missing=53
								53:leaf=0.00772407884
								54:[f3<11.9249992] yes=63,no=64,missing=63
									63:leaf=-0.00987097621
									64:leaf=-0.0543393865
							42:leaf=0.0468220897
				14:[f0<13.25] yes=23,no=24,missing=23
					23:[f0<2.6500001] yes=35,no=36,missing=35
						35:leaf=0.0510151349
						36:[f1<13.25] yes=43,no=44,missing=43
							43:[f2<2.6500001] yes=55,no=56,missing=55
								55:[f3<11.9249992] yes=65,no=66,missing=65
									65:leaf=-0.0348662287
									66:leaf=0.0552634373
								56:[f1<2.6500001] yes=67,no=68,missing=67
									67:leaf=-0.00459089829
									68:leaf=-0.0497108288
							44:leaf=0.0462905318
					24:leaf=0.051353097
booster[28]:
0:[f3<3.9749999] yes=1,no=2,missing=1
	1:leaf=0.0564755872
	2:[f5<3.9749999] yes=3,no=4,missing=3
		3:[f1<13.25] yes=5,no=6,missing=5
			5:[f0<13.25] yes=9,no=10,missing=9
				9:[f2<2.6500001] yes=15,no=16,missing=15
					15:[f4<11.9249992] yes=25,no=26,missing=25
						25:leaf=-0.0482082441
						26:leaf=0.00706997747
					16:leaf=-0.0541657805
				10:[f1<2.6500001] yes=17,no=18,missing=17
					17:leaf=0.0485254973
					18:[f2<2.6500001] yes=27,no=28,missing=27
						27:leaf=-0.0225909911
						28:leaf=-0.0515331514
			6:[f0<2.6500001] yes=11,no=12,missing=11
				11:leaf=0.0493502431
				12:[f0<13.25] yes=19,no=20,missing=19
					19:[f4<11.9249992] yes=29,no=30,missing=29
						29:leaf=-0.0529562794
						30:[f3<11.9249992] yes=37,no=38,missing=37
							37:leaf=-0.0414725654
							38:leaf=0.00340176816
					20:leaf=0.0485254973
		4:[f5<11.9249992] yes=7,no=8,missing=7
			7:leaf=0.056250181
			8:[f4<11.9249992] yes=13,no=14,missing=13
				13:[f1<13.25] yes=21,no=22,missing=21
					21:[f4<3.9749999] yes=31,no=32,missing=31
						31:[f0<13.25] yes=39,no=40,missing=39
							39:leaf=-0.0545910113
							40:[f1<2.6500001] yes=47,no=48,missing=47
								47:leaf=0.0437095724
								48:leaf=-0.0511493385
						32:[f2<7.95000029] yes=41,no=42,missing=41
							41:[f0<13.25] yes=49,no=50,missing=49
								49:[f0<2.6500001] yes=57,no=58,missing=57
									57:[f3<11.9249992] yes=65,no=66,missing=65
										65:leaf=0.0514392443
										66:leaf=0.00123233499
									58:[f1<2.6500001] yes=67,no=68,missing=67
										67:leaf=0.0165493265
										68:leaf=-0.0558240972
								50:leaf=0.0350797474
							42:[f0<13.25] yes=51,no=52,missing=51
								51:leaf=-0.0487260409
								52:leaf=-0.0209650546
					22:[f0<2.6500001] yes=33,no=34,missing=33
						33:leaf=0.0466477312
						34:[f0<13.25] yes=43,no=44,missing=43
							43:[f4<3.9749999] yes=53,no=54,missing=53
								53:leaf=-0.0483072065
								54:[f3<11.9249992] yes=59,no=60,missing=59
									59:leaf=0.026797032
									60:leaf=-0.0324795805
							44:leaf=0.0461628325
				14:[f0<13.25] yes=23,no=24,missing=23
					23:[f0<2.6500001] yes=35,no=36,missing=35
						35:leaf=0.0504117385
						36:[f1<13.25] yes=45,no=46,missing=45
							45:[f2<2.6500001] yes=55,no=56,missing=55
								55:[f3<11.9249992] yes=61,no=62,missing=61
									61:leaf=-0.0338069201
									62:leaf=0.0540115647
								56:[f1<2.6500001] yes=63,no=64,missing=63
									63:leaf=-0.00440703658
									64:leaf=-0.0490727015
							46:leaf=0.0456278808
					24:leaf=0.0507566109
booster[29]:
0:[f3<3.9749999] yes=1,no=2,missing=1
	1:leaf=0.0560740046
	2:[f5<3.9749999] yes=3,no=4,missing=3
		3:[f1<13.25] yes=5,no=6,missing=5
			5:[f0<13.25] yes=9,no=10,missing=9
				9:[f2<2.6500001] yes=15,no=16,missing=15
					15:[f3<11.9249992] yes=25,no=26,missing=25
						25:leaf=-0.0490711778
						26:[f4<11.9249992] yes=37,no=38,missing=37
							37:leaf=-0.0396408997
							38:leaf=0.0443610065
					16:leaf=-0.0536783338
				10:[f1<2.6500001] yes=17,no=18,missing=17
					17:leaf=0.0479081795
					18:[f2<2.6500001] yes=27,no=28,missing=27
						27:leaf=-0.0219723508
						28:leaf=-0.0509470366
			6:[f0<2.6500001] yes=11,no=12,missing=11
				11:leaf=0.0487453863
				12:[f0<13.25] yes=19,no=20,missing=19
					19:[f2<2.6500001] yes=29,no=30,missing=29
						29:leaf=-0.0175577533
						30:leaf=-0.0514873229
					20:leaf=0.0479081795
		4:[f5<11.9249992] yes=7,no=8,missing=7
			7:leaf=0.0558393113
			8:[f4<11.9249992] yes=13,no=14,missing=13
				13:[f1<13.25] yes=21,no=22,missing=21
					21:[f2<2.6500001] yes=31,no=32,missing=31
						31:[f4<3.9749999] yes=39,no=40,missing=39
							39:[f0<13.25] yes=47,no=48,missing=47
								47:leaf=-0.0446690284
								48:leaf=-0.0143043669
							40:[f0<13.25] yes=49,no=50,missing=49
								49:[f1<2.6500001] yes=59,no=60,missing=59
									59:leaf=0.0410933867
									60:leaf=-0.0179006327
								50:leaf=0.0462696478
						32:[f0<13.25] yes=41,no=42,missing=41
							41:[f2<7.95000029] yes=51,no=52,missing=51
								51:[f3<11.9249992] yes=61,no=62,missing=61
									61:[f0<2.6500001] yes=71,no=72,missing=71
										71:leaf=0.0117772231
										72:leaf=-0.031403888
									62:leaf=-0.0474385582
								52:leaf=-0.0518710092
							42:[f1<2.6500001] yes=53,no=54,missing=53
								53:leaf=0.042599678
								54:[f2<7.95000029] yes=63,no=64,missing=63
									63:leaf=-0.0195055138
									64:leaf=-0.0475015044
					22:[f0<2.6500001] yes=33,no=34,missing=33
						33:leaf=0.0460096262
						34:[f0<13.25] yes=43,no=44,missing=43
							43:[f4<3.9749999] yes=55,no=56,missing=55
								55:leaf=-0.0475591086
								56:[f3<11.9249992] yes=65,no=66,missing=65
									65:leaf=0.0258420762
									66:leaf=-0.0315267108
							44:leaf=0.0455210134
				14:[f0<13.25] yes=23,no=24,missing=23
					23:[f0<2.6500001] yes=35,no=36,missing=35
						35:leaf=0.0498260856
						36:[f1<13.25] yes=45,no=46,missing=45
							45:[f1<2.6500001] yes=57,no=58,missing=57
								57:[f0<7.95000029] yes=67,no=68,missing=67
									67:leaf=-0.028514659
									68:leaf=0.047223866
								58:[f3<11.9249992] yes=69,no=70,missing=69
									69:leaf=-0.0527310669
									70:leaf=-0.00702223927
							46:leaf=0.0449827388
					24:leaf=0.0501779616
booster[30]:
0:[f3<3.9749999] yes=1,no=2,missing=1
	1:leaf=0.0556949265
	2:[f5<3.9749999] yes=3,no=4,missing=3
		3:[f1<13.25] yes=5,no=6,missing=5
			5:[f0<13.25] yes=9,no=10,missing=9
				9:[f2<2.6500001] yes=15,no=16,missing=15
					15:[f3<11.9249992] yes=25,no=26,missing=25
						25:leaf=-0.0483751483
						26:[f4<11.9249992] yes=39,no=40,missing=39
							39:leaf=-0.0390646271
							40:leaf=0.0436672308
					16:leaf=-0.0532094352
				10:[f1<2.6500001] yes=17,no=18,missing=17
					17:leaf=0.0473066494
					18:[f4<11.9249992] yes=27,no=28,missing=27
						27:leaf=-0.051160235
						28:leaf=-0.0222779922
			6:[f0<2.6500001] yes=11,no=12,missing=11
				11:leaf=0.0481563583
				12:[f0<13.25] yes=19,no=20,missing=19
					19:[f4<11.9249992] yes=29,no=30,missing=29
						29:leaf=-0.0518381558
						30:[f2<7.95000029] yes=41,no=42,missing=41
							41:leaf=0.00510969944
							42:leaf=-0.0393993966
					20:leaf=0.0473066494
		4:[f5<11.9249992] yes=7,no=8,missing=7
			7:leaf=0.0554504506
			8:[f4<3.9749999] yes=13,no=14,missing=13
				13:[f1<13.25] yes=21,no=22,missing=21
					21:[f0<13.25] yes=31,no=32,missing=31
						31:leaf=-0.0535647832
						32:[f1<2.6500001] yes=43,no=44,missing=43
							43:leaf=0.0427138768
							44:leaf=-0.0499908365
					22:[f2<2.6500001] yes=33,no=34,missing=33
						33:leaf=-0.00775846979
						34:leaf=0.00515438616
				14:[f2<2.6500001] yes=23,no=24,missing=23
					23:[f3<11.9249992] yes=35,no=36,missing=35
						35:[f1<13.25] yes=45,no=46,missing=45
							45:[f0<7.95000029] yes=53,no=54,missing=53
								53:leaf=-0.0165359918
								54:[f4<11.9249992] yes=61,no=62,missing=61
									61:leaf=0.0247736424
									62:leaf=0.0033608384
							46:leaf=0.0457879491
						36:[f4<11.9249992] yes=47,no=48,missing=47
							47:leaf=0.0292486157
							48:leaf=0.0548144393
					24:[f4<11.9249992] yes=37,no=38,missing=37
						37:[f3<11.9249992] yes=49,no=50,missing=49
							49:[f2<7.95000029] yes=55,no=56,missing=55
								55:[f0<7.95000029] yes=63,no=64,missing=63
									63:leaf=0.0163966585
									64:leaf=0.0372168384
								56:leaf=-0.0288788136
							50:[f0<13.25] yes=57,no=58,missing=57
								57:leaf=-0.0488178991
								58:leaf=-0.0132833393
						38:[f0<13.25] yes=51,no=52,missing=51
							51:[f0<2.6500001] yes=59,no=60,missing=59
								59:leaf=0.0470709391
								60:[f1<13.25] yes=65,no=66,missing=65
									65:[f1<2.6500001] yes=67,no=68,missing=67
										67:leaf=-0.00458460813
										68:leaf=-0.0481079184
									66:leaf=0.0400888585
							52:leaf=0.0473427959
booster[31]:
0:[f3<3.9749999] yes=1,no=2,missing=1
	1:leaf=0.055336602
	2:[f5<3.9749999] yes=3,no=4,missing=3
		3:[f1<13.25] yes=5,no=6,missing=5
			5:[f0<13.25] yes=9,no=10,missing=9
				9:[f2<2.6500001] yes=15,no=16,missing=15
					15:[f3<11.9249992] yes=25,no=26,missing=25
						25:leaf=-0.0476997755
						26:[f4<11.9249992] yes=39,no=40,missing=39
							39:leaf=-0.0385004282
							40:leaf=0.0429931208
					16:leaf=-0.0527573116
				10:[f1<2.6500001] yes=17,no=18,missing=17
					17:leaf=0.0467194691
					18:[f2<2.6500001] yes=27,no=28,missing=27
						27:leaf=-0.0201983955
						28:leaf=-0.0499272086
			6:[f0<2.6500001] yes=11,no=12,missing=11
				11:leaf=0.047581654
				12:[f0<13.25] yes=19,no=20,missing=19
					19:[f2<2.6500001] yes=29,no=30,missing=29
						29:leaf=-0.0160058644
						30:leaf=-0.0504472852
					20:leaf=0.0467194691
		4:[f5<11.9249992] yes=7,no=8,missing=7
			7:leaf=0.0550818406
			8:[f4<3.9749999] yes=13,no=14,missing=13
				13:[f1<13.25] yes=21,no=22,missing=21
					21:[f0<13.25] yes=31,no=32,missing=31
						31:leaf=-0.0529766046
						32:[f1<2.6500001] yes=41,no=42,missing=41
							41:leaf=0.0420350395
							42:leaf=-0.0492637418
					22:[f2<2.6500001] yes=33,no=34,missing=33
						33:leaf=-0.00749114109
						34:leaf=0.00494384859
				14:[f2<2.6500001] yes=23,no=24,missing=23
					23:[f3<11.9249992] yes=35,no=36,missing=35
						35:[f1<13.25] yes=43,no=44,missing=43
							43:[f0<7.95000029] yes=51,no=52,missing=51
								51:leaf=-0.0158934183
								52:[f4<11.9249992] yes=59,no=60,missing=59
									59:leaf=0.0239231605
									60:leaf=0.00324984128
							44:leaf=0.0450094417
						36:[f4<11.9249992] yes=45,no=46,missing=45
							45:leaf=0.0281165391
							46:leaf=0.0539131053
					24:[f4<11.9249992] yes=37,no=38,missing=37
						37:[f3<11.9249992] yes=47,no=48,missing=47
							47:[f2<7.95000029] yes=53,no=54,missing=53
								53:[f0<7.95000029] yes=61,no=62,missing=61
									61:leaf=0.0157749262
									62:leaf=0.0357696339
								54:leaf=-0.0279154629
							48:[f0<13.25] yes=55,no=56,missing=55
								55:leaf=-0.0477209799
								56:leaf=-0.0127849281
						38:[f0<13.25] yes=49,no=50,missing=49
							49:[f0<2.6500001] yes=57,no=58,missing=57
								57:leaf=0.046500016
								58:[f1<13.25] yes=63,no=64,missing=63
									63:[f0<7.95000029] yes=65,no=66,missing=65
										65:leaf=-0.0495201163
										66:leaf=-0.00561546069
									64:leaf=0.0395029113
							50:leaf=0.0467763282
booster[32]:
0:[f3<3.9749999] yes=1,no=2,missing=1
	1:leaf=0.0549974442
	2:[f5<3.9749999] yes=3,no=4,missing=3
		3:[f1<13.25] yes=5,no=6,missing=5
			5:[f0<13.25] yes=9,no=10,missing=9
				9:[f2<2.6500001] yes=15,no=16,missing=15
					15:[f3<11.9249992] yes=25,no=26,missing=25
						25:leaf=-0.0470432788
						26:[f0<2.6500001] yes=39,no=40,missing=39
							39:leaf=-0.00851225015
							40:leaf=0.0181221738
					16:leaf=-0.0523203202
				10:[f1<2.6500001] yes=17,no=18,missing=17
					17:leaf=0.046145346
					18:[f4<11.9249992] yes=27,no=28,missing=27
						27:leaf=-0.0501019917
						28:leaf=-0.0205867384
			6:[f0<2.6500001] yes=11,no=12,missing=11
				11:leaf=0.0470199138
				12:[f0<13.25] yes=19,no=20,missing=19
					19:[f4<11.9249992] yes=29,no=30,missing=29
						29:leaf=-0.0507899411
						30:leaf=-0.0162992589
					20:leaf=0.046145346
		4:[f5<11.9249992] yes=7,no=8,missing=7
			7:leaf=0.0547318757
			8:[f4<3.9749999] yes=13,no=14,missing=13
				13:[f1<13.25] yes=21,no=22,missing=21
					21:[f0<13.25] yes=31,no=32,missing=31
						31:leaf=-0.0524087138
						32:[f1<2.6500001] yes=41,no=42,missing=41
							41:leaf=0.0413744263
							42:leaf=-0.0485596023
					22:[f2<2.6500001] yes=33,no=34,missing=33
						33:leaf=-0.00723295892
						34:leaf=0.00474181538
				14:[f2<2.6500001] yes=23,no=24,missing=23
					23:[f3<11.9249992] yes=35,no=36,missing=35
						35:[f1<13.25] yes=43,no=44,missing=43
							43:[f1<2.6500001] yes=51,no=52,missing=51
								51:leaf=0.0230840072
								52:[f4<11.9249992] yes=59,no=60,missing=59
									59:leaf=0.00467810128
									60:leaf=-0.021506777
							44:leaf=0.0442539975
						36:[f4<11.9249992] yes=45,no=46,missing=45
							45:leaf=0.0270284321
							46:leaf=0.0530437939
					24:[f4<11.9249992] yes=37,no=38,missing=37
						37:[f3<11.9249992] yes=47,no=48,missing=47
							47:[f2<7.95000029] yes=53,no=54,missing=53
								53:[f0<7.95000029] yes=61,no=62,missing=61
									61:leaf=0.0151774408
									62:leaf=0.0343906842
								54:leaf=-0.0269755162
							48:[f0<13.25] yes=55,no=56,missing=55
								55:leaf=-0.0466418676
								56:leaf=-0.0123049384
						38:[f0<13.25] yes=49,no=50,missing=49
							49:[f0<2.6500001] yes=57,no=58,missing=57
								57:leaf=0.0459410064
								58:[f1<13.25] yes=63,no=64,missing=63
									63:[f1<2.6500001] yes=65,no=66,missing=65
										65:leaf=-0.00329401321
										66:leaf=-0.0471927635
									64:leaf=0.0389295705
							50:leaf=0.0462216996
booster[33]:
0:[f3<3.9749999] yes=1,no=2,missing=1
	1:leaf=0.0546760075
	2:[f5<3.9749999] yes=3,no=4,missing=3
		3:[f1<13.25] yes=5,no=6,missing=5
			5:[f0<13.25] yes=9,no=10,missing=9
				9:[f2<2.6500001] yes=15,no=16,missing=15
					15:[f4<11.9249992] yes=25,no=26,missing=25
						25:leaf=-0.0456315055
						26:leaf=0.00738688139
					16:leaf=-0.0518969484
				10:[f1<2.6500001] yes=17,no=18,missing=17
					17:leaf=0.0455831178
					18:[f2<2.6500001] yes=27,no=28,missing=27
						27:leaf=-0.0184952281
						28:leaf=-0.0489635803
			6:[f0<2.6500001] yes=11,no=12,missing=11
				11:leaf=0.0464699194
				12:[f0<13.25] yes=19,no=20,missing=19
					19:[f2<2.6500001] yes=29,no=30,missing=29
						29:leaf=-0.0142207192
						30:leaf=-0.0494913608
					20:leaf=0.0455831178
		4:[f5<11.9249992] yes=7,no=8,missing=7
			7:leaf=0.0543990843
			8:[f4<3.9749999] yes=13,no=14,missing=13
				13:[f1<13.25] yes=21,no=22,missing=21
					21:[f0<13.25] yes=31,no=32,missing=31
						31:leaf=-0.0518591665
						32:[f1<2.6500001] yes=39,no=40,missing=39
							39:leaf=0.0407309197
							40:leaf=-0.04787644
					22:[f2<2.6500001] yes=33,no=34,missing=33
						33:leaf=-0.00698361406
						34:leaf=0.00454796432
				14:[f0<13.25] yes=23,no=24,missing=23
					23:[f0<2.6500001] yes=35,no=36,missing=35
						35:[f4<11.9249992] yes=41,no=42,missing=41
							41:[f2<7.95000029] yes=47,no=48,missing=47
								47:[f3<11.9249992] yes=55,no=56,missing=55
									55:leaf=0.0504884683
									56:leaf=0.0106746452
								48:leaf=-0.0196605623
							42:leaf=0.04784308
						36:[f1<13.25] yes=43,no=44,missing=43
							43:[f1<2.6500001] yes=49,no=50,missing=49
								49:[f0<7.95000029] yes=57,no=58,missing=57
									57:[f3<11.9249992] yes=63,no=64,missing=63
										63:leaf=-0.0503412262
										64:leaf=-0.0191341247
									58:[f2<7.95000029] yes=65,no=66,missing=65
										65:leaf=0.0604671314
										66:leaf=0.0103977947
								50:[f3<11.9249992] yes=59,no=60,missing=59
									59:leaf=-0.0573298112
									60:[f2<2.6500001] yes=67,no=68,missing=67
										67:leaf=0.000373571471
										68:leaf=-0.0429769717
							44:[f2<2.6500001] yes=51,no=52,missing=51
								51:leaf=0.0484015606
								52:[f4<11.9249992] yes=61,no=62,missing=61
									61:leaf=-0.0255010612
									62:leaf=0.0383681394
					24:[f4<11.9249992] yes=37,no=38,missing=37
						37:[f2<7.95000029] yes=45,no=46,missing=45
							45:[f2<2.6500001] yes=53,no=54,missing=53
								53:leaf=0.0458252393
								54:leaf=0.0139942067
							46:leaf=-0.00519293407
						38:leaf=0.0482220203
booster[34]:
0:[f3<3.9749999] yes=1,no=2,missing=1
	1:leaf=0.054370936
	2:[f5<3.9749999] yes=3,no=4,missing=3
		3:[f1<13.25] yes=5,no=6,missing=5
			5:[f0<13.25] yes=9,no=10,missing=9
				9:[f2<2.6500001] yes=15,no=16,missing=15
					15:[f3<11.9249992] yes=25,no=26,missing=25
						25:leaf=-0.0461800955
						26:[f0<2.6500001] yes=39,no=40,missing=39
							39:leaf=-0.00750730652
							40:leaf=0.0179951079
					16:leaf=-0.051485803
				10:[f1<2.6500001] yes=17,no=18,missing=17
					17:leaf=0.0450317226
					18:[f4<11.9249992] yes=27,no=28,missing=27
						27:leaf=-0.0491019562
						28:leaf=-0.0189500693
			6:[f0<2.6500001] yes=11,no=12,missing=11
				11:leaf=0.0459305719
				12:[f0<13.25] yes=19,no=20,missing=19
					19:[f4<11.9249992] yes=29,no=30,missing=29
						29:leaf=-0.0498027243
						30:leaf=-0.0145697594
					20:leaf=0.0450317226
		4:[f5<11.9249992] yes=7,no=8,missing=7
			7:leaf=0.0540820919
			8:[f4<3.9749999] yes=13,no=14,missing=13
				13:[f1<13.25] yes=21,no=22,missing=21
					21:[f0<13.25] yes=31,no=32,missing=31
						31:leaf=-0.0513261557
						32:[f1<2.6500001] yes=41,no=42,missing=41
							41:leaf=0.0401034877
							42:leaf=-0.0472124703
					22:[f2<2.6500001] yes=33,no=34,missing=33
						33:leaf=-0.00674281782
						34:leaf=0.00436196057
				14:[f2<2.6500001] yes=23,no=24,missing=23
					23:[f3<11.9249992] yes=35,no=36,missing=35
						35:[f1<13.25] yes=43,no=44,missing=43
							43:[f0<7.95000029] yes=51,no=52,missing=51
								51:leaf=-0.0150755271
								52:leaf=0.0159161128
							44:leaf=0.0427286513
						36:[f4<11.9249992] yes=45,no=46,missing=45
							45:leaf=0.0251256675
							46:leaf=0.0520905443
					24:[f4<11.9249992] yes=37,no=38,missing=37
						37:[f3<11.9249992] yes=47,no=48,missing=47
							47:[f2<7.95000029] yes=53,no=54,missing=53
								53:[f0<7.95000029] yes=59,no=60,missing=59
									59:leaf=0.0147842783
									60:leaf=0.0334790163
								54:leaf=-0.0254820827
							48:[f0<13.25] yes=55,no=56,missing=55
								55:leaf=-0.0453328192
								56:leaf=-0.011968202
						38:[f0<13.25] yes=49,no=50,missing=49
							49:[f0<2.6500001] yes=57,no=58,missing=57
								57:leaf=0.0448255651
								58:[f0<7.95000029] yes=61,no=62,missing=61
									61:leaf=-0.032404732
									62:[f1<7.95000029] yes=63,no=64,missing=63
										63:leaf=0.00996312499
										64:leaf=0.000710703665
							50:leaf=0.0451140366
booster[35]:
0:[f3<3.9749999] yes=1,no=2,missing=1
	1:leaf=0.0540809743
	2:[f5<3.9749999] yes=3,no=4,missing=3
		3:[f1<13.25] yes=5,no=6,missing=5
			5:[f0<13.25] yes=9,no=10,missing=9
				9:[f2<2.6500001] yes=15,no=16,missing=15
					15:[f4<11.9249992] yes=25,no=26,missing=25
						25:leaf=-0.0447974131
						26:leaf=0.0077511603
					16:leaf=-0.0510855988
				10:[f1<2.6500001] yes=17,no=18,missing=17
					17:leaf=0.0444902144
					18:[f2<2.6500001] yes=27,no=28,missing=27
						27:leaf=-0.0168597978
						28:leaf=-0.0480468646
			6:[f0<2.6500001] yes=11,no=12,missing=11
				11:leaf=0.0454008728
				12:[f0<13.25] yes=19,no=20,missing=19
					19:[f2<2.6500001] yes=29,no=30,missing=29
						29:leaf=-0.0125295911
						30:leaf=-0.0485863239
					20:leaf=0.0444902144
		4:[f5<11.9249992] yes=7,no=8,missing=7
			7:leaf=0.0537796579
			8:[f4<3.9749999] yes=13,no=14,missing=13
				13:[f1<13.25] yes=21,no=22,missing=21
					21:[f0<13.25] yes=31,no=32,missing=31
						31:leaf=-0.0508080609
						32:leaf=-0.0157326832
					22:[f2<2.6500001] yes=33,no=34,missing=33
						33:leaf=-0.00651026284
						34:leaf=0.00418349216
				14:[f0<13.25] yes=23,no=24,missing=23
					23:[f0<2.6500001] yes=35,no=36,missing=35
						35:[f4<11.9249992] yes=39,no=40,missing=39
							39:[f2<7.95000029] yes=45,no=46,missing=45
								45:[f3<11.9249992] yes=53,no=54,missing=53
									53:leaf=0.0493633859
									54:leaf=0.0107504157
								46:leaf=-0.0179688726
							40:leaf=0.0468839705
						36:[f1<13.25] yes=41,no=42,missing=41
							41:[f1<2.6500001] yes=47,no=48,missing=47
								47:[f0<7.95000029] yes=55,no=56,missing=55
									55:[f3<11.9249992] yes=61,no=62,missing=61
										61:leaf=-0.0491578653
										62:leaf=-0.0182595607
									56:leaf=0.0439722352
								48:[f3<11.9249992] yes=57,no=58,missing=57
									57:leaf=-0.0565268211
									58:[f2<2.6500001] yes=63,no=64,missing=63
										63:leaf=-0.00109868764
										64:leaf=-0.042175252
							42:[f2<2.6500001] yes=49,no=50,missing=49
								49:leaf=0.0467949137
								50:[f3<11.9249992] yes=59,no=60,missing=59
									59:leaf=0.0225709379
									60:leaf=-0.0216640756
					24:[f4<11.9249992] yes=37,no=38,missing=37
						37:[f2<7.95000029] yes=43,no=44,missing=43
							43:[f2<2.6500001] yes=51,no=52,missing=51
								51:leaf=0.0446735509
								52:leaf=0.0134284822
							44:leaf=-0.00426652981
						38:leaf=0.0472546034
booster[36]:
0:[f3<3.9749999] yes=1,no=2,missing=1
	1:leaf=0.0538050011
	2:[f5<3.9749999] yes=3,no=4,missing=3
		3:[f1<13.25] yes=5,no=6,missing=5
			5:[f0<13.25] yes=9,no=10,missing=9
				9:[f2<2.6500001] yes=15,no=16,missing=15
					15:[f3<11.9249992] yes=25,no=26,missing=25
						25:leaf=-0.0453571565
						26:[f0<2.6500001] yes=37,no=38,missing=37
							37:leaf=-0.0065645338
							38:leaf=0.0178547315
					16:leaf=-0.0506951325
				10:[f1<2.6500001] yes=17,no=18,missing=17
					17:leaf=0.0439577773
					18:[f4<11.9249992] yes=27,no=28,missing=27
						27:leaf=-0.0481507145
						28:leaf=-0.0173673984
			6:[f0<2.6500001] yes=11,no=12,missing=11
				11:leaf=0.044879932
				12:[f0<13.25] yes=19,no=20,missing=19
					19:[f4<11.9249992] yes=29,no=30,missing=29
						29:leaf=-0.0488673002
						30:leaf=-0.0129230171
					20:leaf=0.0439577773
		4:[f5<11.9249992] yes=7,no=8,missing=7
			7:leaf=0.0534905866
			8:[f4<11.9249992] yes=13,no=14,missing=13
				13:[f1<13.25] yes=21,no=22,missing=21
					21:[f1<2.6500001] yes=31,no=32,missing=31
						31:[f0<7.95000029] yes=39,no=40,missing=39
							39:[f0<2.6500001] yes=47,no=48,missing=47
								47:leaf=-0.0166014656
								48:leaf=-0.0481557362
							40:[f0<13.25] yes=49,no=50,missing=49
								49:leaf=0.00343492697
								50:leaf=0.0461340547
						32:[f4<3.9749999] yes=41,no=42,missing=41
							41:leaf=-0.0508569963
							42:[f0<2.6500001] yes=51,no=52,missing=51
								51:leaf=0.00676958263
								52:[f0<13.25] yes=57,no=58,missing=57
									57:leaf=-0.0546244793
									58:[f3<11.9249992] yes=65,no=66,missing=65
										65:leaf=0.0182773303
										66:leaf=-0.0206464361
					22:[f0<2.6500001] yes=33,no=34,missing=33
						33:leaf=0.045569174
						34:[f0<13.25] yes=43,no=44,missing=43
							43:[f4<3.9749999] yes=53,no=54,missing=53
								53:leaf=-0.046806749
								54:[f3<11.9249992] yes=59,no=60,missing=59
									59:leaf=0.0225387979
									60:leaf=-0.0271855146
							44:leaf=0.0445734859
				14:[f0<13.25] yes=23,no=24,missing=23
					23:[f0<2.6500001] yes=35,no=36,missing=35
						35:leaf=0.0463765673
						36:[f1<13.25] yes=45,no=46,missing=45
							45:[f1<2.6500001] yes=55,no=56,missing=55
								55:[f0<7.95000029] yes=61,no=62,missing=61
									61:leaf=-0.02567463
									62:leaf=0.0446416475
								56:[f3<11.9249992] yes=63,no=64,missing=63
									63:leaf=-0.0490104444
									64:leaf=-0.00549236452
							46:leaf=0.0417932086
					24:leaf=0.0467550084
booster[37]:
0:[f3<3.9749999] yes=1,no=2,missing=1
	1:leaf=0.053541936
	2:[f5<3.9749999] yes=3,no=4,missing=3
		3:[f1<13.25] yes=5,no=6,missing=5
			5:[f0<13.25] yes=9,no=10,missing=9
				9:[f2<2.6500001] yes=15,no=16,missing=15
					15:[f4<11.9249992] yes=25,no=26,missing=25
						25:leaf=-0.0439988002
						26:leaf=0.00808076467
					16:leaf=-0.05031332
				10:[f1<2.6500001] yes=17,no=18,missing=17
					17:leaf=0.0434336103
					18:[f2<2.6500001] yes=27,no=28,missing=27
						27:leaf=-0.015289939
						28:leaf=-0.0471693911
			6:[f0<2.6500001] yes=11,no=12,missing=11
				11:leaf=0.0443669371
				12:[f0<13.25] yes=19,no=20,missing=19
					19:[f2<2.6500001] yes=29,no=30,missing=29
						29:leaf=-0.0109289959
						30:leaf=-0.0477244966
					20:leaf=0.0434336103
		4:[f5<11.9249992] yes=7,no=8,missing=7
			7:leaf=0.0532138236
			8:[f4<3.9749999] yes=13,no=14,missing=13
				13:[f0<13.25] yes=21,no=22,missing=21
					21:[f1<13.25] yes=31,no=32,missing=31
						31:leaf=-0.0499712601
						32:[f2<7.95000029] yes=39,no=40,missing=39
							39:leaf=-0.0180518012
							40:leaf=-0.0062973164
					22:[f1<7.95000029] yes=33,no=34,missing=33
						33:leaf=0.00180003012
						34:leaf=-0.00265310565
				14:[f2<2.6500001] yes=23,no=24,missing=23
					23:[f3<11.9249992] yes=35,no=36,missing=35
						35:[f4<11.9249992] yes=41,no=42,missing=41
							41:[f0<7.95000029] yes=49,no=50,missing=49
								49:leaf=0.0105756186
								50:leaf=0.0293313563
							42:leaf=-0.000514617772
						36:[f4<11.9249992] yes=43,no=44,missing=43
							43:leaf=0.0243237372
							44:leaf=0.0511988997
					24:[f4<11.9249992] yes=37,no=38,missing=37
						37:[f3<11.9249992] yes=45,no=46,missing=45
							45:[f2<7.95000029] yes=51,no=52,missing=51
								51:[f0<7.95000029] yes=57,no=58,missing=57
									57:leaf=0.0148389479
									58:leaf=0.0329321995
								52:leaf=-0.0250050183
							46:[f0<13.25] yes=53,no=54,missing=53
								53:leaf=-0.0440376475
								54:leaf=-0.0120503819
						38:[f0<13.25] yes=47,no=48,missing=47
							47:[f0<2.6500001] yes=55,no=56,missing=55
								55:leaf=0.0432021618
								56:[f0<7.95000029] yes=59,no=60,missing=59
									59:leaf=-0.0306299161
									60:[f3<11.9249992] yes=61,no=62,missing=61
										61:leaf=0.0102953585
										62:leaf=0.00115099631
							48:leaf=0.0435014553
booster[38]:
0:[f3<3.9749999] yes=1,no=2,missing=1
	1:leaf=0.0532908104
	2:[f5<3.9749999] yes=3,no=4,missing=3
		3:[f1<13.25] yes=5,no=6,missing=5
			5:[f0<13.25] yes=9,no=10,missing=9
				9:[f2<2.6500001] yes=15,no=16,missing=15
					15:[f3<11.9249992] yes=25,no=26,missing=25
						25:leaf=-0.044569578
						26:leaf=0.00759492535
					16:leaf=-0.0499391183
				10:[f1<2.6500001] yes=17,no=18,missing=17
					17:leaf=0.042917069
					18:[f2<2.6500001] yes=27,no=28,missing=27
						27:leaf=-0.0148522602
						28:leaf=-0.0466838516
			6:[f0<2.6500001] yes=11,no=12,missing=11
